# Tue Sep  5 17:19:02 2023
#  Frecuencia [Hz], Z [Ohm], Fase [deg]
2.000000000000000000e+01,1.800310000000000000e+06,-7.079920000000000435e+00
2.018710000000000093e+01,1.853960000000000000e+06,-6.992709999999999759e+00
2.037209999999999965e+01,1.792180000000000000e+06,-6.987549999999999706e+00
2.056200000000000117e+01,2.050900000000000000e+06,-8.275159999999999627e+00
2.075120000000000076e+01,2.338570000000000000e+06,-9.207280000000000797e+00
2.094529999999999959e+01,2.388750000000000000e+06,-9.649779999999999802e+00
2.114020000000000010e+01,2.414130000000000000e+06,-9.758580000000000254e+00
2.133409999999999940e+01,2.469430000000000000e+06,-1.015590000000000082e+01
2.153320000000000078e+01,2.537440000000000000e+06,-1.047059999999999924e+01
2.173130000000000095e+01,2.562890000000000000e+06,-1.073419999999999952e+01
2.193299999999999983e+01,2.575760000000000000e+06,-1.079260000000000019e+01
2.213530000000000086e+01,2.524970000000000000e+06,-1.068679999999999986e+01
2.234140000000000015e+01,2.471440000000000000e+06,-1.059249999999999936e+01
2.254960000000000164e+01,2.541540000000000000e+06,-1.099810000000000088e+01
2.275829999999999842e+01,2.656510000000000000e+06,-1.138599999999999923e+01
2.296740000000000137e+01,2.549560000000000000e+06,-1.133339999999999925e+01
2.318029999999999902e+01,2.508640000000000000e+06,-1.106780000000000008e+01
2.339730000000000132e+01,2.552220000000000000e+06,-1.152159999999999940e+01
2.361280000000000001e+01,2.535170000000000000e+06,-1.143410000000000082e+01
2.383030000000000115e+01,2.487350000000000000e+06,-1.155180000000000007e+01
2.405000000000000071e+01,2.609660000000000000e+06,-1.193069999999999986e+01
2.427580000000000027e+01,2.685530000000000000e+06,-1.232010000000000005e+01
2.449980000000000047e+01,2.538470000000000000e+06,-1.193650000000000055e+01
2.472800000000000153e+01,2.575570000000000000e+06,-1.256859999999999999e+01
2.495429999999999993e+01,2.720270000000000000e+06,-1.276409999999999911e+01
2.518680000000000163e+01,2.671560000000000000e+06,-1.306670000000000087e+01
2.541939999999999955e+01,2.652570000000000000e+06,-1.307429999999999914e+01
2.565419999999999945e+01,2.782460000000000000e+06,-1.367559999999999931e+01
2.589110000000000156e+01,2.681450000000000000e+06,-1.326140000000000008e+01
2.613009999999999877e+01,2.690900000000000000e+06,-1.336250000000000071e+01
2.637590000000000146e+01,2.620750000000000000e+06,-1.325990000000000002e+01
2.661929999999999907e+01,2.736750000000000000e+06,-1.399789999999999957e+01
2.686730000000000018e+01,2.707790000000000000e+06,-1.388550000000000040e+01
2.711250000000000071e+01,2.721900000000000000e+06,-1.421879999999999988e+01
2.736730000000000018e+01,2.624550000000000000e+06,-1.394469999999999921e+01
2.761919999999999931e+01,2.700420000000000000e+06,-1.394309999999999938e+01
2.787330000000000041e+01,2.692520000000000000e+06,-1.449150000000000027e+01
2.813200000000000145e+01,2.668020000000000000e+06,-1.421429999999999971e+01
2.839560000000000173e+01,2.770100000000000000e+06,-1.524259999999999948e+01
2.865599999999999881e+01,2.757990000000000000e+06,-1.498569999999999958e+01
2.892119999999999891e+01,2.767410000000000000e+06,-1.595710000000000051e+01
2.919140000000000157e+01,2.871780000000000000e+06,-1.583999999999999986e+01
2.946379999999999910e+01,2.790270000000000000e+06,-1.593619999999999948e+01
2.973239999999999839e+01,2.857230000000000000e+06,-1.595289999999999964e+01
3.000600000000000023e+01,2.808240000000000000e+06,-1.625420000000000087e+01
3.028770000000000095e+01,2.909970000000000000e+06,-1.680140000000000100e+01
3.056859999999999999e+01,2.899690000000000000e+06,-1.713070000000000093e+01
3.084829999999999828e+01,2.923980000000000000e+06,-1.729400000000000048e+01
3.113329999999999842e+01,2.932400000000000000e+06,-1.780120000000000147e+01
3.142680000000000007e+01,2.854130000000000000e+06,-1.717439999999999856e+01
3.171249999999999858e+01,2.897660000000000000e+06,-1.776529999999999987e+01
3.201019999999999754e+01,2.893180000000000000e+06,-1.768629999999999924e+01
3.230319999999999681e+01,2.905030000000000000e+06,-1.829680000000000106e+01
3.260520000000000351e+01,2.988790000000000000e+06,-1.853940000000000055e+01
3.290919999999999845e+01,2.891450000000000000e+06,-1.785170000000000101e+01
3.321520000000000294e+01,2.870170000000000000e+06,-1.794200000000000017e+01
3.352329999999999899e+01,2.728730000000000000e+06,-1.741469999999999985e+01
3.383330000000000126e+01,2.826600000000000000e+06,-1.807059999999999889e+01
3.414130000000000109e+01,2.883340000000000000e+06,-1.942699999999999960e+01
3.446300000000000097e+01,2.874290000000000000e+06,-1.904899999999999949e+01
3.478260000000000218e+01,2.950460000000000000e+06,-2.001729999999999876e+01
3.510000000000000142e+01,2.819890000000000000e+06,-1.854469999999999885e+01
3.542329999999999757e+01,2.898360000000000000e+06,-1.954960000000000164e+01
3.575690000000000168e+01,2.914960000000000000e+06,-2.005989999999999895e+01
3.608809999999999718e+01,2.934980000000000000e+06,-2.022409999999999997e+01
3.642099999999999937e+01,2.799380000000000000e+06,-1.954210000000000136e+01
3.676019999999999754e+01,2.887730000000000000e+06,-2.004149999999999920e+01
3.710119999999999862e+01,2.819700000000000000e+06,-1.984740000000000038e+01
3.743919999999999959e+01,2.755770000000000000e+06,-1.931429999999999936e+01
3.778810000000000002e+01,2.692360000000000000e+06,-1.924930000000000163e+01
3.814370000000000260e+01,2.869890000000000000e+06,-2.076259999999999906e+01
3.849110000000000298e+01,2.847230000000000000e+06,-2.096590000000000131e+01
3.884499999999999886e+01,2.906350000000000000e+06,-2.198600000000000065e+01
3.920539999999999736e+01,2.901740000000000000e+06,-2.199660000000000082e+01
3.956739999999999924e+01,2.837840000000000000e+06,-2.179040000000000177e+01
3.993610000000000326e+01,2.867650000000000000e+06,-2.195100000000000051e+01
4.030630000000000024e+01,2.975520000000000000e+06,-2.386739999999999995e+01
4.068350000000000222e+01,2.866750000000000000e+06,-2.320769999999999911e+01
4.105649999999999977e+01,2.970530000000000000e+06,-2.319810000000000016e+01
4.143650000000000233e+01,3.035150000000000000e+06,-2.446099999999999852e+01
4.182350000000000279e+01,2.954330000000000000e+06,-2.427309999999999945e+01
4.221189999999999998e+01,3.000620000000000000e+06,-2.488939999999999841e+01
4.260150000000000148e+01,2.944840000000000000e+06,-2.387610000000000099e+01
4.299230000000000018e+01,2.905140000000000000e+06,-2.467449999999999832e+01
4.339020000000000010e+01,2.916220000000000000e+06,-2.471760000000000090e+01
4.380199999999999960e+01,2.949600000000000000e+06,-2.475910000000000011e+01
4.420219999999999771e+01,2.869230000000000000e+06,-2.477550000000000097e+01
4.461630000000000251e+01,2.889930000000000000e+06,-2.533879999999999910e+01
4.501800000000000068e+01,2.928580000000000000e+06,-2.545299999999999940e+01
4.544769999999999754e+01,2.963060000000000000e+06,-2.541499999999999915e+01
4.586449999999999960e+01,2.996380000000000000e+06,-2.648499999999999943e+01
4.628199999999999648e+01,2.980950000000000000e+06,-2.696740000000000137e+01
4.671439999999999770e+01,2.991200000000000000e+06,-2.682120000000000104e+01
4.715500000000000114e+01,2.944300000000000000e+06,-2.729779999999999873e+01
4.758129999999999882e+01,3.009920000000000000e+06,-2.753079999999999927e+01
4.802309999999999945e+01,2.914820000000000000e+06,-2.777309999999999945e+01
4.846529999999999916e+01,2.996320000000000000e+06,-2.744719999999999871e+01
4.892369999999999663e+01,2.934870000000000000e+06,-2.724279999999999902e+01
4.936650000000000205e+01,2.896690000000000000e+06,-2.845090000000000074e+01
4.983389999999999986e+01,2.817730000000000000e+06,-2.826079999999999970e+01
5.029339999999999833e+01,2.962840000000000000e+06,-2.904909999999999926e+01
5.076140000000000185e+01,2.872450000000000000e+06,-2.860210000000000008e+01
5.122950000000000159e+01,2.786260000000000000e+06,-2.751699999999999946e+01
5.169740000000000180e+01,2.820120000000000000e+06,-2.817729999999999890e+01
5.218299999999999983e+01,2.904050000000000000e+06,-2.937790000000000035e+01
5.265930000000000177e+01,2.798450000000000000e+06,-2.913080000000000069e+01
5.314439999999999742e+01,2.894280000000000000e+06,-3.031510000000000105e+01
5.363850000000000051e+01,2.859110000000000000e+06,-3.041199999999999903e+01
5.415160000000000196e+01,2.896100000000000000e+06,-3.051930000000000121e+01
5.464479999999999649e+01,2.859430000000000000e+06,-3.154540000000000077e+01
5.514710000000000178e+01,2.873490000000000000e+06,-3.089039999999999964e+01
5.566899999999999693e+01,2.854320000000000000e+06,-3.176289999999999836e+01
5.616929999999999978e+01,2.811810000000000000e+06,-3.094119999999999848e+01
5.668930000000000291e+01,2.802410000000000000e+06,-3.105130000000000123e+01
5.721920000000000073e+01,2.829730000000000000e+06,-3.143270000000000053e+01
5.775900000000000034e+01,2.777940000000000000e+06,-3.217949999999999733e+01
5.828640000000000043e+01,2.758980000000000000e+06,-3.134570000000000078e+01
5.883509999999999707e+01,2.836430000000000000e+06,-3.304019999999999868e+01
5.938239999999999696e+01,2.773900000000000000e+06,-3.238119999999999976e+01
5.991610000000000014e+01,2.768490000000000000e+06,-3.263419999999999987e+01
6.048389999999999844e+01,2.770390000000000000e+06,-3.327920000000000300e+01
6.105010000000000048e+01,2.768520000000000000e+06,-3.327080000000000126e+01
6.161430000000000007e+01,2.732260000000000000e+06,-3.266810000000000258e+01
6.216329999999999956e+01,2.726480000000000000e+06,-3.349589999999999890e+01
6.274839999999999662e+01,2.740710000000000000e+06,-3.433740000000000236e+01
6.333120000000000260e+01,2.675170000000000000e+06,-3.381629999999999825e+01
6.391140000000000043e+01,2.650860000000000000e+06,-3.427779999999999916e+01
6.450230000000000530e+01,2.710070000000000000e+06,-3.463349999999999795e+01
6.510420000000000584e+01,2.689910000000000000e+06,-3.444650000000000034e+01
6.570300000000000296e+01,2.711000000000000000e+06,-3.557430000000000092e+01
6.632769999999999300e+01,2.684960000000000000e+06,-3.557560000000000144e+01
6.693439999999999657e+01,2.679510000000000000e+06,-3.559140000000000015e+01
6.755240000000000578e+01,2.634610000000000000e+06,-3.645430000000000348e+01
6.816630000000000678e+01,2.676200000000000000e+06,-3.627000000000000313e+01
6.880729999999999791e+01,2.610400000000000000e+06,-3.699139999999999873e+01
6.944440000000000168e+01,2.657100000000000000e+06,-3.647699999999999676e+01
7.007710000000000150e+01,2.634240000000000000e+06,-3.783910000000000196e+01
7.073799999999999955e+01,2.602160000000000000e+06,-3.738920000000000243e+01
7.141160000000000707e+01,2.689820000000000000e+06,-3.858270000000000266e+01
7.204609999999999559e+01,2.601670000000000000e+06,-3.754809999999999803e+01
7.272729999999999961e+01,2.533180000000000000e+06,-3.703540000000000276e+01
7.340349999999999397e+01,2.575690000000000000e+06,-3.790979999999999706e+01
7.407410000000000139e+01,2.549100000000000000e+06,-3.889789999999999992e+01
7.475700000000000500e+01,2.625030000000000000e+06,-3.961690000000000111e+01
7.547169999999999845e+01,2.599110000000000000e+06,-4.003739999999999810e+01
7.614209999999999923e+01,2.539300000000000000e+06,-3.871529999999999916e+01
7.688370000000000459e+01,2.568060000000000000e+06,-3.990109999999999957e+01
7.757949999999999591e+01,2.583340000000000000e+06,-4.069180000000000064e+01
7.828810000000000002e+01,2.593160000000000000e+06,-4.101230000000000331e+01
7.903060000000000684e+01,2.539070000000000000e+06,-4.093809999999999860e+01
7.976600000000000534e+01,2.578870000000000000e+06,-4.239999999999999858e+01
8.047209999999999752e+01,2.603740000000000000e+06,-4.273680000000000234e+01
8.125679999999999836e+01,2.535740000000000000e+06,-4.242179999999999751e+01
8.201200000000000045e+01,2.551850000000000000e+06,-4.275019999999999953e+01
8.275860000000000127e+01,2.528230000000000000e+06,-4.368679999999999808e+01
8.351890000000000214e+01,2.511210000000000000e+06,-4.314789999999999992e+01
8.429330000000000211e+01,2.446760000000000000e+06,-4.304270000000000351e+01
8.505809999999999604e+01,2.492530000000000000e+06,-4.404520000000000124e+01
8.586150000000000659e+01,2.455340000000000000e+06,-4.223619999999999663e+01
8.663009999999999877e+01,2.438970000000000000e+06,-4.334219999999999828e+01
8.743810000000000571e+01,2.432170000000000000e+06,-4.417219999999999658e+01
8.826130000000000564e+01,2.449710000000000000e+06,-4.455060000000000286e+01
8.910009999999999764e+01,2.451260000000000000e+06,-4.557379999999999853e+01
8.990109999999999957e+01,2.403170000000000000e+06,-4.524790000000000134e+01
9.074410000000000309e+01,2.450150000000000000e+06,-4.591689999999999827e+01
9.157510000000000616e+01,2.412910000000000000e+06,-4.607759999999999678e+01
9.242140000000000555e+01,2.410870000000000000e+06,-4.680570000000000164e+01
9.331260000000000332e+01,2.384580000000000000e+06,-4.589410000000000167e+01
9.413240000000000407e+01,2.352470000000000000e+06,-4.640209999999999724e+01
9.502689999999999770e+01,2.352440000000000000e+06,-4.683299999999999841e+01
9.587730000000000530e+01,2.370820000000000000e+06,-4.839330000000000354e+01
9.677419999999999334e+01,2.394760000000000000e+06,-4.805890000000000128e+01
9.768800000000000239e+01,2.365540000000000000e+06,-4.848749999999999716e+01
9.861929999999999552e+01,2.371210000000000000e+06,-4.873910000000000053e+01
9.950249999999999773e+01,2.355000000000000000e+06,-4.970439999999999969e+01
1.004350000000000023e+02,2.289850000000000000e+06,-4.876350000000000051e+01
1.013509999999999991e+02,2.334620000000000000e+06,-4.941049999999999898e+01
1.022840000000000060e+02,2.284660000000000000e+06,-4.887890000000000157e+01
1.032699999999999960e+02,2.262770000000000000e+06,-4.891329999999999956e+01
1.042390000000000043e+02,2.278410000000000000e+06,-5.016239999999999810e+01
1.051520000000000010e+02,2.181290000000000000e+06,-4.837019999999999698e+01
1.061569999999999965e+02,2.209720000000000000e+06,-4.902219999999999800e+01
1.071430000000000007e+02,2.278000000000000000e+06,-5.103379999999999939e+01
1.081080000000000041e+02,2.175730000000000000e+06,-5.090690000000000026e+01
1.091310000000000002e+02,2.188160000000000000e+06,-5.181980000000000075e+01
1.101320000000000050e+02,2.141790000000000000e+06,-5.129849999999999710e+01
1.111520000000000010e+02,2.147420000000000000e+06,-5.052909999999999968e+01
1.121910000000000025e+02,2.137830000000000000e+06,-5.218719999999999715e+01
1.132500000000000000e+02,2.141330000000000000e+06,-5.093229999999999791e+01
1.142420000000000044e+02,2.079550000000000000e+06,-4.952740000000000009e+01
1.153400000000000034e+02,2.099460000000000000e+06,-5.196329999999999671e+01
1.163689999999999998e+02,2.060440000000000000e+06,-5.119729999999999848e+01
1.175090000000000003e+02,2.047550000000000000e+06,-5.154719999999999658e+01
1.185300000000000011e+02,2.058830000000000000e+06,-5.291980000000000217e+01
1.197129999999999939e+02,2.044580000000000000e+06,-5.265769999999999840e+01
1.208220000000000027e+02,2.032700000000000000e+06,-5.201800000000000068e+01
1.218520000000000039e+02,2.026930000000000000e+06,-5.296790000000000020e+01
1.230010000000000048e+02,2.006160000000000000e+06,-5.363360000000000127e+01
1.241719999999999970e+02,2.008270000000000000e+06,-5.358460000000000178e+01
1.253130000000000024e+02,1.979400000000000000e+06,-5.385229999999999961e+01
1.265289999999999964e+02,1.992790000000000000e+06,-5.401010000000000133e+01
1.276050000000000040e+02,1.969200000000000000e+06,-5.488219999999999743e+01
1.288660000000000139e+02,1.936230000000000000e+06,-5.433229999999999649e+01
1.300389999999999873e+02,1.948050000000000000e+06,-5.514320000000000022e+01
1.311759999999999877e+02,1.933180000000000000e+06,-5.414970000000000283e+01
1.324499999999999886e+02,1.871230000000000000e+06,-5.399560000000000315e+01
1.336299999999999955e+02,1.867300000000000000e+06,-5.370649999999999835e+01
1.348919999999999959e+02,1.885330000000000000e+06,-5.516570000000000107e+01
1.361160000000000139e+02,1.866080000000000000e+06,-5.514750000000000085e+01
1.374259999999999877e+02,1.857840000000000000e+06,-5.623969999999999914e+01
1.386959999999999980e+02,1.856540000000000000e+06,-5.604630000000000223e+01
1.399250000000000114e+02,1.854970000000000000e+06,-5.763559999999999661e+01
1.413089999999999975e+02,1.838160000000000000e+06,-5.745649999999999835e+01
1.426529999999999916e+02,1.818300000000000000e+06,-5.718220000000000169e+01
1.439540000000000077e+02,1.822990000000000000e+06,-5.842000000000000171e+01
1.452079999999999984e+02,1.811400000000000000e+06,-5.826539999999999964e+01
1.466279999999999859e+02,1.794860000000000000e+06,-5.783389999999999986e+01
1.480020000000000095e+02,1.805520000000000000e+06,-5.913660000000000139e+01
1.493280000000000030e+02,1.767100000000000000e+06,-5.847910000000000252e+01
1.506779999999999973e+02,1.761950000000000000e+06,-5.898940000000000339e+01
1.521299999999999955e+02,1.727780000000000000e+06,-5.873899999999999721e+01
1.535310000000000059e+02,1.728760000000000000e+06,-5.882699999999999818e+01
1.549590000000000032e+02,1.713360000000000000e+06,-5.955460000000000065e+01
1.563309999999999889e+02,1.698230000000000000e+06,-5.928920000000000101e+01
1.578950000000000102e+02,1.689290000000000000e+06,-5.899889999999999901e+01
1.593199999999999932e+02,1.683370000000000000e+06,-6.050059999999999860e+01
1.607719999999999914e+02,1.680470000000000000e+06,-6.119010000000000105e+01
1.621620000000000061e+02,1.669120000000000000e+06,-6.082319999999999993e+01
1.636659999999999968e+02,1.646770000000000000e+06,-6.067600000000000193e+01
1.651980000000000075e+02,1.635060000000000000e+06,-6.149309999999999832e+01
1.667589999999999861e+02,1.619890000000000000e+06,-6.109859999999999758e+01
1.683499999999999943e+02,1.622020000000000000e+06,-6.083270000000000266e+01
1.698750000000000000e+02,1.625680000000000000e+06,-6.239710000000000178e+01
1.715269999999999868e+02,1.604610000000000000e+06,-6.334519999999999840e+01
1.730099999999999909e+02,1.593920000000000000e+06,-6.271779999999999688e+01
1.747230000000000132e+02,1.579970000000000000e+06,-6.353820000000000334e+01
1.762630000000000052e+02,1.584040000000000000e+06,-6.431610000000000582e+01
1.778300000000000125e+02,1.580000000000000000e+06,-6.384890000000000043e+01
1.795329999999999870e+02,1.559050000000000000e+06,-6.410299999999999443e+01
1.811589999999999918e+02,1.545830000000000000e+06,-6.363559999999999661e+01
1.828149999999999977e+02,1.541220000000000000e+06,-6.478700000000000614e+01
1.846150000000000091e+02,1.522160000000000000e+06,-6.417319999999999425e+01
1.863350000000000080e+02,1.485600000000000000e+06,-6.376800000000000068e+01
1.880879999999999939e+02,1.506160000000000000e+06,-6.541880000000000450e+01
1.897529999999999859e+02,1.489540000000000000e+06,-6.573999999999999488e+01
1.915709999999999980e+02,1.476970000000000000e+06,-6.473090000000000543e+01
1.934240000000000066e+02,1.456380000000000000e+06,-6.631289999999999907e+01
1.951850000000000023e+02,1.445200000000000000e+06,-6.514249999999999829e+01
1.968499999999999943e+02,1.441510000000000000e+06,-6.618550000000000466e+01
1.986750000000000114e+02,1.418870000000000000e+06,-6.519499999999999318e+01
2.006690000000000111e+02,1.400320000000000000e+06,-6.560980000000000700e+01
2.024290000000000020e+02,1.398360000000000000e+06,-6.560639999999999361e+01
2.043600000000000136e+02,1.381290000000000000e+06,-6.597990000000000066e+01
2.063269999999999982e+02,1.375670000000000000e+06,-6.603549999999999898e+01
2.080440000000000111e+02,1.364600000000000000e+06,-6.682280000000000086e+01
2.099370000000000118e+02,1.360840000000000000e+06,-6.689209999999999923e+01
2.118640000000000043e+02,1.348420000000000000e+06,-6.730259999999999820e+01
2.139799999999999898e+02,1.336460000000000000e+06,-6.734350000000000591e+01
2.158269999999999982e+02,1.331140000000000000e+06,-6.757680000000000575e+01
2.180229999999999961e+02,1.319320000000000000e+06,-6.763309999999999889e+01
2.199410000000000025e+02,1.306740000000000000e+06,-6.764430000000000121e+01
2.218930000000000007e+02,1.293380000000000000e+06,-6.755610000000000070e+01
2.242150000000000034e+02,1.289260000000000000e+06,-6.816960000000000264e+01
2.262439999999999998e+02,1.278320000000000000e+06,-6.843519999999999470e+01
2.283110000000000070e+02,1.264270000000000000e+06,-6.905140000000000100e+01
2.304149999999999920e+02,1.264610000000000000e+06,-6.929340000000000543e+01
2.323779999999999859e+02,1.249400000000000000e+06,-6.935739999999999839e+01
2.345579999999999927e+02,1.240720000000000000e+06,-6.939499999999999602e+01
2.369670000000000130e+02,1.215750000000000000e+06,-6.936050000000000182e+01
2.390440000000000111e+02,1.214400000000000000e+06,-6.942319999999999425e+01
2.413520000000000039e+02,1.212170000000000000e+06,-6.907120000000000459e+01
2.433089999999999975e+02,1.204970000000000000e+06,-6.961709999999999354e+01
2.456999999999999886e+02,1.185010000000000000e+06,-7.043019999999999925e+01
2.481390000000000100e+02,1.180410000000000000e+06,-6.996210000000000662e+01
2.504170000000000016e+02,1.168340000000000000e+06,-7.015680000000000405e+01
2.525250000000000057e+02,1.155590000000000000e+06,-7.053780000000000427e+01
2.548849999999999909e+02,1.160510000000000000e+06,-7.116920000000000357e+01
2.575110000000000241e+02,1.142260000000000000e+06,-7.105639999999999645e+01
2.597400000000000091e+02,1.136470000000000000e+06,-7.083679999999999666e+01
2.622379999999999995e+02,1.129960000000000000e+06,-7.135039999999999338e+01
2.645500000000000114e+02,1.118310000000000000e+06,-7.207850000000000534e+01
2.671419999999999959e+02,1.105380000000000000e+06,-7.161860000000000070e+01
2.695419999999999732e+02,1.099000000000000000e+06,-7.173629999999999995e+01
2.722320000000000277e+02,1.078190000000000000e+06,-7.111050000000000182e+01
2.747250000000000227e+02,1.079650000000000000e+06,-7.171959999999999980e+01
2.770079999999999814e+02,1.069900000000000000e+06,-7.233960000000000434e+01
2.798509999999999991e+02,1.055280000000000000e+06,-7.186199999999999477e+01
2.822200000000000273e+02,1.060730000000000000e+06,-7.239010000000000389e+01
2.848999999999999773e+02,1.049360000000000000e+06,-7.235729999999999507e+01
2.873559999999999945e+02,1.039600000000000000e+06,-7.234340000000000259e+01
2.901349999999999909e+02,1.025500000000000000e+06,-7.211119999999999663e+01
2.929689999999999941e+02,1.016920000000000000e+06,-7.301670000000000016e+01
2.955659999999999741e+02,1.006560000000000000e+06,-7.335680000000000689e+01
2.985070000000000050e+02,1.002260000000000000e+06,-7.351009999999999422e+01
3.012049999999999841e+02,9.972240000000000000e+05,-7.413750000000000284e+01
3.039510000000000218e+02,9.834920000000000000e+05,-7.404030000000000200e+01
3.064350000000000023e+02,9.824390000000000000e+05,-7.340529999999999688e+01
3.092780000000000200e+02,9.776920000000000000e+05,-7.476069999999999993e+01
3.125000000000000000e+02,9.532560000000000000e+05,-7.457750000000000057e+01
3.151259999999999764e+02,9.521810000000000000e+05,-7.419010000000000105e+01
3.184710000000000036e+02,9.453640000000000000e+05,-7.506510000000000105e+01
3.211990000000000123e+02,9.412310000000000000e+05,-7.534499999999999886e+01
3.239739999999999895e+02,9.281500000000000000e+05,-7.475610000000000355e+01
3.267970000000000255e+02,9.261020000000000000e+05,-7.518619999999999948e+01
3.300330000000000155e+02,9.170260000000000000e+05,-7.555200000000000671e+01
3.329630000000000223e+02,9.081650000000000000e+05,-7.538259999999999650e+01
3.359460000000000264e+02,9.006000000000000000e+05,-7.560790000000000077e+01
3.397509999999999764e+02,8.909570000000000000e+05,-7.570980000000000132e+01
3.428570000000000277e+02,8.817800000000000000e+05,-7.561899999999999977e+01
3.456220000000000141e+02,8.762470000000000000e+05,-7.580610000000000070e+01
3.488369999999999891e+02,8.712990000000000000e+05,-7.656449999999999534e+01
3.525260000000000105e+02,8.590430000000000000e+05,-7.618319999999999936e+01
3.554499999999999886e+02,8.540650000000000000e+05,-7.684130000000000393e+01
3.588519999999999754e+02,8.468050000000000000e+05,-7.608050000000000068e+01
3.623190000000000168e+02,8.375390000000000000e+05,-7.647620000000000573e+01
3.654080000000000155e+02,8.325090000000000000e+05,-7.663500000000000512e+01
3.685500000000000114e+02,8.235220000000000000e+05,-7.651680000000000348e+01
3.722080000000000268e+02,8.222840000000000000e+05,-7.699760000000000559e+01
3.754689999999999941e+02,8.223950000000000000e+05,-7.721040000000000703e+01
3.792669999999999959e+02,7.995430000000000000e+05,-7.712420000000000186e+01
3.826530000000000200e+02,7.962360000000000000e+05,-7.714530000000000598e+01
3.861000000000000227e+02,7.873790000000000000e+05,-7.714619999999999322e+01
3.896100000000000136e+02,7.785330000000000000e+05,-7.680049999999999955e+01
3.937010000000000218e+02,7.714620000000000000e+05,-7.756699999999999307e+01
3.968249999999999886e+02,7.729390000000000000e+05,-7.763089999999999691e+01
4.005339999999999918e+02,7.739650000000000000e+05,-7.880389999999999873e+01
4.048580000000000041e+02,7.570290000000000000e+05,-7.768429999999999325e+01
4.081630000000000109e+02,7.491570000000000000e+05,-7.806820000000000448e+01
4.120880000000000223e+02,7.370870000000000000e+05,-7.781199999999999761e+01
4.155120000000000005e+02,7.375790000000000000e+05,-7.814430000000000121e+01
4.195799999999999841e+02,7.318310000000000000e+05,-7.866960000000000264e+01
4.231309999999999718e+02,7.251890000000000000e+05,-7.827769999999999584e+01
4.273500000000000227e+02,7.191200000000000000e+05,-7.841479999999999961e+01
4.310339999999999918e+02,7.158270000000000000e+05,-7.826049999999999329e+01
4.360470000000000255e+02,7.041060000000000000e+05,-7.823919999999999675e+01
4.398829999999999814e+02,6.940050000000000000e+05,-7.829219999999999402e+01
4.431309999999999718e+02,6.928500000000000000e+05,-7.854120000000000346e+01
4.477610000000000241e+02,6.875020000000000000e+05,-7.854659999999999798e+01
4.518070000000000164e+02,6.813350000000000000e+05,-7.921800000000000352e+01
4.559270000000000209e+02,6.737920000000000000e+05,-7.906850000000000023e+01
4.608290000000000077e+02,6.677640000000000000e+05,-7.890659999999999741e+01
4.643960000000000150e+02,6.607320000000000000e+05,-7.896450000000000102e+01
4.687500000000000000e+02,6.561140000000000000e+05,-7.914600000000000080e+01
4.731859999999999786e+02,6.512160000000000000e+05,-7.934699999999999420e+01
4.777069999999999936e+02,6.436600000000000000e+05,-7.963859999999999673e+01
4.823149999999999977e+02,6.386530000000000000e+05,-7.935179999999999723e+01
4.870129999999999768e+02,6.333920000000000000e+05,-7.936879999999999313e+01
4.909979999999999905e+02,6.296660000000000000e+05,-7.950549999999999784e+01
4.950489999999999782e+02,6.341350000000000000e+05,-7.980840000000000600e+01
5.000000000000000000e+02,6.173030000000000000e+05,-7.989230000000000587e+01
5.050509999999999877e+02,6.126030000000000000e+05,-7.978789999999999338e+01
5.102040000000000077e+02,6.051400000000000000e+05,-8.000260000000000105e+01
5.145800000000000409e+02,6.005350000000000000e+05,-8.004139999999999588e+01
5.190309999999999491e+02,5.947100000000000000e+05,-8.004550000000000409e+01
5.235599999999999454e+02,5.926090000000000000e+05,-8.015970000000000084e+01
5.281689999999999827e+02,5.834170000000000000e+05,-8.022750000000000625e+01
5.338079999999999927e+02,5.783950000000000000e+05,-8.041039999999999566e+01
5.376340000000000146e+02,5.750490000000000000e+05,-8.007510000000000616e+01
5.434779999999999518e+02,5.701840000000000000e+05,-8.048090000000000543e+01
5.484460000000000264e+02,5.648830000000000000e+05,-8.066270000000000095e+01
5.545289999999999964e+02,5.633300000000000000e+05,-8.151670000000000016e+01
5.586589999999999918e+02,5.554770000000000000e+05,-8.079619999999999891e+01
5.649719999999999800e+02,5.478300000000000000e+05,-8.087980000000000302e+01
5.692599999999999909e+02,5.452400000000000000e+05,-8.110399999999999920e+01
5.747129999999999654e+02,5.387660000000000000e+05,-8.102410000000000423e+01
5.802709999999999582e+02,5.357380000000000000e+05,-8.116729999999999734e+01
5.847949999999999591e+02,5.304690000000000000e+05,-8.159529999999999461e+01
5.905510000000000446e+02,5.269820000000000000e+05,-8.105180000000000007e+01
5.952380000000000564e+02,5.206820000000000000e+05,-8.146210000000000662e+01
6.012019999999999982e+02,5.159490000000000000e+05,-8.116689999999999827e+01
6.072870000000000346e+02,5.125860000000000000e+05,-8.157410000000000139e+01
6.134969999999999573e+02,5.072090000000000000e+05,-8.143800000000000239e+01
6.198350000000000364e+02,5.031580000000000000e+05,-8.174639999999999418e+01
6.250000000000000000e+02,4.970310000000000000e+05,-8.180750000000000455e+01
6.302519999999999527e+02,4.917610000000000000e+05,-8.192549999999999955e+01
6.355929999999999609e+02,4.901940000000000000e+05,-8.174739999999999895e+01
6.423980000000000246e+02,4.892840000000000000e+05,-8.091410000000000480e+01
6.479479999999999791e+02,4.794080000000000000e+05,-8.185219999999999629e+01
6.550220000000000482e+02,4.706380000000000000e+05,-8.143330000000000268e+01
6.607930000000000064e+02,4.648100000000000000e+05,-8.186610000000000298e+01
6.651879999999999882e+02,4.676510000000000000e+05,-8.199679999999999325e+01
6.726459999999999582e+02,4.626430000000000000e+05,-8.218170000000000641e+01
6.787329999999999472e+02,4.594020000000000000e+05,-8.213509999999999422e+01
6.833709999999999809e+02,4.560090000000000000e+05,-8.206369999999999720e+01
6.896549999999999727e+02,4.523190000000000000e+05,-8.235209999999999297e+01
6.976739999999999782e+02,4.483360000000000000e+05,-8.213689999999999714e+01
7.025760000000000218e+02,4.438750000000000000e+05,-8.230259999999999820e+01
7.108999999999999773e+02,4.373990000000000000e+05,-8.241289999999999338e+01
7.159900000000000091e+02,4.353540000000000000e+05,-8.244889999999999475e+01
7.246380000000000337e+02,4.307720000000000000e+05,-8.251080000000000325e+01
7.299270000000000209e+02,4.271100000000000000e+05,-8.268470000000000653e+01
7.389160000000000537e+02,4.218830000000000000e+05,-8.256119999999999948e+01
7.425739999999999554e+02,4.206850000000000000e+05,-8.269190000000000396e+01
7.500000000000000000e+02,4.156570000000000000e+05,-8.275920000000000698e+01
7.594940000000000282e+02,4.110610000000000000e+05,-8.259950000000000614e+01
7.653060000000000400e+02,4.077250000000000000e+05,-8.261450000000000671e+01
7.712079999999999700e+02,4.048610000000000000e+05,-8.278879999999999484e+01
7.812500000000000000e+02,3.995790000000000000e+05,-8.287409999999999854e+01
7.853400000000000318e+02,3.969200000000000000e+05,-8.275289999999999679e+01
7.957559999999999718e+02,3.922800000000000000e+05,-8.309569999999999368e+01
8.000000000000000000e+02,3.911100000000000000e+05,-8.313219999999999743e+01
8.086250000000000000e+02,3.878750000000000000e+05,-8.341840000000000543e+01
8.152169999999999845e+02,3.826140000000000000e+05,-8.332470000000000709e+01
8.241760000000000446e+02,3.801730000000000000e+05,-8.336960000000000548e+01
8.333329999999999700e+02,3.756360000000000000e+05,-8.343009999999999593e+01
8.403360000000000127e+02,3.724020000000000000e+05,-8.337489999999999668e+01
8.450700000000000500e+02,3.703630000000000000e+05,-8.360309999999999775e+01
8.571430000000000291e+02,3.644240000000000000e+05,-8.338150000000000261e+01
8.620689999999999600e+02,3.629730000000000000e+05,-8.355719999999999459e+01
8.695650000000000546e+02,3.610330000000000000e+05,-8.349250000000000682e+01
8.771929999999999836e+02,3.562950000000000000e+05,-8.357439999999999714e+01
8.875739999999999554e+02,3.534100000000000000e+05,-8.388469999999999516e+01
8.928569999999999709e+02,3.500700000000000000e+05,-8.376449999999999818e+01
9.036140000000000327e+02,3.463010000000000000e+05,-8.376130000000000564e+01
9.118540000000000418e+02,3.439760000000000000e+05,-8.372410000000000707e+01
9.202450000000000045e+02,3.415170000000000000e+05,-8.391339999999999577e+01
9.316770000000000209e+02,3.370270000000000000e+05,-8.407200000000000273e+01
9.375000000000000000e+02,3.346880000000000000e+05,-8.378400000000000603e+01
9.463719999999999573e+02,3.318630000000000000e+05,-8.399869999999999948e+01
9.523809999999999718e+02,3.295190000000000000e+05,-8.383289999999999509e+01
9.615380000000000109e+02,3.262350000000000000e+05,-8.382429999999999382e+01
9.740259999999999536e+02,3.219740000000000000e+05,-8.435420000000000584e+01
9.803920000000000528e+02,3.208200000000000000e+05,-8.411010000000000275e+01
9.900990000000000464e+02,3.169260000000000000e+05,-8.421089999999999520e+01
1.000000000000000000e+03,3.140690000000000000e+05,-8.433689999999999998e+01
1.006710000000000036e+03,3.125210000000000000e+05,-8.452779999999999916e+01
1.020409999999999968e+03,3.072780000000000000e+05,-8.450010000000000332e+01
1.030930000000000064e+03,3.039440000000000000e+05,-8.396450000000000102e+01
1.038059999999999945e+03,3.031210000000000000e+05,-8.447700000000000387e+01
1.048950000000000045e+03,2.993180000000000000e+05,-8.460660000000000025e+01
1.060069999999999936e+03,2.964900000000000000e+05,-8.455679999999999552e+01
1.067619999999999891e+03,2.945750000000000000e+05,-8.461860000000000070e+01
1.079140000000000100e+03,2.914000000000000000e+05,-8.476330000000000098e+01
1.090910000000000082e+03,2.884100000000000000e+05,-8.470090000000000430e+01
1.094890000000000100e+03,2.877450000000000000e+05,-8.473940000000000339e+01
1.107009999999999991e+03,2.840720000000000000e+05,-8.488509999999999422e+01
1.115240000000000009e+03,2.820570000000000000e+05,-8.482940000000000680e+01
1.132079999999999927e+03,2.783810000000000000e+05,-8.488469999999999516e+01
1.136359999999999900e+03,2.791520000000000000e+05,-8.477389999999999759e+01
1.149430000000000064e+03,2.735910000000000000e+05,-8.504510000000000502e+01
1.158299999999999955e+03,2.718240000000000000e+05,-8.504460000000000264e+01
1.171880000000000109e+03,2.684730000000000000e+05,-8.521680000000000632e+01
1.181099999999999909e+03,2.668000000000000000e+05,-8.502920000000000300e+01
1.195220000000000027e+03,2.638200000000000000e+05,-8.503919999999999391e+01
1.200000000000000000e+03,2.625130000000000000e+05,-8.501649999999999352e+01
1.214569999999999936e+03,2.594500000000000000e+05,-8.499139999999999873e+01
1.229509999999999991e+03,2.562510000000000000e+05,-8.519859999999999900e+01
1.239670000000000073e+03,2.538260000000000000e+05,-8.511119999999999663e+01
1.244809999999999945e+03,2.535570000000000000e+05,-8.461870000000000402e+01
1.260500000000000000e+03,2.499760000000000000e+05,-8.520369999999999777e+01
1.276599999999999909e+03,2.468880000000000000e+05,-8.522180000000000177e+01
1.282049999999999955e+03,2.455940000000000000e+05,-8.505679999999999552e+01
1.293099999999999909e+03,2.439880000000000000e+05,-8.531440000000000623e+01
1.310039999999999964e+03,2.410910000000000000e+05,-8.545340000000000202e+01
1.321589999999999918e+03,2.384200000000000000e+05,-8.549760000000000559e+01
1.327430000000000064e+03,2.379390000000000000e+05,-8.547320000000000562e+01
1.345289999999999964e+03,2.347090000000000000e+05,-8.528520000000000323e+01
1.363640000000000100e+03,2.310510000000000000e+05,-8.548420000000000130e+01
1.369859999999999900e+03,2.301670000000000000e+05,-8.533979999999999677e+01
1.388890000000000100e+03,2.274690000000000000e+05,-8.541150000000000375e+01
1.401869999999999891e+03,2.245630000000000000e+05,-8.531740000000000634e+01
1.408450000000000045e+03,2.242700000000000000e+05,-8.548099999999999454e+01
1.421799999999999955e+03,2.219150000000000000e+05,-8.539329999999999643e+01
1.428569999999999936e+03,2.206770000000000000e+05,-8.552179999999999893e+01
1.449279999999999973e+03,2.180870000000000000e+05,-8.575849999999999795e+01
1.456309999999999945e+03,2.165020000000000000e+05,-8.568510000000000559e+01
1.477829999999999927e+03,2.139010000000000000e+05,-8.564190000000000680e+01
1.492539999999999964e+03,2.115920000000000000e+05,-8.557380000000000564e+01
1.500000000000000000e+03,2.102430000000000000e+05,-8.565999999999999659e+01
1.515150000000000091e+03,2.083840000000000000e+05,-8.572660000000000480e+01
1.530609999999999900e+03,2.065090000000000000e+05,-8.574790000000000134e+01
1.538460000000000036e+03,2.050170000000000000e+05,-8.574420000000000641e+01
1.554400000000000091e+03,2.033740000000000000e+05,-8.583459999999999468e+01
1.570680000000000064e+03,2.009270000000000000e+05,-8.581860000000000355e+01
1.587299999999999955e+03,1.997200000000000000e+05,-8.583799999999999386e+01
1.595740000000000009e+03,1.982440000000000000e+05,-8.581690000000000396e+01
1.612900000000000091e+03,1.959750000000000000e+05,-8.590739999999999554e+01
1.630430000000000064e+03,1.927770000000000000e+05,-8.566910000000000025e+01
1.648349999999999909e+03,1.918650000000000000e+05,-8.594429999999999836e+01
1.666670000000000073e+03,1.894080000000000000e+05,-8.608549999999999613e+01
1.685390000000000100e+03,1.878470000000000000e+05,-8.605800000000000693e+01
1.704549999999999955e+03,1.875750000000000000e+05,-8.634210000000000207e+01
1.714289999999999964e+03,1.845940000000000000e+05,-8.604540000000000077e+01
1.734099999999999909e+03,1.823980000000000000e+05,-8.614100000000000534e+01
1.734099999999999909e+03,1.825430000000000000e+05,-8.607949999999999591e+01
1.764710000000000036e+03,1.793970000000000000e+05,-8.622880000000000678e+01
1.785710000000000036e+03,1.771970000000000000e+05,-8.614159999999999684e+01
1.785710000000000036e+03,1.773220000000000000e+05,-8.617889999999999873e+01
1.818180000000000064e+03,1.745020000000000000e+05,-8.622159999999999513e+01
1.818180000000000064e+03,1.745430000000000000e+05,-8.624309999999999832e+01
1.840490000000000009e+03,1.722430000000000000e+05,-8.639790000000000703e+01
1.851849999999999909e+03,1.709290000000000000e+05,-8.625449999999999307e+01
1.875000000000000000e+03,1.688320000000000000e+05,-8.622709999999999297e+01
1.886789999999999964e+03,1.679360000000000000e+05,-8.637789999999999679e+01
1.923079999999999927e+03,1.646420000000000000e+05,-8.638689999999999714e+01
1.935480000000000018e+03,1.636630000000000000e+05,-8.645000000000000284e+01
1.948049999999999955e+03,1.628680000000000000e+05,-8.628589999999999804e+01
1.960779999999999973e+03,1.617120000000000000e+05,-8.634189999999999543e+01
1.973680000000000064e+03,1.606360000000000000e+05,-8.646529999999999916e+01
2.000000000000000000e+03,1.584450000000000000e+05,-8.630549999999999500e+01
2.013420000000000073e+03,1.574190000000000000e+05,-8.631369999999999720e+01
2.054789999999999964e+03,1.546280000000000000e+05,-8.643319999999999936e+01
2.054789999999999964e+03,1.542860000000000000e+05,-8.648409999999999798e+01
2.083329999999999927e+03,1.521400000000000000e+05,-8.647079999999999700e+01
2.097900000000000091e+03,1.511190000000000000e+05,-8.650310000000000343e+01
2.127659999999999854e+03,1.487110000000000000e+05,-8.658379999999999654e+01
2.142860000000000127e+03,1.480870000000000000e+05,-8.644610000000000127e+01
2.158269999999999982e+03,1.471120000000000000e+05,-8.659470000000000312e+01
2.173909999999999854e+03,1.460620000000000000e+05,-8.651970000000000027e+01
2.189780000000000200e+03,1.445780000000000000e+05,-8.631279999999999575e+01
2.205880000000000109e+03,1.441140000000000000e+05,-8.653430000000000177e+01
2.255639999999999873e+03,1.407970000000000000e+05,-8.674530000000000030e+01
2.272730000000000018e+03,1.398320000000000000e+05,-8.664660000000000650e+01
2.290079999999999927e+03,1.385680000000000000e+05,-8.663849999999999341e+01
2.307690000000000055e+03,1.375390000000000000e+05,-8.673420000000000130e+01
2.307690000000000055e+03,1.374570000000000000e+05,-8.676680000000000348e+01
2.343750000000000000e+03,1.354910000000000000e+05,-8.667459999999999809e+01
2.362199999999999818e+03,1.345080000000000000e+05,-8.668030000000000257e+01
2.380949999999999818e+03,1.332750000000000000e+05,-8.667170000000000130e+01
2.400000000000000000e+03,1.322540000000000000e+05,-8.666689999999999827e+01
2.419349999999999909e+03,1.315630000000000000e+05,-8.683889999999999532e+01
2.439019999999999982e+03,1.302980000000000000e+05,-8.688450000000000273e+01
2.500000000000000000e+03,1.273300000000000000e+05,-8.667489999999999384e+01
2.500000000000000000e+03,1.271320000000000000e+05,-8.685909999999999798e+01
2.542369999999999891e+03,1.250060000000000000e+05,-8.683790000000000475e+01
2.542369999999999891e+03,1.250430000000000000e+05,-8.675100000000000477e+01
2.564099999999999909e+03,1.245410000000000000e+05,-8.664780000000000371e+01
2.608699999999999818e+03,1.219310000000000000e+05,-8.687680000000000291e+01
2.631579999999999927e+03,1.207520000000000000e+05,-8.679810000000000514e+01
2.654869999999999891e+03,1.198540000000000000e+05,-8.691320000000000334e+01
2.678570000000000164e+03,1.187540000000000000e+05,-8.682609999999999673e+01
2.678570000000000164e+03,1.188490000000000000e+05,-8.692340000000000089e+01
2.702699999999999818e+03,1.177480000000000000e+05,-8.687749999999999773e+01
2.727269999999999982e+03,1.166520000000000000e+05,-8.694350000000000023e+01
2.752289999999999964e+03,1.153310000000000000e+05,-8.692799999999999727e+01
2.803739999999999782e+03,1.133730000000000000e+05,-8.695919999999999561e+01
2.830190000000000055e+03,1.123620000000000000e+05,-8.703019999999999357e+01
2.857139999999999873e+03,1.112860000000000000e+05,-8.706900000000000261e+01
2.857139999999999873e+03,1.113400000000000000e+05,-8.702620000000000289e+01
2.912619999999999891e+03,1.091170000000000000e+05,-8.702419999999999334e+01
2.912619999999999891e+03,1.092510000000000000e+05,-8.696920000000000073e+01
2.970300000000000182e+03,1.070910000000000000e+05,-8.703810000000000002e+01
3.000000000000000000e+03,1.065430000000000000e+05,-8.701500000000000057e+01
3.000000000000000000e+03,1.059480000000000000e+05,-8.703900000000000148e+01
3.030300000000000182e+03,1.050410000000000000e+05,-8.707670000000000243e+01
3.061219999999999800e+03,1.039730000000000000e+05,-8.712699999999999534e+01
3.092780000000000200e+03,1.028060000000000000e+05,-8.706799999999999784e+01
3.125000000000000000e+03,1.019760000000000000e+05,-8.712619999999999720e+01
3.157889999999999873e+03,1.007290000000000000e+05,-8.711390000000000100e+01
3.225809999999999945e+03,9.861089999999999418e+04,-8.714560000000000173e+01
3.260869999999999891e+03,9.766600000000000000e+04,-8.719819999999999993e+01
3.296699999999999818e+03,9.669639999999999418e+04,-8.712879999999999825e+01
3.296699999999999818e+03,9.669200000000000000e+04,-8.710200000000000387e+01
3.333329999999999927e+03,9.563000000000000000e+04,-8.721710000000000207e+01
3.409090000000000146e+03,9.348900000000000000e+04,-8.711730000000000018e+01
3.409090000000000146e+03,9.348139999999999418e+04,-8.725169999999999959e+01
3.488369999999999891e+03,9.154360000000000582e+04,-8.722190000000000509e+01
3.488369999999999891e+03,9.152889999999999418e+04,-8.728119999999999834e+01
3.529409999999999854e+03,9.043960000000000582e+04,-8.714470000000000027e+01
3.614460000000000036e+03,8.833350000000000000e+04,-8.722010000000000218e+01
3.658539999999999964e+03,8.745760000000000582e+04,-8.721479999999999677e+01
3.703699999999999818e+03,8.605480000000000291e+04,-8.718470000000000653e+01
3.703699999999999818e+03,8.612530000000000291e+04,-8.731839999999999691e+01
3.750000000000000000e+03,8.513160000000000582e+04,-8.725409999999999400e+01
3.846150000000000091e+03,8.298769999999999709e+04,-8.723050000000000637e+01
3.846150000000000091e+03,8.301230000000000291e+04,-8.726149999999999807e+01
3.896099999999999909e+03,8.184910000000000582e+04,-8.716450000000000387e+01
4.000000000000000000e+03,8.003460000000000582e+04,-8.723940000000000339e+01
4.000000000000000000e+03,7.982280000000000291e+04,-8.726330000000000098e+01
4.054050000000000182e+03,7.903250000000000000e+04,-8.714390000000000214e+01
4.166670000000000073e+03,7.671960000000000582e+04,-8.722610000000000241e+01
4.225350000000000364e+03,7.570539999999999418e+04,-8.723890000000000100e+01
4.225350000000000364e+03,7.560100000000000000e+04,-8.721769999999999357e+01
4.285710000000000036e+03,7.451989999999999418e+04,-8.726860000000000639e+01
4.411760000000000218e+03,7.250300000000000000e+04,-8.726189999999999714e+01
4.411760000000000218e+03,7.242600000000000000e+04,-8.706640000000000157e+01
4.477609999999999673e+03,7.143450000000000000e+04,-8.728959999999999297e+01
4.545449999999999818e+03,7.030489999999999418e+04,-8.724790000000000134e+01
4.615380000000000109e+03,6.928769999999999709e+04,-8.722820000000000107e+01
4.687500000000000000e+03,6.818689999999999418e+04,-8.725339999999999918e+01
4.761899999999999636e+03,6.725519999999999709e+04,-8.725530000000000541e+01
4.918029999999999745e+03,6.506190000000000146e+04,-8.725140000000000384e+01
4.918029999999999745e+03,6.509819999999999709e+04,-8.726659999999999684e+01
5.000000000000000000e+03,6.397700000000000000e+04,-8.726099999999999568e+01
5.172409999999999854e+03,6.189430000000000291e+04,-8.721469999999999345e+01
5.172409999999999854e+03,6.191550000000000000e+04,-8.726130000000000564e+01
5.357140000000000327e+03,5.968000000000000000e+04,-8.733039999999999736e+01
5.357140000000000327e+03,5.967340000000000146e+04,-8.712969999999999970e+01
5.555560000000000400e+03,5.768440000000000146e+04,-8.718000000000000682e+01
5.660380000000000109e+03,5.663509999999999854e+04,-8.721490000000000009e+01
5.769229999999999563e+03,5.558080000000000291e+04,-8.717109999999999559e+01
5.769229999999999563e+03,5.557690000000000146e+04,-8.722650000000000148e+01
5.882350000000000364e+03,5.446109999999999854e+04,-8.719960000000000377e+01
6.000000000000000000e+03,5.352759999999999854e+04,-8.716039999999999566e+01
6.250000000000000000e+03,5.134230000000000291e+04,-8.713920000000000243e+01
6.250000000000000000e+03,5.139509999999999854e+04,-8.720499999999999829e+01
6.521739999999999782e+03,4.923650000000000000e+04,-8.716949999999999932e+01
6.666670000000000073e+03,4.817550000000000000e+04,-8.716819999999999879e+01
6.818180000000000291e+03,4.711059999999999854e+04,-8.709839999999999804e+01
6.818180000000000291e+03,4.711550000000000000e+04,-8.711660000000000537e+01
6.976739999999999782e+03,4.603819999999999709e+04,-8.715019999999999811e+01
7.317069999999999709e+03,4.391930000000000291e+04,-8.708740000000000236e+01
7.317069999999999709e+03,4.393900000000000000e+04,-8.707689999999999486e+01
7.500000000000000000e+03,4.284059999999999854e+04,-8.705580000000000496e+01
7.894739999999999782e+03,4.073619999999999709e+04,-8.702110000000000412e+01
8.108109999999999673e+03,3.969090000000000146e+04,-8.700260000000000105e+01
8.333329999999999927e+03,3.859859999999999854e+04,-8.694499999999999318e+01
8.333329999999999927e+03,3.864009999999999854e+04,-8.696500000000000341e+01
8.823530000000000655e+03,3.653430000000000291e+04,-8.685049999999999670e+01
9.090909999999999854e+03,3.544950000000000000e+04,-8.683400000000000318e+01
9.375000000000000000e+03,3.438169999999999709e+04,-8.678480000000000416e+01
9.375000000000000000e+03,3.439580000000000291e+04,-8.676770000000000493e+01
1.000000000000000000e+04,3.230920000000000073e+04,-8.663590000000000657e+01
1.000000000000000000e+04,3.226540000000000146e+04,-8.668439999999999657e+01
1.034479999999999927e+04,3.120920000000000073e+04,-8.665120000000000289e+01
1.111110000000000036e+04,2.906670000000000073e+04,-8.654949999999999477e+01
1.111110000000000036e+04,2.910340000000000146e+04,-8.647549999999999670e+01
1.200000000000000000e+04,2.696150000000000000e+04,-8.638290000000000646e+01
1.200000000000000000e+04,2.696979999999999927e+04,-8.635800000000000409e+01
1.250000000000000000e+04,2.589240000000000146e+04,-8.629859999999999332e+01
1.363639999999999964e+04,2.376070000000000073e+04,-8.611480000000000246e+01
1.428570000000000073e+04,2.273590000000000146e+04,-8.596710000000000207e+01
1.428570000000000073e+04,2.271079999999999927e+04,-8.592340000000000089e+01
1.500000000000000000e+04,2.165729999999999927e+04,-8.579980000000000473e+01
1.666670000000000073e+04,1.952870000000000073e+04,-8.552849999999999397e+01
1.764709999999999854e+04,1.847079999999999927e+04,-8.533830000000000382e+01
1.875000000000000000e+04,1.740600000000000000e+04,-8.514770000000000039e+01
1.875000000000000000e+04,1.741259999999999854e+04,-8.514079999999999870e+01
2.000000000000000000e+04,1.635410000000000036e+04,-8.491060000000000230e+01
2.307690000000000146e+04,1.423370000000000073e+04,-8.435420000000000584e+01
2.307690000000000146e+04,1.423170000000000073e+04,-8.438660000000000139e+01
2.500000000000000000e+04,1.317779999999999927e+04,-8.400339999999999918e+01
2.727270000000000073e+04,1.211150000000000000e+04,-8.364849999999999852e+01
2.727270000000000073e+04,1.211389999999999964e+04,-8.364000000000000057e+01
2.857140000000000146e+04,1.158720000000000073e+04,-8.340970000000000084e+01
3.000000000000000000e+04,1.105989999999999964e+04,-8.316009999999999991e+01
3.157890000000000146e+04,1.053910000000000036e+04,-8.287909999999999400e+01
3.333330000000000291e+04,1.001220000000000073e+04,-8.260479999999999734e+01
3.529409999999999854e+04,9.508510000000000218e+03,-8.229349999999999454e+01
3.750000000000000000e+04,8.985760000000000218e+03,-8.196680000000000632e+01
4.000000000000000000e+04,8.461569999999999709e+03,-8.158410000000000650e+01
4.285709999999999854e+04,7.940050000000000182e+03,-8.116859999999999786e+01
4.615380000000000291e+04,7.418800000000000182e+03,-8.070510000000000161e+01
5.000000000000000000e+04,6.899600000000000364e+03,-8.020680000000000121e+01
5.217390000000000146e+04,6.637819999999999709e+03,-7.993540000000000134e+01
5.714290000000000146e+04,6.122300000000000182e+03,-7.933839999999999293e+01
6.000000000000000000e+04,5.861520000000000437e+03,-7.904009999999999536e+01
6.000000000000000000e+04,5.863789999999999964e+03,-7.904449999999999932e+01
6.666669999999999709e+04,5.345000000000000000e+03,-7.836239999999999384e+01
7.058819999999999709e+04,5.085979999999999563e+03,-7.801970000000000027e+01
7.058819999999999709e+04,5.083800000000000182e+03,-7.801260000000000616e+01
7.500000000000000000e+04,4.823770000000000437e+03,-7.763420000000000698e+01
8.000000000000000000e+04,4.564050000000000182e+03,-7.724060000000000059e+01
9.230769999999999709e+04,4.038519999999999982e+03,-7.637649999999999295e+01
1.000000000000000000e+05,3.774030000000000200e+03,-7.589910000000000423e+01
1.000000000000000000e+05,3.775929999999999836e+03,-7.590489999999999782e+01
1.090910000000000000e+05,3.506909999999999854e+03,-7.540229999999999677e+01
1.142860000000000000e+05,3.371760000000000218e+03,-7.511809999999999832e+01
1.200000000000000000e+05,3.234989999999999782e+03,-7.485559999999999548e+01
1.200000000000000000e+05,3.236329999999999927e+03,-7.486549999999999727e+01
1.333330000000000000e+05,2.962510000000000218e+03,-7.429200000000000159e+01
1.333330000000000000e+05,2.962300000000000182e+03,-7.425990000000000180e+01
1.411760000000000000e+05,2.824480000000000018e+03,-7.394289999999999452e+01
1.500000000000000000e+05,2.685000000000000000e+03,-7.357989999999999498e+01
1.600000000000000000e+05,2.545110000000000127e+03,-7.317119999999999891e+01
1.846150000000000000e+05,2.260869999999999891e+03,-7.229410000000000025e+01
1.846150000000000000e+05,2.261110000000000127e+03,-7.229460000000000264e+01
2.000000000000000000e+05,2.116130000000000109e+03,-7.175020000000000664e+01
