334
510.7656398777057	-2.9223614283402597	20.0
510.980847734645	-2.8864111598114337	20.3721
510.57054093941736	-3.1079132598449264	20.7512
511.5238933270226	-3.0523179003467615	21.1402
510.7443316592949	-3.142641229944504	21.5332
511.2130042174204	-2.859223670809223	21.933
510.91569152070065	-3.084117851872524	22.3414
510.7694193937829	-2.782793764879703	22.7583
510.4173589692926	-3.295883312911773	23.1803
510.4821079377721	-3.1779772511441617	23.6128
511.1451012529211	-2.655667362641686	24.05
510.30372493387944	-3.2383505998412967	24.4998
510.3089938671565	-3.0318150158558415	24.9543
510.9551449657268	-3.0081770315437817	25.4194
510.45467038456957	-2.9161364132172585	25.8911
511.23764159416703	-2.9234112324533936	26.3759
511.39149056411736	-2.950148913232909	26.8673
510.97990654522243	-3.211729601909302	27.3673
511.6752203414419	-3.1635602628776427	27.8733
511.65561735433903	-2.555674813073739	28.3956
511.2006518790617	-3.252697253418007	28.9212
511.2590159186554	-3.0309183242108366	29.4638
510.5477262402088	-3.238918793786919	30.006
511.4569435268354	-3.2073364630915115	30.5686
511.2097071575125	-3.0824128422881643	31.1333
511.2839046802796	-3.0496989829813543	31.7125
511.7970798164341	-3.0217093458048097	32.3032
511.3227440748396	-3.0766240875545208	32.9092
512.4782890366457	-3.1549025456129236	33.5233
511.6706784662342	-3.0885591954156726	34.1413
510.02975850692235	-3.232187706564102	34.7826
510.83134789166206	-2.9731483628823985	35.4233
511.62209411918707	-2.658279537166363	36.0881
511.60045741097815	-3.4366438392697005	36.7602
511.84598048313063	-3.0386326304231566	37.4392
512.1231775967194	-3.171853911996269	38.1437
511.0549131692786	-3.0475927452868117	38.845
511.89989039421914	-3.2171904492035397	39.5674
511.87701332712265	-3.197498444829526	40.3063
511.82358199862176	-3.104963622993226	41.0565
511.7237665101149	-3.074097867891596	41.8235
511.670386691497	-3.1365240273081514	42.6015
511.77963179089636	-2.746243429583122	43.3902
511.62862406305084	-3.0974317344145987	44.2022
511.72997833299894	-3.202635681512427	45.018
511.3942260432003	-3.1617693900933364	45.8645
512.4241067972906	-3.1841998993174383	46.7144
512.4637075920917	-3.2479342615089295	47.5813
511.5797598803424	-3.074768571980463	48.4653
511.88621161293713	-3.1656241968008776	49.3665
511.7891597690522	-3.33105732276211	50.2934
511.9677161758725	-3.3991226310923994	51.2295
512.182851271825	-3.06132766353563	52.183
512.2035554428237	-3.2710224288959746	53.1444
512.4319828992302	-3.360230790142286	54.1516
512.3865927333812	-3.265761178676233	55.1471
512.748631246247	-3.2608643179810777	56.1693
512.6449928657773	-3.203172590897878	57.2192
512.8642974338725	-3.313312943322476	58.2864
512.1395599637154	-3.1095532109770927	59.3824
513.1463873235103	-3.1409413922996583	60.4839
513.4012729812029	-3.1603516070843054	61.6143
512.7468254454228	-3.38519713475544	62.7484
513.0387527731306	-3.2426153010451335	63.9114
512.7351145397078	-3.018584759925999	65.1042
512.1260096417307	-3.1988661175434827	66.3277
512.7449261134606	-3.214151505739879	67.5524
513.089262844316	-3.161036993845627	68.8073
513.5989333706741	-3.215668127448131	70.0771
512.7856058953641	-3.2649659300402085	71.4116
513.3113377292914	-3.1495395799083066	72.7273
513.1989083768729	-3.2184036083125744	74.0741
513.5614924614147	-3.285216097047371	75.4717
513.4052136298143	-3.1699909660358094	76.8837
513.5826150825939	-3.419696028062958	78.2881
513.5898236754072	-3.070149518224051	79.766
514.2103371330008	-3.311499141719826	81.2568
514.16654078776	-3.2795828010252888	82.7586
514.4714338272661	-3.297286720453361	84.2933
513.6588544164932	-3.2284424318572245	85.8615
514.5914000152908	-3.143283522516166	87.4381
514.3705897328418	-3.1114012741000643	89.1001
514.409478384972	-3.2901288274190117	90.7441
514.2492004667055	-3.3327795237813977	92.4214
514.4332421508423	-3.1685358089906885	94.1324
513.7921470320499	-3.339529487278469	95.8773
513.3312588589985	-3.162429325051844	97.688
514.0392218090534	-3.1706218542750793	99.5025
513.5059734267114	-3.208973525207916	101.351
513.8009083457353	-3.220295653723431	103.27
514.0824970636984	-3.2861621616264665	105.152
514.5451196829417	-3.188704355560115	107.143
514.9169317750966	-3.2200466332789874	109.131
514.389661906689	-3.0995039155145907	111.152
515.2446775167984	-3.0994848943616273	113.25
515.3374550342946	-3.1365343575954823	115.34
514.7085933279772	-3.111828776613147	117.509
515.7400533410253	-3.3602649890154392	119.713
514.7000417443902	-3.2017383283169516	121.852
514.3636115697509	-3.107767996880314	124.172
514.7060611214107	-3.1986404741079695	126.529
514.7673409486014	-3.1534777161779446	128.866
514.963776600926	-3.0821287954113736	131.176
514.956049199337	-3.2013355041270573	133.63
514.2539899268806	-3.2086664338478106	136.116
514.8095169308167	-3.285373260264638	138.696
515.5005841383256	-2.945646625962461	141.309
514.9201108744649	-3.025633492143623	143.954
515.3803923829057	-3.1469425228566053	146.628
515.6826709317324	-3.263916315489643	149.328
514.7327487270511	-3.248605376849956	152.13
515.4201201001227	-3.191347047103818	154.959
515.4603476472009	-2.9866309492098013	157.895
515.5163471677216	-3.1547549586437316	160.772
515.9695948756665	-3.1153819734537906	163.666
515.867289451825	-3.1652492203681346	166.759
516.2450265876272	-3.043852746133814	169.875
516.0123963227525	-3.148225730583723	173.01
516.8615819932271	-3.12020839985828	176.263
516.3764191078769	-3.14559776928943	179.533
516.4726554612869	-3.106844825041099	182.815
516.4966907286182	-3.1010485946007593	186.335
516.8430820239038	-3.03619301630522	189.753
516.7566047480494	-3.116120226836888	193.424
517.659997960338	-3.217982551650545	196.85
517.4532117170866	-3.182774367115989	200.669
517.6763431262611	-3.162018883814042	204.36
517.6679790939937	-3.2210409405108136	208.044
517.1826747330185	-3.1057720458544225	211.864
517.7322780616988	-3.172824773575645	215.827
517.9577396342113	-3.0972636340080224	219.941
517.8842094858607	-3.0174516077629443	224.215
517.7764646739001	-3.1423599089439302	228.311
517.9364057345491	-2.9837291727856936	232.378
518.007030222074	-3.2138651974503056	236.967
518.1919556458846	-3.0616180188964006	241.352
517.7067254714955	-3.0988800528049465	245.7
518.048426107799	-3.149535081941265	250.417
517.9650656912762	-3.042268796795456	254.885
518.4600001407762	-3.054867431879603	259.74
518.1398113941412	-3.0857818204969534	264.55
518.4733305803961	-3.166506887922235	269.542
518.3621413885375	-3.030514162635857	274.725
518.3277852563145	-3.090728115480568	279.851
519.2072682052454	-3.0111955842007494	284.9
518.9389297607016	-3.0682051459368456	290.135
519.1782687454985	-3.011018337196943	295.566
519.1136324061307	-3.1186181415338923	301.205
519.4131414913501	-3.0335672214106357	306.435
519.5793792035969	-2.9930670565144015	312.5
519.9400656517641	-3.0480700515373447	318.471
519.6729313514289	-3.0701049840349723	323.974
519.6035706531416	-2.959714260813071	330.033
519.3645750982455	-2.9582532039908602	335.946
519.5271397480677	-2.857847125320154	342.857
519.6607716414317	-2.9243765201848095	348.837
519.8197928985741	-2.9210434580089473	355.45
520.1956844025758	-2.9413508691867403	362.319
520.3037888287913	-2.923127503986478	368.55
520.2374839610262	-2.976709240253444	375.469
519.9834778339655	-2.9770528537298797	382.653
519.9755954513506	-2.9564152302145414	389.61
519.7060104974738	-2.881744055193082	396.825
519.8616353741353	-2.949061906706698	404.858
519.8077344067436	-2.9314001651511017	412.088
519.6576121383899	-2.952575592049727	419.58
519.6462456671825	-3.0163535936860293	427.35
519.6930658755549	-2.8717036522206576	436.047
519.2646931856538	-2.9371652675408293	443.131
519.2076275863016	-2.9485779970102444	451.807
519.3919330299854	-2.8948062759262023	460.829
519.963112071011	-2.8640751437845253	468.75
520.05223878687	-2.8412202949308916	477.707
520.0519653687911	-2.890833107886239	487.013
519.7055943862923	-2.7744427531751845	495.049
520.1452413662614	-2.8410021178666796	505.051
520.2262695385871	-2.836060289435914	514.58
520.5851050373976	-2.8670650849957364	523.56
520.7044851452235	-2.7975156206305054	533.808
520.5327221535089	-2.752592860906167	543.478
520.3566057496367	-2.7740491555029783	554.529
520.5475563200438	-2.7838164865641044	564.972
520.5606758073258	-2.7614175744210407	574.713
520.5493983811333	-2.8131999644757615	584.795
520.4118837158672	-2.7215525537315606	595.238
520.7445933544087	-2.7774081715602885	607.287
520.8847822749451	-2.7421266168856557	619.835
521.0784536333326	-2.804381410375086	630.252
521.0286985709596	-2.7583620959010307	642.398
521.4460202181302	-2.6980006807536316	655.022
521.473281632401	-2.6470631905085718	665.188
521.0068712516479	-2.7254916196590093	678.733
521.277083682516	-2.6852715786651684	689.655
521.581869192855	-2.7273889138789573	702.576
521.6229398146938	-2.7139563512191227	715.99
521.6834807503493	-2.608066755279094	729.927
521.8741965664806	-2.6647925041748857	742.574
521.6703226528374	-2.639468182153968	759.494
521.415228872281	-2.657288856499053	771.208
521.6684909479192	-2.6059887031080224	785.34
521.3553792042803	-2.6274738364156836	800.0
521.2266169186959	-2.5795550955468625	815.217
521.3954818923944	-2.607118370515918	833.333
521.7313878228802	-2.626709807245624	845.07
521.2747044554533	-2.561924253323292	862.069
521.8805650186071	-2.5916452032203052	877.193
521.7845448839756	-2.595457805959699	892.857
521.4737559713637	-2.551907741005407	911.854
522.3849667727417	-2.510651477528279	931.677
521.7168593712178	-2.531279682868219	946.372
521.795887216788	-2.5257251721354494	961.538
522.0960668997914	-2.4890423396413395	980.392
522.1120377929981	-2.4951784791822744	1000.0
522.3540797346619	-2.4869629178053345	1020.41
522.1012356583192	-2.453400304934458	1038.06
521.9748523116325	-2.533360465735207	1060.07
522.2522990828732	-2.4402185666932783	1079.14
522.3683701325061	-2.4252342379850083	1094.89
522.1772172471491	-2.4574940536427254	1115.24
522.2723198428208	-2.4358181373747883	1136.36
522.0354808214222	-2.4005092265093073	1158.3
521.9045654115719	-2.3817435962467153	1181.1
521.8896371600443	-2.365935323974147	1200.0
522.0757510643348	-2.341091969736145	1229.51
522.1056341142508	-2.367096777908187	1244.81
522.6757966516226	-2.332242609956643	1276.6
522.393766942983	-2.3382600626062446	1293.1
522.7858265343024	-2.3257806961038274	1321.59
523.0069277458736	-2.303404832545645	1345.29
522.5858512926095	-2.31976502659387	1369.86
522.1711053969996	-2.260899041445014	1401.87
522.9121029550591	-2.2630669715301437	1421.8
522.4481661980243	-2.2474085791455174	1449.28
522.6570831309216	-2.267090001957606	1477.83
522.3941961074538	-2.2403290488443353	1500.0
522.3752280955796	-2.232817075165153	1530.61
522.45535784855	-2.202420337633291	1554.4
522.5963625535555	-2.2016009612848597	1587.3
522.8754449966415	-2.1825259595681423	1612.9
523.303403447846	-2.193354485930664	1648.35
522.9015985315458	-2.1454811008432952	1685.39
522.9164886848856	-2.172119349824421	1714.29
523.3395560835253	-2.156704499642571	1734.1
523.4135343101525	-2.162134351716662	1785.71
523.4806844664387	-2.1256094535266854	1818.18
523.7068548449539	-2.0836768958749614	1840.49
523.5268428439716	-2.086332385634223	1875.0
523.4349860665978	-2.049898158564301	1923.08
523.6699339252154	-2.063632418916291	1948.05
523.6970355796911	-2.037725703761945	1973.68
523.8960462317863	-2.0353728655978456	2013.42
524.1782070958055	-1.9940736763840397	2054.79
523.9029321521166	-2.064541453863579	2097.9
524.0161172682557	-2.0172365011832727	2142.86
524.0773301426755	-1.9612729349027704	2173.91
524.1114008314439	-1.9423551429983013	2205.88
524.4824296630924	-1.9352443513387654	2272.73
524.5053840667459	-1.9476051949387365	2307.69
524.4935415790287	-1.9046918090839813	2343.75
524.7335383001362	-1.906030435094341	2380.95
524.7836717602731	-1.8690165343994634	2419.35
524.6065445237303	-1.9040858361098907	2500.0
524.7209195105341	-1.7980000054446212	2542.37
524.7608527643109	-1.817443829439246	2564.1
524.7139221870355	-1.7972067487152432	2631.58
524.7698765508696	-1.8105783012801775	2678.57
524.5719341735262	-1.7934610243020421	2702.7
524.7468360780804	-1.822231062247026	2752.29
524.6410522542161	-1.7586999712664848	2830.19
524.9510435671848	-1.7618097864506868	2857.14
524.5342796483862	-1.6893320421066542	2912.62
525.0033157672451	-1.6788297704828952	3000.0
524.8603246941788	-1.6758075430590387	3030.3
524.8353355444773	-1.672365963503212	3092.78
525.4372941292961	-1.6862793610801914	3157.89
525.5873205784902	-1.6782571684366518	3260.87
525.3395190323029	-1.614529934282147	3296.7
525.1565077408167	-1.6179179427678203	3409.09
525.216600695408	-1.5875499867548486	3488.37
525.3627389474442	-1.54134702115354	3529.41
525.5247422311411	-1.5404648300907455	3658.54
525.7997996567964	-1.5211459077883709	3703.7
525.5188054473422	-1.5187370405917378	3846.15
525.6759259939076	-1.476656509722497	3896.1
525.7760666453489	-1.4258425388746947	4000.0
525.6461991380793	-1.3759490145951994	4166.67
525.738180160035	-1.383301129405132	4225.35
525.4512979123799	-1.3374345573947442	4411.76
525.7742740404198	-1.3471945923036746	4477.61
525.5904156979401	-1.290500083865649	4615.38
525.3423247202492	-1.3267228513397715	4761.9
525.2193739911805	-1.306914424290666	4918.03
525.8865533891795	-1.2334944059973638	5172.41
525.7825964671108	-1.214869665148596	5357.14
526.2686748661501	-1.1809973015661406	5555.56
525.9997113308856	-1.1643370753509583	5769.23
525.9629860860325	-1.0327455950230102	5882.35
526.0870097907998	-1.0207219870725381	6250.0
526.1931070648899	-0.9693881561676002	6521.74
526.0191947507955	-0.920409541825646	6818.18
526.2852562866909	-0.8847662131719269	6976.74
526.3853695381626	-0.8146975953813631	7317.07
525.9944872613798	-0.7344355915902547	7894.74
525.8015879512717	-0.6582643246751319	8333.33
525.8936934338642	-0.5678401966026951	8823.53
525.5558029212832	-0.45513928121755215	9375.0
525.723887977048	-0.3432000821775473	10000.0
525.7559261063179	-0.2787473549761749	10344.8
525.7679569235179	-0.21282967346292125	11111.1
525.968998355243	-0.04159546221587964	12000.0
525.8529544628832	0.21884162503977186	13636.4
526.0819205521558	0.28912307963834893	14285.7
526.176615311979	0.636260818842254	16666.7
526.3441983405444	0.9186393468851896	18750.0
526.1418706784266	1.0901229315455028	20000.0
526.0389096540441	1.482973696475428	23076.9
526.0641116308918	2.0226413425541483	27272.7
526.1194578857331	2.186186181985777	28571.4
526.3916763866494	2.5802005451190837	31578.9
526.546219561953	3.0408370583662516	35294.1
526.5658694143143	3.5742484450914214	40000.0
526.3949006155274	4.242917624594765	46153.8
526.1603845398481	4.98513759881194	52173.9
525.8211635291374	5.8765041363243515	60000.0
525.6863009542668	6.621402647472189	66666.7
525.630967349875	7.10613846153859	70588.2
525.3663278660302	8.115145443105478	80000.0
524.7209333953039	10.248126548843427	100000.0
524.3373116438047	11.203948730140414	109091.0
524.088371610745	12.398143707738477	120000.0
523.4991095383324	13.763165063788026	133333.0
523.2898076832287	14.584177174240818	141176.0
522.7245523498377	16.53476841875326	160000.0
521.5878258487633	18.86851788986547	184615.0
