334
1964.0891499699026	-30.11433828768263	20.0
1949.8407559832167	-28.5662179295423	20.3721
1865.1476259336487	-33.026157422179985	20.7512
1840.891061380437	-31.46817010264595	21.1402
1779.9355080954144	-26.31356914443376	21.5332
1786.1737189915327	-23.628679268152844	21.933
1763.0587440180582	-30.928207860571696	22.3414
1759.8560069379305	-26.796239372020647	22.7583
1747.2663739984505	-31.483659163244234	23.1803
1732.2911197946617	-23.46228421439886	23.6128
1711.6995300505362	-30.987727002377742	24.05
1714.7593806813452	-23.47067884254073	24.4998
1692.9016363438463	-27.807311346618345	24.9543
1672.2931321326314	-19.7708958328595	25.4194
1652.408022667955	-31.592257320100206	25.8911
1644.3845809911963	-27.82614235583574	26.3759
1656.4974446151862	-23.910350966859244	26.8673
1643.538557323301	-24.42230520738575	27.3673
1620.3372385989742	-26.25901196639403	27.8733
1608.8765727682967	-19.10480822568129	28.3956
1622.4212992889964	-16.965485946614397	28.9212
1618.9953489948564	-29.274690997912124	29.4638
1611.505792818383	-15.465319679675178	30.006
1610.2862067660799	-20.758340466200014	30.5686
1617.2240367035809	-23.169531893736607	31.1333
1585.3733997246004	-23.664022178447556	31.7125
1599.5052610483197	-24.960165839736167	32.3032
1596.6392910803731	-25.31718346031451	32.9092
1598.2598405975932	-21.909131268862975	33.5233
1582.7473860471512	-25.326161590555706	34.1413
1575.9077759584086	-16.09850222294402	34.7826
1578.354781381943	-17.337433165232657	35.4233
1560.8571121829216	-20.36800058891716	36.0881
1574.0726458527838	-19.22138595463678	36.7602
1556.5545872696284	-18.115530626427166	37.4392
1559.2855847471624	-23.982203812411427	38.1437
1547.2528337550061	-24.0670321623481	38.845
1547.4329098825697	-14.409698552114621	39.5674
1547.0341009077968	-21.247188717687788	40.3063
1539.9959996920334	-17.897791275305273	41.0565
1529.1775778075296	-20.87098298347767	41.8235
1541.0932180052087	-23.99441223181531	42.6015
1526.0963246210117	-20.199526683556133	43.3902
1533.0342353044716	-18.008136617493935	44.2022
1530.887416700888	-15.90151838289099	45.018
1527.5086231993423	-15.767503025190573	45.8645
1532.8115723010383	-18.232120557393046	46.7144
1537.9108930195998	-18.31953961367908	47.5813
1524.9790676241635	-14.708698383505656	48.4653
1518.080661042082	-19.816928874965377	49.3665
1514.478195860033	-17.56048588560398	50.2934
1511.4964674362377	-19.324940563271728	51.2295
1521.7989138074847	-19.974754926149615	52.183
1515.0880808546708	-18.415951023783254	53.1444
1514.1418551244744	-16.338159633674813	54.1516
1527.1536673956102	-17.153386258638584	55.1471
1517.4517932284796	-18.122053627329997	56.1693
1520.6219338937176	-19.735669771507684	57.2192
1519.6835892626684	-19.601648546314074	58.2864
1496.7511299336147	-18.864038338789875	59.3824
1512.4207746390682	-18.17694529233794	60.4839
1513.403650480049	-18.766489113880773	61.6143
1517.427939306617	-19.247116970438753	62.7484
1504.988335311973	-13.623988949497356	63.9114
1511.653424616071	-15.215674369034987	65.1042
1510.8909941580453	-17.29693244810304	66.3277
1523.1313994832017	-19.007956448381012	67.5524
1515.4038915291253	-21.04395491305925	68.8073
1497.7095824726384	-18.186780078800794	70.0771
1506.499789106383	-15.546119207808019	71.4116
1504.5577853359107	-16.65812369686089	72.7273
1493.4569915745774	-15.746298517826004	74.0741
1509.167460805885	-16.71295439824395	75.4717
1504.0589223128286	-16.552362706652072	76.8837
1507.9851448272948	-15.025530945795436	78.2881
1503.2899926694815	-14.508188714999914	79.766
1500.0007469168836	-20.43963915512063	81.2568
1491.9895660584602	-13.428971393491674	82.7586
1494.2345826396356	-16.886709085958977	84.2933
1494.6004302367667	-17.2523603043893	85.8615
1501.93130830432	-9.283681127325607	87.4381
1489.654060125931	-15.04174359338625	89.1001
1485.1719792091299	-14.21442126982184	90.7441
1479.071067973366	-15.280653916836284	92.4214
1485.4927765474163	-16.09805036170106	94.1324
1480.4554550410578	-12.708490829945035	95.8773
1484.599594146505	-15.45145494872393	97.688
1484.859188928145	-13.438580864503471	99.5025
1482.8806261213167	-12.100974095170066	101.351
1477.9297421891142	-17.215053087869816	103.27
1473.8578222410526	-12.4019320616482	105.152
1477.8804908634622	-13.262666593573197	107.143
1477.1231919055756	-12.95485757096069	109.131
1472.6205013509943	-17.11891938021045	111.152
1472.5329105141288	-15.067831721535208	113.25
1476.4745357219292	-13.903847119176334	115.34
1477.1472798054726	-17.420570119616517	117.509
1474.284358798001	-14.934490401973653	119.713
1470.5959196224892	-11.386430067676052	121.852
1468.2547925922274	-12.732640337148183	124.172
1465.142656533726	-15.054713723498425	126.529
1461.893605817749	-14.945439745275989	128.866
1463.0357908376802	-12.594555488918857	131.176
1466.1854920289975	-10.059391814938984	133.63
1471.073033973431	-14.036677534423928	136.116
1459.8391136778662	-13.333123273358135	138.696
1464.5203500476546	-12.059402816692328	141.309
1458.9095310057098	-10.8665928744685	143.954
1464.05209441084	-14.101037239605972	146.628
1463.012029212149	-9.046766303487626	149.328
1458.9899857279715	-10.805667285893037	152.13
1463.9705654106288	-10.745404193602953	154.959
1454.8084506979449	-13.382401796560671	157.895
1473.072613797479	-8.982454000026653	160.772
1470.61862449103	-12.292688888582644	163.666
1467.4037437871073	-10.315343890614887	166.759
1469.8510838152883	-11.99172243767002	169.875
1468.0727005481178	-11.784748845696111	173.01
1466.8180826647474	-12.341364094539099	176.263
1460.9571423448206	-13.55244006279311	179.533
1457.0785643218976	-13.380470605987256	182.815
1460.0234101871883	-10.33660028120095	186.335
1452.958495134702	-13.36906189312148	189.753
1459.4553993481422	-14.75663286642467	193.424
1453.501307419951	-11.89755556798719	196.85
1458.9770011458554	-9.81275840150532	200.669
1462.8041393974156	-8.698198766767707	204.36
1463.2599684376848	-14.316202979317154	208.044
1458.5760887004785	-11.318033009904397	211.864
1458.428305402172	-9.615071593545363	215.827
1456.8836973646673	-11.615388631319744	219.941
1462.800500516376	-9.290026320727854	224.215
1464.7398460002423	-7.68382321415866	228.311
1464.962331543646	-10.505577480750986	232.378
1454.4314140540491	-7.352843853851763	236.967
1456.966129584824	-9.934648590556469	241.352
1455.0505547757543	-7.522496046507048	245.7
1454.1809642461435	-9.189522520583923	250.417
1450.95304840628	-11.672674094792983	254.885
1456.9355759627886	-10.015407828805408	259.74
1453.4726933483646	-10.413922923233951	264.55
1463.9579721174584	-9.683799550744064	269.542
1460.9477954389388	-8.054806149398628	274.725
1449.4890711663556	-10.892817325897044	279.851
1449.3895972111725	-9.387858969719442	284.9
1447.8899473188405	-7.620272504653108	290.135
1450.7684114070507	-9.573738217777226	295.566
1456.620990024299	-9.193145306761531	301.205
1456.3967639288007	-9.839253920743554	306.435
1457.6539023413363	-8.722579267270579	312.5
1454.3669318987024	-9.807517502166434	318.471
1448.6157984324548	-9.954447845129447	323.974
1458.516951664394	-8.199591916906556	330.033
1455.3007151223417	-9.232413790590687	335.946
1457.3327221409506	-7.096441167652132	342.857
1457.4616525461036	-9.090184683532119	348.837
1456.3965510016344	-8.264540552500439	355.45
1457.5369245128782	-8.201663339856225	362.319
1457.858724674573	-7.876121521897448	368.55
1455.4598466232083	-7.659325528205685	375.469
1451.6696036814014	-9.394240122698417	382.653
1451.3109228629867	-9.186989636726008	389.61
1449.7394700070051	-7.715355066867545	396.825
1453.8517313042355	-9.066299337501405	404.858
1450.6732974335114	-8.801938047013586	412.088
1443.7028791350633	-8.849275514355142	419.58
1447.7045755383292	-8.579910569833382	427.35
1442.7584165058265	-7.891767964145027	436.047
1452.7561354360346	-8.327025456776267	443.131
1444.7083631911446	-7.9068467522438795	451.807
1449.425174595299	-6.555673068993468	460.829
1449.3685674836063	-7.882112059566953	468.75
1449.9478808342242	-5.928276675609214	477.707
1445.5827193741072	-7.06834117462832	487.013
1446.6987240674755	-9.512869258988008	495.049
1445.4714412236265	-9.08639680470277	505.051
1443.7055445799974	-8.403180884221872	514.58
1445.8905475491147	-7.500173872750045	523.56
1444.8831904386789	-8.801936590587143	533.808
1449.6320269828168	-7.218645696413056	543.478
1451.0263174503941	-6.301401935116478	554.529
1448.1606010904047	-7.495722078454608	564.972
1449.7899355182592	-7.627514009287429	574.713
1450.345425031962	-8.443043814735008	584.795
1447.408761282232	-7.84108815376137	595.238
1450.988876205858	-7.829510001341286	607.287
1453.202239812614	-8.982377391430882	619.835
1453.5700841109845	-7.609118055680106	630.252
1452.9124113441346	-7.14911618118516	642.398
1447.9679532663943	-7.990395079642983	655.022
1444.9577857922893	-8.012345364784736	665.188
1440.327487020929	-8.053113185303745	678.733
1443.6442309113077	-8.625743822942797	689.655
1445.5115706150757	-7.299323115011849	702.576
1445.3043467789764	-6.726632277484872	715.99
1442.4639407582822	-6.806615317980091	729.927
1446.3345479009993	-6.685659878564175	742.574
1447.7672125802171	-6.084946812270517	759.494
1441.9480871319404	-5.861366439515032	771.208
1447.3724251686945	-7.132668595408374	785.34
1447.0859416444857	-6.378675010663335	800.0
1442.0562166879313	-6.304983084024009	815.217
1443.597636132853	-5.9747009664431605	833.333
1439.9451786596856	-6.533303507898086	845.07
1441.9278361740244	-5.922741467934286	862.069
1432.4979945319449	-7.940155033494053	877.193
1442.189637559733	-7.663772917181136	892.857
1440.1153374986438	-6.498584551077778	911.854
1443.0514127583938	-7.3242771659711705	931.677
1443.6955798801205	-6.452653299430282	946.372
1436.5039841516316	-6.783355842738131	961.538
1433.4356309882135	-6.418279631028483	980.392
1443.041048421131	-5.082821228648745	1000.0
1443.3022788249566	-4.7210209369529545	1020.41
1436.4800195051519	-5.354779405201993	1038.06
1431.3774885665928	-5.984757705506589	1060.07
1425.4933328773561	-6.89333172037483	1079.14
1436.2230676112563	-6.974070641533537	1094.89
1436.84811917196	-5.843118345613902	1115.24
1433.2885088982468	-5.7393606124738685	1136.36
1435.2303353331595	-5.267080734754253	1158.3
1431.43817639833	-5.818045154833092	1181.1
1435.0982865435913	-5.798280749328114	1200.0
1433.3262320126473	-6.282374107482956	1229.51
1433.4960157103133	-6.331906715776837	1244.81
1435.9268765756417	-6.139114571467941	1276.6
1428.1477013077988	-5.926959528307996	1293.1
1429.622582685206	-4.605211882387027	1321.59
1432.0712744060752	-4.999142022302294	1345.29
1430.7389113783265	-5.632935998305778	1369.86
1432.1073212536526	-6.026177203459432	1401.87
1434.2124384849985	-4.657219654964491	1421.8
1432.7321284443303	-4.749286617873691	1449.28
1435.0700573852012	-5.341984316247236	1477.83
1426.8115561276134	-4.908737179591021	1500.0
1427.7122505630123	-4.704039997522189	1530.61
1425.6727825845435	-4.536452098901106	1554.4
1430.0847770499363	-3.8650420481033367	1587.3
1426.7518924961635	-4.809870956293446	1612.9
1430.7453783620188	-3.6365912231130917	1648.35
1428.761748638609	-4.855772558900327	1685.39
1429.3527812493546	-4.542723272912103	1714.29
1430.7119466693166	-4.800422657906357	1734.1
1430.362640077768	-4.588547674039547	1785.71
1430.3942181506418	-4.067023630891886	1818.18
1436.0555690576143	-3.567376993154158	1840.49
1431.5338991549384	-4.179374386071052	1875.0
1436.1145577016161	-3.9536764525142325	1923.08
1434.1658995073435	-3.42951750144584	1948.05
1432.0267867661355	-3.0336255960552183	1973.68
1436.4657585151072	-3.4907755038032215	2013.42
1428.9851964389572	-3.705193424718659	2054.79
1431.9949846553416	-3.7899765102197915	2097.9
1433.9134874885033	-4.3216661785127615	2142.86
1435.205900486271	-3.4303512053469523	2173.91
1437.8933900567608	-4.35991181973945	2205.88
1434.1741179408518	-4.107533150210874	2272.73
1432.353591032047	-4.284840440340032	2307.69
1432.4655015335309	-3.5899604858310776	2343.75
1435.0647522938257	-3.8809307982036776	2380.95
1435.0362372168756	-3.2862553813042483	2419.35
1438.305719647616	-3.5089783347011774	2500.0
1443.9061732799028	-3.3242840112564087	2542.37
1437.9561620175682	-3.3223057813829655	2564.1
1441.2668218495762	-3.0267367943065913	2631.58
1441.1456623343738	-3.5358782246164235	2678.57
1436.5952712941255	-3.6859863479565744	2702.7
1444.667136350313	-2.8764647374480377	2752.29
1442.6969611597062	-2.9611248790099505	2830.19
1444.5178199427692	-2.5096349912968234	2857.14
1439.7474454632925	-2.7121544800536177	2912.62
1435.597849286097	-2.484979905837874	3000.0
1439.1068109273028	-3.0296604839332035	3030.3
1436.2769357637933	-2.9668489965126827	3092.78
1431.6877078573457	-2.561888010821756	3157.89
1428.7557896995208	-3.4685732079550378	3260.87
1426.9478392186725	-2.4832738797163416	3296.7
1425.5776153634222	-2.6074843698420067	3409.09
1431.2282219055976	-2.256040988392348	3488.37
1430.7464527290815	-3.185985428430946	3529.41
1428.728256558999	-2.2319968375675447	3658.54
1436.5573285842145	-2.770431552120831	3703.7
1433.959175574483	-1.5376559268540189	3846.15
1427.8296715296142	-0.9685038119100082	3896.1
1432.4590788383143	-1.6245164474826774	4000.0
1426.3577525079463	-2.532086191233262	4166.67
1423.2797262497031	-0.8827494380066668	4225.35
1428.1397711278553	-0.8085313086408888	4411.76
1424.8198494605513	-0.6549680998719196	4477.61
1421.719887925857	-0.5645140287290362	4615.38
1427.5496891061696	-0.9421427061482406	4761.9
1427.309996026249	-0.10650609462680409	4918.03
1424.2899983741436	0.06805425797594762	5172.41
1418.7798925923373	0.5520649196260199	5357.14
1417.0799351138255	0.4288330629200339	5555.56
1420.0198094104214	0.7357186895149666	5769.23
1421.8399105551434	0.5043337597225619	5882.35
1419.8895887840722	1.0806306485404542	6250.0
1416.7293454261405	1.3618768004853543	6521.74
1413.3073746256484	2.7241381677719247	6818.18
1414.2675453782751	2.634955352212526	6976.74
1417.5579792259446	2.393560706622192	7317.07
1414.66707548434	2.8765327365995024	7894.74
1409.7844533656544	3.9546363301121996	8333.33
1414.413447294408	4.305405062200403	8823.53
1414.1604219729238	5.204788695232233	9375.0
1413.7583357677072	5.742904084437253	10000.0
1410.6873979127524	5.962832393064633	10344.8
1414.9027325546983	6.9902653202828695	11111.1
1418.54123466737	9.03385014117384	12000.0
1415.9396204370134	10.693534340277605	13636.4
1414.3233318799075	10.184424388097076	14285.7
1412.1276032621095	13.275097182713074	16666.7
1416.6409157645055	15.88737492172678	18750.0
1415.6193191458403	17.70243376113062	20000.0
1410.0499423240587	21.246276189457145	23076.9
1407.0833548059231	26.346945327845656	27272.7
1414.5131786206591	27.985918038893267	28571.4
1416.6181253373945	31.57638145142594	31578.9
1412.9683186936263	36.12333412224169	35294.1
1413.7613374945843	41.48948668667357	40000.0
1417.1501931698224	49.65934351896884	46153.8
1416.521649067423	56.29908812146998	52173.9
1413.0358760872573	64.77996056125262	60000.0
1412.324124068396	72.62179200789787	66666.7
1412.6586846981263	77.07981672889291	70588.2
1406.6864965893858	87.25406817495802	80000.0
1405.121973546107	110.4976518207215	100000.0
1400.9301951064492	120.34814721883347	109091.0
1394.6807592319083	132.17580992113693	120000.0
1390.7201487895716	146.5467985003853	133333.0
1391.672241765089	156.28354967984245	141176.0
1389.1337250269914	177.43638407225075	160000.0
1369.2188529430505	199.17758318976925	184615.0
