# Frecuencia [Hz], Z [Ohm], Fase []
2.000000000000000000e+01,5.183710000000000000e+05,-9.796070000000000055e-01
2.037209999999999965e+01,5.451320000000000000e+05,-9.285109999999999753e-01
2.075120000000000076e+01,5.365910000000000000e+05,-9.765970000000000484e-01
2.114020000000000010e+01,5.323440000000000000e+05,-1.250089999999999923e+00
2.153320000000000078e+01,5.412240000000000000e+05,-1.070770000000000000e+00
2.193299999999999983e+01,5.362850000000000000e+05,-1.219950000000000090e+00
2.234140000000000015e+01,5.607410000000000000e+05,-1.563220000000000054e+00
2.275829999999999842e+01,5.702630000000000000e+05,-1.122670000000000057e+00
2.318029999999999902e+01,5.747630000000000000e+05,-1.431680000000000064e+00
2.361280000000000001e+01,5.596730000000000000e+05,-1.872789999999999955e+00
2.405000000000000071e+01,5.493960000000000000e+05,-1.860100000000000087e+00
2.449980000000000047e+01,5.709570000000000000e+05,-1.926830000000000043e+00
2.495429999999999993e+01,5.705980000000000000e+05,-1.464990000000000014e+00
2.541939999999999955e+01,5.751690000000000000e+05,-1.757570000000000077e+00
2.589110000000000156e+01,5.752620000000000000e+05,-1.449999999999999956e+00
2.637590000000000146e+01,5.592280000000000000e+05,-1.510820000000000052e+00
2.686730000000000018e+01,5.881260000000000000e+05,-1.652470000000000105e+00
2.736730000000000018e+01,5.590340000000000000e+05,-1.689680000000000071e+00
2.787330000000000041e+01,5.576570000000000000e+05,-1.542710000000000026e+00
2.839560000000000173e+01,5.446920000000000000e+05,-2.284650000000000070e+00
2.892119999999999891e+01,5.534860000000000000e+05,-2.055550000000000210e+00
2.946379999999999910e+01,5.424960000000000000e+05,-1.469160000000000021e+00
3.000600000000000023e+01,5.576850000000000000e+05,-1.715659999999999963e+00
3.056859999999999999e+01,5.666060000000000000e+05,-1.926970000000000072e+00
3.113329999999999842e+01,5.519120000000000000e+05,-1.927599999999999980e+00
3.171249999999999858e+01,5.578080000000000000e+05,-1.887539999999999996e+00
3.230319999999999681e+01,5.523980000000000000e+05,-1.426449999999999996e+00
3.290919999999999845e+01,5.492430000000000000e+05,-1.224250000000000060e+00
3.352329999999999899e+01,5.442600000000000000e+05,-1.293749999999999956e+00
3.414130000000000109e+01,5.482910000000000000e+05,-1.448339999999999961e+00
3.478260000000000218e+01,5.481960000000000000e+05,-1.592540000000000067e+00
3.542329999999999757e+01,5.534500000000000000e+05,-1.897729999999999917e+00
3.608809999999999718e+01,5.553580000000000000e+05,-2.121999999999999886e+00
3.676019999999999754e+01,5.559940000000000000e+05,-2.433040000000000092e+00
3.743919999999999959e+01,5.536060000000000000e+05,-2.404819999999999958e+00
3.814370000000000260e+01,5.481330000000000000e+05,-1.486339999999999995e+00
3.884499999999999886e+01,5.478860000000000000e+05,-2.744899999999999896e+00
3.956739999999999924e+01,5.511790000000000000e+05,-2.031239999999999934e+00
4.030630000000000024e+01,5.411190000000000000e+05,-2.372380000000000155e+00
4.105649999999999977e+01,5.653190000000000000e+05,-2.292310000000000070e+00
4.182350000000000279e+01,5.584860000000000000e+05,-1.562410000000000077e+00
4.260150000000000148e+01,5.580980000000000000e+05,-2.827059999999999906e+00
4.339020000000000010e+01,5.556490000000000000e+05,-1.980180000000000051e+00
4.420219999999999771e+01,5.540420000000000000e+05,-2.651149999999999896e+00
4.501800000000000068e+01,5.593080000000000000e+05,-2.704320000000000057e+00
4.586449999999999960e+01,5.612890000000000000e+05,-2.714840000000000142e+00
4.671439999999999770e+01,5.625930000000000000e+05,-3.266880000000000006e+00
4.758129999999999882e+01,5.706620000000000000e+05,-2.466219999999999857e+00
4.846529999999999916e+01,5.646380000000000000e+05,-3.300240000000000062e+00
4.936650000000000205e+01,5.747090000000000000e+05,-3.872660000000000213e+00
5.029339999999999833e+01,5.751410000000000000e+05,-2.992700000000000138e+00
5.122950000000000159e+01,5.701570000000000000e+05,-2.696120000000000072e+00
5.218299999999999983e+01,5.703900000000000000e+05,-3.476480000000000015e+00
5.314439999999999742e+01,5.638300000000000000e+05,-3.417889999999999873e+00
5.415160000000000196e+01,5.548060000000000000e+05,-3.297880000000000145e+00
5.514710000000000178e+01,5.571910000000000000e+05,-4.210580000000000211e+00
5.616929999999999978e+01,5.628580000000000000e+05,-3.771879999999999900e+00
5.721920000000000073e+01,5.724020000000000000e+05,-4.137080000000000091e+00
5.828640000000000043e+01,5.623790000000000000e+05,-3.864129999999999843e+00
5.938239999999999696e+01,5.616230000000000000e+05,-4.328109999999999680e+00
6.048389999999999844e+01,5.724440000000000000e+05,-4.671899999999999942e+00
6.161430000000000007e+01,5.788080000000000000e+05,-4.196049999999999613e+00
6.274839999999999662e+01,5.742480000000000000e+05,-3.649329999999999963e+00
6.391140000000000043e+01,5.933240000000000000e+05,-4.563710000000000377e+00
6.510420000000000584e+01,5.788660000000000000e+05,-4.282329999999999970e+00
6.632769999999999300e+01,5.804950000000000000e+05,-5.110879999999999868e+00
6.755240000000000578e+01,5.658910000000000000e+05,-4.426639999999999908e+00
6.880729999999999791e+01,5.616590000000000000e+05,-4.973880000000000301e+00
7.007710000000000150e+01,5.753670000000000000e+05,-3.775650000000000173e+00
7.141160000000000707e+01,5.673000000000000000e+05,-4.622530000000000250e+00
7.272729999999999961e+01,5.710910000000000000e+05,-4.646620000000000417e+00
7.407410000000000139e+01,5.750930000000000000e+05,-4.577860000000000262e+00
7.547169999999999845e+01,5.689500000000000000e+05,-4.315979999999999706e+00
7.688370000000000459e+01,5.709600000000000000e+05,-4.279169999999999696e+00
7.828810000000000002e+01,5.725540000000000000e+05,-4.535429999999999851e+00
7.976600000000000534e+01,5.723740000000000000e+05,-4.980979999999999741e+00
8.125679999999999836e+01,5.662030000000000000e+05,-4.390880000000000116e+00
8.275860000000000127e+01,5.800730000000000000e+05,-5.209270000000000067e+00
8.429330000000000211e+01,5.793040000000000000e+05,-5.115240000000000009e+00
8.586150000000000659e+01,5.664070000000000000e+05,-5.026909999999999989e+00
8.743810000000000571e+01,5.668600000000000000e+05,-4.630939999999999834e+00
8.910009999999999764e+01,5.625170000000000000e+05,-5.192569999999999908e+00
9.074410000000000309e+01,5.731620000000000000e+05,-5.025179999999999758e+00
9.242140000000000555e+01,5.610260000000000000e+05,-5.926650000000000418e+00
9.413240000000000407e+01,5.610930000000000000e+05,-6.495359999999999800e+00
9.587730000000000530e+01,5.616100000000000000e+05,-6.608299999999999841e+00
9.768800000000000239e+01,5.509130000000000000e+05,-6.529659999999999798e+00
9.950249999999999773e+01,5.576360000000000000e+05,-7.411900000000000155e+00
1.013509999999999991e+02,5.538520000000000000e+05,-7.111250000000000071e+00
1.032699999999999960e+02,5.459030000000000000e+05,-7.354400000000000048e+00
1.051520000000000010e+02,5.614220000000000000e+05,-7.561209999999999987e+00
1.071430000000000007e+02,5.514500000000000000e+05,-7.394449999999999967e+00
1.091310000000000002e+02,5.540240000000000000e+05,-6.754209999999999603e+00
1.111520000000000010e+02,5.481670000000000000e+05,-7.154250000000000220e+00
1.132500000000000000e+02,5.547290000000000000e+05,-7.962869999999999671e+00
1.153400000000000034e+02,5.451900000000000000e+05,-8.390819999999999723e+00
1.175090000000000003e+02,5.379780000000000000e+05,-7.466599999999999682e+00
1.197129999999999939e+02,5.395180000000000000e+05,-9.061519999999999797e+00
1.218520000000000039e+02,5.634530000000000000e+05,-8.397729999999999251e+00
1.241719999999999970e+02,5.414790000000000000e+05,-7.996830000000000105e+00
1.265289999999999964e+02,5.523710000000000000e+05,-8.029640000000000555e+00
1.288660000000000139e+02,5.489620000000000000e+05,-7.358699999999999797e+00
1.311759999999999877e+02,5.524350000000000000e+05,-9.265750000000000597e+00
1.336299999999999955e+02,5.506010000000000000e+05,-7.321240000000000414e+00
1.361160000000000139e+02,5.504980000000000000e+05,-8.992359999999999687e+00
1.386959999999999980e+02,5.499040000000000000e+05,-9.302179999999999893e+00
1.413089999999999975e+02,5.536800000000000000e+05,-8.374549999999999272e+00
1.439540000000000077e+02,5.501890000000000000e+05,-8.945639999999999148e+00
1.466279999999999859e+02,5.448530000000000000e+05,-8.259209999999999496e+00
1.493280000000000030e+02,5.451750000000000000e+05,-9.732300000000000395e+00
1.521299999999999955e+02,5.461180000000000000e+05,-8.432479999999999976e+00
1.549590000000000032e+02,5.395990000000000000e+05,-8.978369999999999962e+00
1.578950000000000102e+02,5.415270000000000000e+05,-8.565160000000000551e+00
1.607719999999999914e+02,5.536350000000000000e+05,-9.558510000000000062e+00
1.636659999999999968e+02,5.487790000000000000e+05,-8.453060000000000684e+00
1.667589999999999861e+02,5.516230000000000000e+05,-8.889739999999999753e+00
1.698750000000000000e+02,5.585490000000000000e+05,-8.870900000000000674e+00
1.730099999999999909e+02,5.498970000000000000e+05,-9.674409999999999954e+00
1.762630000000000052e+02,5.503790000000000000e+05,-9.257709999999999440e+00
1.795329999999999870e+02,5.542430000000000000e+05,-9.934630000000000294e+00
1.828149999999999977e+02,5.482770000000000000e+05,-1.149060000000000059e+01
1.863350000000000080e+02,5.456700000000000000e+05,-1.109149999999999991e+01
1.897529999999999859e+02,5.620200000000000000e+05,-1.146610000000000085e+01
1.934240000000000066e+02,5.561290000000000000e+05,-1.078710000000000058e+01
1.968499999999999943e+02,5.401170000000000000e+05,-1.240470000000000006e+01
2.006690000000000111e+02,5.259290000000000000e+05,-1.055620000000000047e+01
2.043600000000000136e+02,5.257370000000000000e+05,-1.182620000000000005e+01
2.080440000000000111e+02,5.315780000000000000e+05,-1.151239999999999952e+01
2.118640000000000043e+02,5.421210000000000000e+05,-1.233980000000000032e+01
2.158269999999999982e+02,5.434450000000000000e+05,-1.169609999999999950e+01
2.199410000000000025e+02,5.368170000000000000e+05,-1.191830000000000034e+01
2.242150000000000034e+02,5.220870000000000000e+05,-1.211400000000000077e+01
2.283110000000000070e+02,5.180810000000000000e+05,-1.277219999999999978e+01
2.323779999999999859e+02,5.401920000000000000e+05,-1.277430000000000021e+01
2.369670000000000130e+02,5.279870000000000000e+05,-1.387579999999999991e+01
2.413520000000000039e+02,5.284320000000000000e+05,-1.391039999999999921e+01
2.456999999999999886e+02,5.362830000000000000e+05,-1.300099999999999945e+01
2.504170000000000016e+02,5.260220000000000000e+05,-1.401239999999999952e+01
2.548849999999999909e+02,5.241660000000000000e+05,-1.329720000000000013e+01
2.597400000000000091e+02,5.288170000000000000e+05,-1.472259999999999991e+01
2.645500000000000114e+02,5.215060000000000000e+05,-1.410619999999999941e+01
2.695419999999999732e+02,5.189840000000000000e+05,-1.448509999999999920e+01
2.747250000000000227e+02,5.284680000000000000e+05,-1.449029999999999951e+01
2.798509999999999991e+02,5.235860000000000000e+05,-1.463579999999999970e+01
2.848999999999999773e+02,5.340520000000000000e+05,-1.568260000000000076e+01
2.901349999999999909e+02,5.321770000000000000e+05,-1.495480000000000054e+01
2.955659999999999741e+02,5.452950000000000000e+05,-1.598879999999999946e+01
3.012049999999999841e+02,5.233750000000000000e+05,-1.545149999999999935e+01
3.064350000000000023e+02,5.233850000000000000e+05,-1.539039999999999964e+01
3.125000000000000000e+02,5.324570000000000000e+05,-1.659140000000000015e+01
3.184710000000000036e+02,5.370350000000000000e+05,-1.677570000000000050e+01
3.239739999999999895e+02,5.382810000000000000e+05,-1.696669999999999945e+01
3.300330000000000155e+02,5.278770000000000000e+05,-1.722790000000000177e+01
3.359460000000000264e+02,5.307870000000000000e+05,-1.821140000000000114e+01
3.428570000000000277e+02,5.227160000000000000e+05,-1.808549999999999969e+01
3.488369999999999891e+02,5.220920000000000000e+05,-1.815099999999999980e+01
3.554499999999999886e+02,5.160630000000000000e+05,-1.905199999999999960e+01
3.623190000000000168e+02,5.166630000000000000e+05,-1.883970000000000056e+01
3.685500000000000114e+02,5.291350000000000000e+05,-1.970619999999999905e+01
3.754689999999999941e+02,5.259860000000000000e+05,-1.971109999999999829e+01
3.826530000000000200e+02,5.308990000000000000e+05,-2.109870000000000090e+01
3.896100000000000136e+02,5.243540000000000000e+05,-2.106220000000000070e+01
3.968249999999999886e+02,5.209140000000000000e+05,-2.039470000000000027e+01
4.048580000000000041e+02,5.193370000000000000e+05,-2.152439999999999998e+01
4.120880000000000223e+02,5.097660000000000000e+05,-2.190520000000000067e+01
4.195799999999999841e+02,5.214550000000000000e+05,-2.200789999999999935e+01
4.273500000000000227e+02,5.118720000000000000e+05,-2.253430000000000177e+01
4.360470000000000255e+02,5.082590000000000000e+05,-2.263360000000000127e+01
4.431309999999999718e+02,5.065160000000000000e+05,-2.292419999999999902e+01
4.518070000000000164e+02,5.031510000000000000e+05,-2.338260000000000005e+01
4.608290000000000077e+02,5.078540000000000000e+05,-2.395250000000000057e+01
4.687500000000000000e+02,4.986080000000000000e+05,-2.387790000000000035e+01
4.777069999999999936e+02,5.018160000000000000e+05,-2.378430000000000177e+01
4.870129999999999768e+02,4.985290000000000000e+05,-2.479309999999999903e+01
4.950489999999999782e+02,4.985500000000000000e+05,-2.501150000000000162e+01
5.050509999999999877e+02,5.007820000000000000e+05,-2.591300000000000026e+01
5.145800000000000409e+02,4.976380000000000000e+05,-2.624399999999999977e+01
5.235599999999999454e+02,4.955820000000000000e+05,-2.671920000000000073e+01
5.338079999999999927e+02,4.933340000000000000e+05,-2.697629999999999839e+01
5.434779999999999518e+02,4.880260000000000000e+05,-2.715650000000000119e+01
5.545289999999999964e+02,4.863360000000000000e+05,-2.768319999999999936e+01
5.649719999999999800e+02,4.850940000000000000e+05,-2.858990000000000009e+01
5.747129999999999654e+02,4.807470000000000000e+05,-2.894480000000000075e+01
5.847949999999999591e+02,4.775330000000000000e+05,-2.909240000000000137e+01
5.952380000000000564e+02,4.784570000000000000e+05,-2.961120000000000019e+01
6.072870000000000346e+02,4.789800000000000000e+05,-3.014290000000000092e+01
6.198350000000000364e+02,4.662040000000000000e+05,-3.055920000000000059e+01
6.302519999999999527e+02,4.684380000000000000e+05,-3.073359999999999914e+01
6.423980000000000246e+02,4.651770000000000000e+05,-3.153470000000000084e+01
6.550220000000000482e+02,4.621350000000000000e+05,-3.203829999999999956e+01
6.651879999999999882e+02,4.597130000000000000e+05,-3.217349999999999710e+01
6.787329999999999472e+02,4.573820000000000000e+05,-3.228020000000000067e+01
6.896549999999999727e+02,4.572010000000000000e+05,-3.325489999999999924e+01
7.025760000000000218e+02,4.582270000000000000e+05,-3.391610000000000014e+01
7.159900000000000091e+02,4.529950000000000000e+05,-3.406739999999999924e+01
7.299270000000000209e+02,4.496830000000000000e+05,-3.461769999999999925e+01
7.425739999999999554e+02,4.506550000000000000e+05,-3.517640000000000100e+01
7.594940000000000282e+02,4.449080000000000000e+05,-3.557169999999999987e+01
7.712079999999999700e+02,4.389900000000000000e+05,-3.540120000000000289e+01
7.853400000000000318e+02,4.356160000000000000e+05,-3.547270000000000323e+01
8.000000000000000000e+02,4.344210000000000000e+05,-3.692179999999999751e+01
8.152169999999999845e+02,4.344150000000000000e+05,-3.723910000000000053e+01
8.333329999999999700e+02,4.254170000000000000e+05,-3.759190000000000254e+01
8.450700000000000500e+02,4.253960000000000000e+05,-3.835049999999999670e+01
8.620689999999999600e+02,4.270640000000000000e+05,-3.860810000000000031e+01
8.771929999999999836e+02,4.175920000000000000e+05,-3.890440000000000254e+01
8.928569999999999709e+02,4.147570000000000000e+05,-3.980499999999999972e+01
9.118540000000000418e+02,4.146180000000000000e+05,-4.008080000000000354e+01
9.316770000000000209e+02,4.090570000000000000e+05,-4.025469999999999970e+01
9.463719999999999573e+02,4.091820000000000000e+05,-4.180789999999999651e+01
9.615380000000000109e+02,4.008570000000000000e+05,-4.145080000000000098e+01
9.803920000000000528e+02,3.999960000000000000e+05,-4.184830000000000183e+01
1.000000000000000000e+03,3.939790000000000000e+05,-4.297339999999999804e+01
1.020409999999999968e+03,3.968730000000000000e+05,-4.319959999999999667e+01
1.038059999999999945e+03,3.923610000000000000e+05,-4.366720000000000113e+01
1.060069999999999936e+03,3.861470000000000000e+05,-4.383339999999999748e+01
1.079140000000000100e+03,3.823080000000000000e+05,-4.406419999999999959e+01
1.094890000000000100e+03,3.812960000000000000e+05,-4.503869999999999862e+01
1.115240000000000009e+03,3.785220000000000000e+05,-4.547840000000000060e+01
1.136359999999999900e+03,3.694740000000000000e+05,-4.609749999999999659e+01
1.158299999999999955e+03,3.718170000000000000e+05,-4.707459999999999667e+01
1.181099999999999909e+03,3.691470000000000000e+05,-4.721110000000000184e+01
1.200000000000000000e+03,3.637550000000000000e+05,-4.782509999999999906e+01
1.229509999999999991e+03,3.611040000000000000e+05,-4.844030000000000058e+01
1.244809999999999945e+03,3.575580000000000000e+05,-4.862129999999999797e+01
1.276599999999999909e+03,3.497070000000000000e+05,-4.935710000000000264e+01
1.293099999999999909e+03,3.475620000000000000e+05,-4.963559999999999661e+01
1.321589999999999918e+03,3.434380000000000000e+05,-5.028889999999999816e+01
1.345289999999999964e+03,3.409450000000000000e+05,-5.085360000000000014e+01
1.369859999999999900e+03,3.378950000000000000e+05,-5.141579999999999728e+01
1.401869999999999891e+03,3.316980000000000000e+05,-5.206860000000000355e+01
1.421799999999999955e+03,3.320110000000000000e+05,-5.274750000000000227e+01
1.449279999999999973e+03,3.256200000000000000e+05,-5.314679999999999893e+01
1.477829999999999927e+03,3.231370000000000000e+05,-5.356450000000000244e+01
1.500000000000000000e+03,3.188610000000000000e+05,-5.392990000000000350e+01
1.530609999999999900e+03,3.156690000000000000e+05,-5.464229999999999876e+01
1.554400000000000091e+03,3.116620000000000000e+05,-5.486580000000000013e+01
1.587299999999999955e+03,3.073560000000000000e+05,-5.550730000000000075e+01
1.612900000000000091e+03,3.038720000000000000e+05,-5.572180000000000177e+01
1.648349999999999909e+03,2.996840000000000000e+05,-5.638519999999999754e+01
1.685390000000000100e+03,2.951750000000000000e+05,-5.672420000000000329e+01
1.714289999999999964e+03,2.923340000000000000e+05,-5.710329999999999728e+01
1.734099999999999909e+03,2.891780000000000000e+05,-5.745729999999999649e+01
1.785710000000000036e+03,2.829240000000000000e+05,-5.751709999999999923e+01
1.818180000000000064e+03,2.804770000000000000e+05,-5.877270000000000039e+01
1.840490000000000009e+03,2.784780000000000000e+05,-5.871779999999999688e+01
1.875000000000000000e+03,2.731530000000000000e+05,-5.899940000000000140e+01
1.923079999999999927e+03,2.675690000000000000e+05,-5.969480000000000075e+01
1.948049999999999955e+03,2.644590000000000000e+05,-6.003410000000000224e+01
1.973680000000000064e+03,2.636850000000000000e+05,-6.029209999999999781e+01
2.013420000000000073e+03,2.598880000000000000e+05,-6.102629999999999910e+01
2.054789999999999964e+03,2.547660000000000000e+05,-6.119200000000000017e+01
2.097900000000000091e+03,2.498840000000000000e+05,-6.175659999999999883e+01
2.142860000000000127e+03,2.486560000000000000e+05,-6.240959999999999752e+01
2.173909999999999854e+03,2.439230000000000000e+05,-6.261330000000000240e+01
2.205880000000000109e+03,2.402990000000000000e+05,-6.289900000000000091e+01
2.272730000000000018e+03,2.352910000000000000e+05,-6.360679999999999978e+01
2.307690000000000055e+03,2.329180000000000000e+05,-6.400820000000000221e+01
2.343750000000000000e+03,2.294200000000000000e+05,-6.414319999999999311e+01
2.380949999999999818e+03,2.267330000000000000e+05,-6.460670000000000357e+01
2.419349999999999909e+03,2.234000000000000000e+05,-6.494280000000000541e+01
2.500000000000000000e+03,2.179970000000000000e+05,-6.612229999999999563e+01
2.542369999999999891e+03,2.150540000000000000e+05,-6.614470000000000027e+01
2.564099999999999909e+03,2.143710000000000000e+05,-6.693859999999999388e+01
2.631579999999999927e+03,2.091590000000000000e+05,-6.644129999999999825e+01
2.678570000000000164e+03,2.053720000000000000e+05,-6.661260000000000048e+01
2.702699999999999818e+03,2.033720000000000000e+05,-6.685800000000000409e+01
2.752289999999999964e+03,2.004340000000000000e+05,-6.726940000000000452e+01
2.830190000000000055e+03,1.955890000000000000e+05,-6.778889999999999816e+01
2.857139999999999873e+03,1.949310000000000000e+05,-6.766910000000000025e+01
2.912619999999999891e+03,1.910830000000000000e+05,-6.804540000000000077e+01
3.000000000000000000e+03,1.865120000000000000e+05,-6.877809999999999491e+01
3.030300000000000182e+03,1.845730000000000000e+05,-6.907269999999999754e+01
3.092780000000000200e+03,1.816400000000000000e+05,-6.920759999999999934e+01
3.157889999999999873e+03,1.773900000000000000e+05,-6.952930000000000632e+01
3.260869999999999891e+03,1.732250000000000000e+05,-7.008910000000000196e+01
3.296699999999999818e+03,1.713000000000000000e+05,-7.041759999999999309e+01
3.409090000000000146e+03,1.668650000000000000e+05,-7.093640000000000612e+01
3.488369999999999891e+03,1.634340000000000000e+05,-7.129000000000000625e+01
3.529409999999999854e+03,1.614920000000000000e+05,-7.148069999999999879e+01
3.658539999999999964e+03,1.559100000000000000e+05,-7.229439999999999600e+01
3.703699999999999818e+03,1.544800000000000000e+05,-7.204739999999999611e+01
3.846150000000000091e+03,1.497060000000000000e+05,-7.255419999999999447e+01
3.896099999999999909e+03,1.477800000000000000e+05,-7.292230000000000700e+01
4.000000000000000000e+03,1.437930000000000000e+05,-7.311109999999999332e+01
4.166670000000000073e+03,1.390810000000000000e+05,-7.396040000000000703e+01
4.225350000000000364e+03,1.371750000000000000e+05,-7.394989999999999952e+01
4.411760000000000218e+03,1.317230000000000000e+05,-7.470170000000000243e+01
4.477609999999999673e+03,1.302180000000000000e+05,-7.513920000000000243e+01
4.615380000000000109e+03,1.268060000000000000e+05,-7.546519999999999584e+01
4.761899999999999636e+03,1.231020000000000000e+05,-7.558480000000000132e+01
4.918029999999999745e+03,1.195340000000000000e+05,-7.608140000000000214e+01
5.172409999999999854e+03,1.139800000000000000e+05,-7.670910000000000650e+01
5.357140000000000327e+03,1.102470000000000000e+05,-7.684329999999999927e+01
5.555560000000000400e+03,1.065930000000000000e+05,-7.736450000000000671e+01
5.769229999999999563e+03,1.028700000000000000e+05,-7.778740000000000521e+01
5.882350000000000364e+03,1.009420000000000000e+05,-7.806680000000000064e+01
6.250000000000000000e+03,9.536869999999999709e+04,-7.865420000000000300e+01
6.521739999999999782e+03,9.131650000000000000e+04,-7.889100000000000534e+01
6.818180000000000291e+03,8.749919999999999709e+04,-7.923300000000000409e+01
6.976739999999999782e+03,8.564719999999999709e+04,-7.947650000000000148e+01
7.317069999999999709e+03,8.206969999999999709e+04,-7.973980000000000246e+01
7.894739999999999782e+03,7.607969999999999709e+04,-8.034409999999999741e+01
8.333329999999999927e+03,7.229119999999999709e+04,-8.063060000000000116e+01
8.823530000000000655e+03,6.838739999999999418e+04,-8.115609999999999502e+01
9.375000000000000000e+03,6.450219999999999709e+04,-8.149710000000000321e+01
1.000000000000000000e+04,6.062850000000000000e+04,-8.196059999999999945e+01
1.034479999999999927e+04,5.866430000000000291e+04,-8.205500000000000682e+01
1.111110000000000036e+04,5.474769999999999709e+04,-8.242489999999999384e+01
1.200000000000000000e+04,5.078309999999999854e+04,-8.270090000000000430e+01
1.363639999999999964e+04,4.481109999999999854e+04,-8.322780000000000200e+01
1.428570000000000073e+04,4.282869999999999709e+04,-8.340810000000000457e+01
1.666670000000000073e+04,3.679450000000000000e+04,-8.383490000000000464e+01
1.875000000000000000e+04,3.278159999999999854e+04,-8.407189999999999941e+01
2.000000000000000000e+04,3.080440000000000146e+04,-8.420650000000000546e+01
2.307690000000000146e+04,2.678429999999999927e+04,-8.446720000000000539e+01
2.727270000000000073e+04,2.272090000000000146e+04,-8.457510000000000616e+01
2.857140000000000146e+04,2.170950000000000000e+04,-8.459780000000000655e+01
3.157890000000000146e+04,1.968390000000000146e+04,-8.460360000000000014e+01
3.529409999999999854e+04,1.764500000000000000e+04,-8.458839999999999293e+01
4.000000000000000000e+04,1.561329999999999927e+04,-8.442449999999999477e+01
4.615380000000000291e+04,1.357729999999999927e+04,-8.427880000000000393e+01
5.217390000000000146e+04,1.205150000000000000e+04,-8.402760000000000673e+01
6.000000000000000000e+04,1.051560000000000036e+04,-8.367570000000000618e+01
6.666669999999999709e+04,9.490559999999999491e+03,-8.338899999999999579e+01
7.058819999999999709e+04,8.979799999999999272e+03,-8.319679999999999609e+01
8.000000000000000000e+04,7.960699999999999818e+03,-8.275039999999999907e+01
1.000000000000000000e+05,6.423489999999999782e+03,-8.169799999999999329e+01
1.090910000000000000e+05,5.912560000000000400e+03,-8.122199999999999420e+01
1.200000000000000000e+05,5.401289999999999964e+03,-8.066160000000000707e+01
1.333330000000000000e+05,4.890899999999999636e+03,-7.999389999999999645e+01
1.411760000000000000e+05,4.635479999999999563e+03,-7.960160000000000480e+01
1.600000000000000000e+05,4.126369999999999891e+03,-7.865680000000000405e+01
1.846150000000000000e+05,3.617539999999999964e+03,-7.747050000000000125e+01
