# Frecuencia [Hz], Z [Ohm], Fase []
9.950249999999999773e+01,5.030030000000000000e+06,-8.115550000000000352e+01
1.013509999999999991e+02,4.852710000000000000e+06,-7.648199999999999932e+01
1.032699999999999960e+02,4.519810000000000000e+06,-8.041280000000000427e+01
1.051520000000000010e+02,4.511400000000000000e+06,-7.986299999999999955e+01
1.071430000000000007e+02,4.521170000000000000e+06,-7.670269999999999300e+01
1.091310000000000002e+02,4.534110000000000000e+06,-7.652009999999999934e+01
1.111520000000000010e+02,4.934770000000000000e+06,-6.935920000000000130e+01
1.132500000000000000e+02,4.325560000000000000e+06,-6.547140000000000271e+01
1.153400000000000034e+02,4.003830000000000000e+06,-7.317109999999999559e+01
1.175090000000000003e+02,3.600990000000000000e+06,-7.061730000000000018e+01
1.197129999999999939e+02,4.002380000000000000e+06,-6.547910000000000252e+01
1.218520000000000039e+02,3.453950000000000000e+06,-7.323130000000000450e+01
1.241719999999999970e+02,3.792340000000000000e+06,-6.912649999999999295e+01
1.265289999999999964e+02,3.742820000000000000e+06,-6.458450000000000557e+01
1.288660000000000139e+02,3.556060000000000000e+06,-7.139770000000000039e+01
1.311759999999999877e+02,3.580690000000000000e+06,-7.021259999999999479e+01
1.336299999999999955e+02,3.580710000000000000e+06,-6.860649999999999693e+01
1.361160000000000139e+02,3.786320000000000000e+06,-6.409990000000000521e+01
1.386959999999999980e+02,3.867090000000000000e+06,-6.408769999999999811e+01
1.413089999999999975e+02,3.877170000000000000e+06,-6.542140000000000555e+01
1.439540000000000077e+02,3.510440000000000000e+06,-6.135240000000000293e+01
1.466279999999999859e+02,3.900290000000000000e+06,-6.914300000000000068e+01
1.493280000000000030e+02,3.512360000000000000e+06,-6.233359999999999701e+01
1.521299999999999955e+02,3.315390000000000000e+06,-6.717189999999999372e+01
1.549590000000000032e+02,3.305670000000000000e+06,-6.554030000000000200e+01
1.578950000000000102e+02,3.444050000000000000e+06,-6.513020000000000209e+01
1.607719999999999914e+02,3.523490000000000000e+06,-6.909050000000000580e+01
1.636659999999999968e+02,3.483760000000000000e+06,-6.595789999999999509e+01
1.667589999999999861e+02,3.437890000000000000e+06,-7.159029999999999916e+01
1.698750000000000000e+02,3.303260000000000000e+06,-6.563370000000000459e+01
1.730099999999999909e+02,3.141520000000000000e+06,-6.634340000000000259e+01
1.762630000000000052e+02,3.341870000000000000e+06,-7.056399999999999295e+01
1.795329999999999870e+02,3.122040000000000000e+06,-6.739239999999999498e+01
1.828149999999999977e+02,2.970360000000000000e+06,-6.601850000000000307e+01
1.863350000000000080e+02,3.332120000000000000e+06,-7.164969999999999573e+01
1.897529999999999859e+02,3.244270000000000000e+06,-7.545059999999999434e+01
1.934240000000000066e+02,2.956410000000000000e+06,-6.647889999999999588e+01
1.968499999999999943e+02,2.807520000000000000e+06,-6.735479999999999734e+01
2.006690000000000111e+02,3.108010000000000000e+06,-6.674379999999999313e+01
2.043600000000000136e+02,2.976330000000000000e+06,-7.066750000000000398e+01
2.080440000000000111e+02,2.796350000000000000e+06,-6.771280000000000143e+01
2.118640000000000043e+02,2.735270000000000000e+06,-6.926860000000000639e+01
2.158269999999999982e+02,2.751280000000000000e+06,-6.428619999999999379e+01
2.199410000000000025e+02,2.685940000000000000e+06,-6.620350000000000534e+01
2.242150000000000034e+02,2.641580000000000000e+06,-6.660150000000000148e+01
2.283110000000000070e+02,2.590810000000000000e+06,-6.305449999999999733e+01
2.323779999999999859e+02,2.552300000000000000e+06,-6.346770000000000067e+01
2.369670000000000130e+02,2.381550000000000000e+06,-6.457120000000000459e+01
2.413520000000000039e+02,2.363840000000000000e+06,-6.163329999999999842e+01
2.456999999999999886e+02,2.425480000000000000e+06,-6.305919999999999703e+01
2.504170000000000016e+02,2.280280000000000000e+06,-6.365480000000000160e+01
2.548849999999999909e+02,2.355180000000000000e+06,-6.352819999999999823e+01
2.597400000000000091e+02,2.353820000000000000e+06,-6.408119999999999550e+01
2.645500000000000114e+02,2.331420000000000000e+06,-6.502299999999999613e+01
2.695419999999999732e+02,2.148690000000000000e+06,-6.575939999999999941e+01
2.747250000000000227e+02,2.269980000000000000e+06,-6.476699999999999591e+01
2.798509999999999991e+02,2.340870000000000000e+06,-6.486039999999999850e+01
2.848999999999999773e+02,2.247110000000000000e+06,-6.753440000000000509e+01
2.901349999999999909e+02,2.229410000000000000e+06,-6.459959999999999525e+01
2.955659999999999741e+02,2.263840000000000000e+06,-6.402400000000000091e+01
3.012049999999999841e+02,2.113150000000000000e+06,-6.338719999999999999e+01
3.064350000000000023e+02,2.105540000000000000e+06,-6.561509999999999820e+01
3.125000000000000000e+02,2.151910000000000000e+06,-6.464629999999999654e+01
3.184710000000000036e+02,2.036720000000000000e+06,-6.676659999999999684e+01
3.239739999999999895e+02,1.943320000000000000e+06,-6.428140000000000498e+01
3.300330000000000155e+02,1.971110000000000000e+06,-6.205910000000000082e+01
3.359460000000000264e+02,1.989350000000000000e+06,-6.590430000000000632e+01
3.428570000000000277e+02,1.854340000000000000e+06,-6.546930000000000405e+01
3.488369999999999891e+02,1.939140000000000000e+06,-6.402070000000000505e+01
3.554499999999999886e+02,1.849110000000000000e+06,-6.193489999999999895e+01
3.623190000000000168e+02,1.862640000000000000e+06,-6.307840000000000202e+01
3.685500000000000114e+02,1.777980000000000000e+06,-6.100430000000000064e+01
3.754689999999999941e+02,1.826430000000000000e+06,-6.006539999999999679e+01
3.826530000000000200e+02,1.736180000000000000e+06,-6.045049999999999812e+01
3.896100000000000136e+02,1.731780000000000000e+06,-6.184850000000000136e+01
3.968249999999999886e+02,1.717010000000000000e+06,-6.258700000000000330e+01
4.048580000000000041e+02,1.665000000000000000e+06,-6.074629999999999797e+01
4.120880000000000223e+02,1.707790000000000000e+06,-6.067020000000000124e+01
4.195799999999999841e+02,1.661360000000000000e+06,-5.745530000000000115e+01
4.273500000000000227e+02,1.650070000000000000e+06,-6.043650000000000233e+01
4.360470000000000255e+02,1.610490000000000000e+06,-5.830100000000000193e+01
4.431309999999999718e+02,1.539720000000000000e+06,-5.991239999999999810e+01
4.518070000000000164e+02,1.539240000000000000e+06,-5.881340000000000146e+01
4.608290000000000077e+02,1.590340000000000000e+06,-5.776100000000000279e+01
4.687500000000000000e+02,1.505000000000000000e+06,-5.833319999999999794e+01
4.777069999999999936e+02,1.560740000000000000e+06,-5.733429999999999893e+01
4.870129999999999768e+02,1.506490000000000000e+06,-5.506569999999999965e+01
4.950489999999999782e+02,1.512890000000000000e+06,-5.412539999999999907e+01
5.050509999999999877e+02,1.494110000000000000e+06,-5.526019999999999754e+01
5.145800000000000409e+02,1.477990000000000000e+06,-5.381759999999999877e+01
5.235599999999999454e+02,1.442900000000000000e+06,-5.354579999999999984e+01
5.338079999999999927e+02,1.420840000000000000e+06,-5.472760000000000247e+01
5.434779999999999518e+02,1.400330000000000000e+06,-5.447760000000000247e+01
5.545289999999999964e+02,1.366470000000000000e+06,-5.343820000000000192e+01
5.649719999999999800e+02,1.361630000000000000e+06,-5.363759999999999906e+01
5.747129999999999654e+02,1.357990000000000000e+06,-5.513510000000000133e+01
5.847949999999999591e+02,1.319390000000000000e+06,-5.432630000000000337e+01
5.952380000000000564e+02,1.315720000000000000e+06,-5.291729999999999734e+01
6.072870000000000346e+02,1.262630000000000000e+06,-5.251760000000000161e+01
6.198350000000000364e+02,1.253840000000000000e+06,-5.090509999999999735e+01
6.302519999999999527e+02,1.241160000000000000e+06,-5.327009999999999934e+01
6.423980000000000246e+02,1.201480000000000000e+06,-5.098169999999999646e+01
6.550220000000000482e+02,1.215520000000000000e+06,-4.999799999999999756e+01
6.651879999999999882e+02,1.163680000000000000e+06,-5.121229999999999905e+01
6.787329999999999472e+02,1.181980000000000000e+06,-4.926039999999999708e+01
6.896549999999999727e+02,1.192720000000000000e+06,-4.858650000000000091e+01
7.025760000000000218e+02,1.162750000000000000e+06,-4.900670000000000215e+01
7.159900000000000091e+02,1.139670000000000000e+06,-5.153509999999999991e+01
7.299270000000000209e+02,1.124870000000000000e+06,-4.746110000000000184e+01
7.425739999999999554e+02,1.096610000000000000e+06,-4.778889999999999816e+01
7.594940000000000282e+02,1.079740000000000000e+06,-4.451100000000000279e+01
7.712079999999999700e+02,1.078780000000000000e+06,-4.777740000000000009e+01
7.853400000000000318e+02,1.072570000000000000e+06,-4.561939999999999884e+01
8.000000000000000000e+02,1.071400000000000000e+06,-4.456900000000000261e+01
8.152169999999999845e+02,1.057050000000000000e+06,-4.578940000000000055e+01
8.333329999999999700e+02,1.028660000000000000e+06,-4.440420000000000300e+01
8.450700000000000500e+02,1.038140000000000000e+06,-4.466680000000000206e+01
8.620689999999999600e+02,1.041710000000000000e+06,-4.210790000000000077e+01
8.771929999999999836e+02,1.022000000000000000e+06,-4.253430000000000177e+01
8.928569999999999709e+02,1.024770000000000000e+06,-4.172319999999999851e+01
9.118540000000000418e+02,9.878930000000000000e+05,-4.150410000000000110e+01
9.316770000000000209e+02,9.871440000000000000e+05,-4.206929999999999836e+01
9.463719999999999573e+02,9.753650000000000000e+05,-4.156410000000000338e+01
9.615380000000000109e+02,9.554580000000000000e+05,-4.135860000000000269e+01
9.803920000000000528e+02,9.766130000000000000e+05,-4.115379999999999683e+01
1.000000000000000000e+03,9.402970000000000000e+05,-4.068860000000000099e+01
1.020409999999999968e+03,9.533200000000000000e+05,-4.120259999999999678e+01
1.038059999999999945e+03,9.414630000000000000e+05,-3.861419999999999675e+01
1.060069999999999936e+03,9.176460000000000000e+05,-3.833570000000000277e+01
1.079140000000000100e+03,9.177340000000000000e+05,-3.938130000000000308e+01
1.094890000000000100e+03,9.080790000000000000e+05,-3.794769999999999754e+01
1.115240000000000009e+03,9.092880000000000000e+05,-3.738060000000000116e+01
1.136359999999999900e+03,9.024420000000000000e+05,-3.713230000000000075e+01
1.158299999999999955e+03,9.193440000000000000e+05,-3.555619999999999692e+01
1.181099999999999909e+03,8.994630000000000000e+05,-3.526800000000000068e+01
1.200000000000000000e+03,8.977680000000000000e+05,-3.460510000000000019e+01
1.229509999999999991e+03,8.826750000000000000e+05,-3.450160000000000338e+01
1.244809999999999945e+03,8.694550000000000000e+05,-3.393529999999999802e+01
1.276599999999999909e+03,8.639960000000000000e+05,-3.347010000000000218e+01
1.293099999999999909e+03,8.738100000000000000e+05,-3.328379999999999939e+01
1.321589999999999918e+03,8.706720000000000000e+05,-3.370120000000000005e+01
1.345289999999999964e+03,8.562970000000000000e+05,-3.392090000000000316e+01
1.369859999999999900e+03,8.583790000000000000e+05,-3.251180000000000092e+01
1.401869999999999891e+03,8.440230000000000000e+05,-3.161840000000000117e+01
1.421799999999999955e+03,8.462570000000000000e+05,-3.258749999999999858e+01
1.449279999999999973e+03,8.165900000000000000e+05,-3.182339999999999947e+01
1.477829999999999927e+03,8.216210000000000000e+05,-3.127349999999999852e+01
1.500000000000000000e+03,8.096020000000000000e+05,-3.223890000000000100e+01
1.530609999999999900e+03,8.006250000000000000e+05,-3.042680000000000007e+01
1.554400000000000091e+03,7.894540000000000000e+05,-3.061890000000000001e+01
1.587299999999999955e+03,7.855610000000000000e+05,-2.982059999999999889e+01
1.612900000000000091e+03,7.843830000000000000e+05,-2.992879999999999896e+01
1.648349999999999909e+03,7.825410000000000000e+05,-2.886420000000000030e+01
1.685390000000000100e+03,7.858240000000000000e+05,-2.794669999999999987e+01
1.714289999999999964e+03,7.709360000000000000e+05,-2.804550000000000054e+01
1.734099999999999909e+03,7.671090000000000000e+05,-2.801109999999999900e+01
1.785710000000000036e+03,7.954950000000000000e+05,-2.609909999999999997e+01
1.818180000000000064e+03,7.660320000000000000e+05,-2.692020000000000124e+01
1.840490000000000009e+03,7.597670000000000000e+05,-2.670009999999999906e+01
1.875000000000000000e+03,7.577110000000000000e+05,-2.599780000000000157e+01
1.923079999999999927e+03,7.429620000000000000e+05,-2.571719999999999828e+01
1.948049999999999955e+03,7.424580000000000000e+05,-2.550560000000000116e+01
1.973680000000000064e+03,7.481530000000000000e+05,-2.477169999999999916e+01
2.013420000000000073e+03,7.509690000000000000e+05,-2.427749999999999986e+01
2.054789999999999964e+03,7.590440000000000000e+05,-2.349299999999999855e+01
2.097900000000000091e+03,7.486370000000000000e+05,-2.333490000000000109e+01
2.142860000000000127e+03,7.547520000000000000e+05,-2.303059999999999974e+01
2.173909999999999854e+03,7.498360000000000000e+05,-2.293560000000000088e+01
2.205880000000000109e+03,7.335740000000000000e+05,-2.333360000000000056e+01
2.272730000000000018e+03,7.210950000000000000e+05,-2.238660000000000139e+01
2.307690000000000055e+03,7.263150000000000000e+05,-2.262500000000000000e+01
2.343750000000000000e+03,7.264350000000000000e+05,-2.193799999999999883e+01
2.380949999999999818e+03,7.162220000000000000e+05,-2.219930000000000092e+01
2.419349999999999909e+03,7.071400000000000000e+05,-2.188479999999999848e+01
2.500000000000000000e+03,7.061840000000000000e+05,-2.114280000000000115e+01
2.542369999999999891e+03,7.103770000000000000e+05,-2.122609999999999886e+01
2.564099999999999909e+03,6.998950000000000000e+05,-2.087089999999999890e+01
2.631579999999999927e+03,6.899240000000000000e+05,-2.099429999999999907e+01
2.678570000000000164e+03,6.827970000000000000e+05,-2.076859999999999928e+01
2.702699999999999818e+03,6.709750000000000000e+05,-2.078630000000000067e+01
2.752289999999999964e+03,6.797170000000000000e+05,-2.048620000000000019e+01
2.830190000000000055e+03,6.534290000000000000e+05,-2.042830000000000013e+01
2.857139999999999873e+03,6.660600000000000000e+05,-2.007209999999999894e+01
2.912619999999999891e+03,6.569990000000000000e+05,-1.986809999999999832e+01
3.000000000000000000e+03,6.588390000000000000e+05,-1.883589999999999876e+01
3.030300000000000182e+03,6.673510000000000000e+05,-1.876910000000000167e+01
3.092780000000000200e+03,6.711540000000000000e+05,-1.772269999999999968e+01
3.157889999999999873e+03,6.835380000000000000e+05,-1.771630000000000038e+01
3.260869999999999891e+03,6.778250000000000000e+05,-1.788889999999999958e+01
3.296699999999999818e+03,6.685740000000000000e+05,-1.715840000000000032e+01
3.409090000000000146e+03,6.489790000000000000e+05,-1.706390000000000029e+01
3.488369999999999891e+03,6.637920000000000000e+05,-1.659499999999999886e+01
3.529409999999999854e+03,6.617460000000000000e+05,-1.645039999999999836e+01
3.658539999999999964e+03,6.785940000000000000e+05,-1.482799999999999940e+01
3.703699999999999818e+03,6.609390000000000000e+05,-1.590460000000000029e+01
3.846150000000000091e+03,6.678180000000000000e+05,-1.554920000000000080e+01
3.896099999999999909e+03,6.638190000000000000e+05,-1.567559999999999931e+01
4.000000000000000000e+03,6.584780000000000000e+05,-1.444020000000000081e+01
4.166670000000000073e+03,6.832770000000000000e+05,-1.404420000000000002e+01
4.225350000000000364e+03,6.634640000000000000e+05,-1.401640000000000086e+01
4.411760000000000218e+03,6.623750000000000000e+05,-1.345270000000000010e+01
4.477609999999999673e+03,4.853900000000000000e+05,-1.763289999999999935e+01
4.615380000000000109e+03,5.242680000000000000e+05,-1.623359999999999914e+01
4.761899999999999636e+03,5.309240000000000000e+05,-1.543629999999999924e+01
4.918029999999999745e+03,5.190270000000000000e+05,-1.495519999999999960e+01
5.172409999999999854e+03,5.237360000000000000e+05,-1.464620000000000033e+01
5.357140000000000327e+03,5.290630000000000000e+05,-1.353090000000000082e+01
5.555560000000000400e+03,5.281420000000000000e+05,-1.345149999999999935e+01
5.769229999999999563e+03,5.205880000000000000e+05,-1.328320000000000078e+01
5.882350000000000364e+03,5.071540000000000000e+05,-1.335410000000000075e+01
6.250000000000000000e+03,5.352660000000000000e+05,-1.235720000000000063e+01
6.521739999999999782e+03,5.291900000000000000e+05,-1.170850000000000080e+01
6.818180000000000291e+03,5.263280000000000000e+05,-1.198189999999999955e+01
6.976739999999999782e+03,5.543300000000000000e+05,-1.104229999999999912e+01
7.317069999999999709e+03,5.304580000000000000e+05,-1.118999999999999950e+01
7.894739999999999782e+03,5.271130000000000000e+05,-1.079669999999999952e+01
8.333329999999999927e+03,5.070640000000000000e+05,-1.064209999999999923e+01
8.823530000000000655e+03,5.153620000000000000e+05,-9.619270000000000209e+00
9.375000000000000000e+03,5.003620000000000000e+05,-9.567000000000000171e+00
1.000000000000000000e+04,5.017510000000000000e+05,-9.324450000000000571e+00
1.034479999999999927e+04,5.169010000000000000e+05,-9.091969999999999885e+00
1.111110000000000036e+04,4.895420000000000000e+05,-8.576200000000000045e+00
1.200000000000000000e+04,5.131960000000000000e+05,-8.498699999999999477e+00
1.363639999999999964e+04,5.196380000000000000e+05,-8.351810000000000400e+00
1.428570000000000073e+04,4.924320000000000000e+05,-8.506439999999999557e+00
1.666670000000000073e+04,5.117350000000000000e+05,-8.370350000000000179e+00
1.875000000000000000e+04,5.120720000000000000e+05,-7.859880000000000422e+00
2.000000000000000000e+04,5.106230000000000000e+05,-8.104749999999999233e+00
2.307690000000000146e+04,5.051120000000000000e+05,-7.691200000000000259e+00
2.727270000000000073e+04,5.059940000000000000e+05,-8.331799999999999429e+00
2.857140000000000146e+04,5.039960000000000000e+05,-8.596700000000000230e+00
3.157890000000000146e+04,5.060140000000000000e+05,-9.349180000000000490e+00
3.529409999999999854e+04,5.004050000000000000e+05,-1.001350000000000051e+01
4.000000000000000000e+04,5.025890000000000000e+05,-1.093790000000000084e+01
4.615380000000000291e+04,5.041670000000000000e+05,-1.119500000000000028e+01
5.217390000000000146e+04,4.956520000000000000e+05,-1.242769999999999975e+01
6.000000000000000000e+04,4.956480000000000000e+05,-1.316469999999999985e+01
6.666669999999999709e+04,4.928580000000000000e+05,-1.531579999999999941e+01
7.058819999999999709e+04,4.811920000000000000e+05,-1.542820000000000036e+01
8.000000000000000000e+04,4.807190000000000000e+05,-1.684629999999999939e+01
1.000000000000000000e+05,4.654380000000000000e+05,-2.058170000000000144e+01
1.090910000000000000e+05,4.588980000000000000e+05,-2.164160000000000039e+01
1.200000000000000000e+05,4.578780000000000000e+05,-2.306540000000000035e+01
1.333330000000000000e+05,4.442000000000000000e+05,-2.555559999999999832e+01
1.411760000000000000e+05,4.354970000000000000e+05,-2.627459999999999951e+01
1.600000000000000000e+05,4.243690000000000000e+05,-2.849269999999999925e+01
1.846150000000000000e+05,4.097200000000000000e+05,-3.164000000000000057e+01
