# Tiempo [s], Voltage [V], Corriente [A]
#  Vpos=-7, Vneg=-7, stepPos=-0.09333333333333334, stepNeg=-0.09333333333333334, rev=0, hslV=0.3, hslF=1, cycles=1, T=0.25, pw=0.025, limitI=0.0005, rangeI=1e-08, limitV=0.5, rangeV=20, nlpc=0.01
0.000000000000000000e+00,3.000510000000000121e-01,1.824870000000000029e-05
2.495020000000000016e-01,-9.321440000000000281e-02,-4.739660000000000289e-06
4.992849999999999788e-01,3.001329999999999831e-01,1.853409999999999929e-05
7.487669999999999604e-01,-1.867929999999999868e-01,-1.336029999999999980e-05
9.987669999999999604e-01,3.002049999999999996e-01,1.762819999999999836e-05
1.248769999999999936e+00,-2.797299999999999787e-01,-2.382289999999999853e-05
1.498769999999999936e+00,3.001489999999999991e-01,1.826420000000000040e-05
1.748769999999999936e+00,-3.730160000000000142e-01,-3.853659999999999963e-05
1.998769999999999936e+00,3.002139999999999809e-01,1.824789999999999854e-05
2.248769999999999936e+00,-4.665779999999999927e-01,-5.408689999999999879e-05
2.498769999999999936e+00,3.002049999999999996e-01,1.725820000000000021e-05
2.748769999999999936e+00,-5.598560000000000203e-01,-7.320230000000000215e-05
2.998769999999999936e+00,3.000920000000000254e-01,1.824049999999999925e-05
3.248769999999999936e+00,-6.532470000000000221e-01,-9.402809999999999510e-05
3.498769999999999936e+00,3.002219999999999889e-01,1.930349999999999907e-05
3.749289999999999790e+00,-7.464039999999999564e-01,-1.149789999999999981e-04
3.999299999999999855e+00,3.002299999999999969e-01,1.772970000000000069e-05
4.249290000000000234e+00,-8.399649999999999617e-01,-1.368370000000000046e-04
4.499290000000000234e+00,3.002219999999999889e-01,1.897459999999999956e-05
4.749290000000000234e+00,-9.333650000000000002e-01,-1.607710000000000096e-04
4.999290000000000234e+00,3.002219999999999889e-01,1.942980000000000157e-05
5.249279999999999724e+00,-1.026569999999999983e+00,-1.865550000000000053e-04
5.499290000000000234e+00,3.002779999999999894e-01,1.980800000000000076e-05
5.749310000000000365e+00,-1.119990000000000041e+00,-2.137689999999999924e-04
5.999290000000000234e+00,3.003350000000000186e-01,1.912070000000000143e-05
6.249329999999999607e+00,-1.213270000000000071e+00,-2.440990000000000087e-04
6.499290000000000234e+00,3.001969999999999916e-01,2.032979999999999973e-05
6.749319999999999986e+00,-1.306599999999999984e+00,-2.717020000000000221e-04
6.999290000000000234e+00,3.002619999999999734e-01,2.055440000000000094e-05
7.249319999999999986e+00,-1.400099999999999900e+00,-2.974470000000000000e-04
7.499279999999999724e+00,3.002219999999999889e-01,2.004890000000000044e-05
7.749329999999999607e+00,-1.493409999999999904e+00,-3.315060000000000207e-04
7.999290000000000234e+00,3.004080000000000084e-01,2.199559999999999994e-05
8.249320000000000874e+00,-1.586680000000000090e+00,-3.597140000000000190e-04
8.499290000000000234e+00,3.002870000000000261e-01,2.116470000000000084e-05
8.749330000000000496e+00,-1.679910000000000014e+00,-3.929089999999999883e-04
8.999280000000000612e+00,3.002949999999999786e-01,2.271020000000000154e-05
9.249330000000000496e+00,-1.773360000000000047e+00,-4.204440000000000152e-04
9.499280000000000612e+00,3.003680000000000239e-01,2.181449999999999926e-05
9.749320000000000874e+00,-1.866730000000000000e+00,-4.578110000000000252e-04
9.999290000000000234e+00,3.002779999999999894e-01,1.053900000000000023e-05
1.024929999999999986e+01,-1.960050000000000070e+00,-4.721799999999999956e-04
1.049929999999999986e+01,3.001240000000000019e-01,1.840429999999999928e-05
1.074929999999999986e+01,-2.050889999999999880e+00,-5.268929999999999577e-04
1.099929999999999986e+01,3.002699999999999814e-01,2.154069999999999859e-05
1.124929999999999986e+01,-2.145469999999999988e+00,-5.605239999999999615e-04
1.149929999999999986e+01,3.002619999999999734e-01,2.472089999999999908e-05
1.174929999999999986e+01,-2.237750000000000128e+00,-5.951409999999999860e-04
1.199929999999999986e+01,3.002779999999999894e-01,2.691310000000000157e-05
1.224929999999999986e+01,-2.329810000000000159e+00,-6.293310000000000093e-04
1.249929999999999986e+01,3.002619999999999734e-01,2.652150000000000010e-05
1.274929999999999986e+01,-2.425539999999999807e+00,-6.595830000000000443e-04
1.299929999999999986e+01,3.001809999999999756e-01,2.594070000000000051e-05
1.324929999999999986e+01,-2.517959999999999976e+00,-6.955620000000000466e-04
1.349929999999999986e+01,3.001730000000000231e-01,2.648190000000000136e-05
1.374929999999999986e+01,-2.612470000000000070e+00,-7.317719999999999997e-04
1.399929999999999986e+01,3.002619999999999734e-01,2.661460000000000095e-05
1.424929999999999986e+01,-2.704099999999999948e+00,-7.632900000000000188e-04
1.449929999999999986e+01,3.003270000000000106e-01,2.757080000000000037e-05
1.474929999999999986e+01,-2.797600000000000087e+00,-8.001220000000000077e-04
1.499929999999999986e+01,3.003589999999999871e-01,2.742789999999999874e-05
1.524929999999999986e+01,-2.889949999999999797e+00,-8.362149999999999618e-04
1.549929999999999986e+01,3.002949999999999786e-01,2.839569999999999987e-05
1.574980000000000047e+01,-2.986969999999999903e+00,-8.733429999999999492e-04
1.599929999999999986e+01,3.000110000000000277e-01,2.963269999999999836e-05
1.624930000000000163e+01,-3.079099999999999948e+00,-9.085229999999999478e-04
1.649930000000000163e+01,3.000030000000000197e-01,3.018449999999999874e-05
1.674930000000000163e+01,-3.173249999999999904e+00,-9.423460000000000473e-04
1.699930000000000163e+01,2.999870000000000037e-01,2.932539999999999878e-05
1.724930000000000163e+01,-3.266739999999999977e+00,-9.765359999999999622e-04
1.749930000000000163e+01,3.000269999999999881e-01,2.863209999999999985e-05
1.774980000000000047e+01,-3.357219999999999871e+00,-1.018390000000000094e-03
1.799930000000000163e+01,3.000840000000000174e-01,2.976790000000000005e-05
1.824980000000000047e+01,-3.452370000000000161e+00,-1.059910000000000062e-03
1.849930000000000163e+01,2.999620000000000064e-01,3.088630000000000276e-05
1.874980000000000047e+01,-3.546809999999999796e+00,-1.097990000000000077e-03
1.899930000000000163e+01,3.000920000000000254e-01,3.221279999999999760e-05
1.924980000000000047e+01,-3.639590000000000103e+00,-1.132470000000000004e-03
1.949930000000000163e+01,3.001159999999999939e-01,3.085130000000000055e-05
1.974980000000000047e+01,-3.732870000000000132e+00,-1.170610000000000097e-03
1.999930000000000163e+01,3.000030000000000197e-01,3.195250000000000282e-05
2.024980000000000047e+01,-3.823989999999999778e+00,-1.206500000000000107e-03
2.049930000000000163e+01,2.999379999999999824e-01,3.146750000000000323e-05
2.074980000000000047e+01,-3.919939999999999980e+00,-1.242669999999999973e-03
2.099930000000000163e+01,2.999950000000000117e-01,3.158949999999999969e-05
2.124980000000000047e+01,-4.013440000000000119e+00,-1.283000000000000069e-03
2.149930000000000163e+01,3.001159999999999939e-01,3.345650000000000062e-05
2.174980000000000047e+01,-4.107370000000000410e+00,-1.321289999999999921e-03
2.199930000000000163e+01,2.999459999999999904e-01,3.397819999999999936e-05
2.224980000000000047e+01,-4.199639999999999596e+00,-1.360260000000000071e-03
2.249930000000000163e+01,3.001079999999999859e-01,3.460680000000000212e-05
2.274980000000000047e+01,-4.292709999999999582e+00,-1.396220000000000100e-03
2.299930000000000163e+01,3.000920000000000254e-01,3.601779999999999928e-05
2.324980000000000047e+01,-4.385909999999999975e+00,-1.440400000000000100e-03
2.349930000000000163e+01,2.999620000000000064e-01,3.675919999999999866e-05
2.374980000000000047e+01,-4.479630000000000223e+00,-1.473839999999999916e-03
2.399930000000000163e+01,3.001159999999999939e-01,3.595730000000000215e-05
2.424980000000000047e+01,-4.571970000000000312e+00,-1.514249999999999971e-03
2.449930000000000163e+01,3.000189999999999801e-01,3.550950000000000281e-05
2.474980000000000047e+01,-4.665910000000000224e+00,-1.551569999999999946e-03
2.499930000000000163e+01,3.000430000000000041e-01,3.519539999999999849e-05
2.524980000000000047e+01,-4.759909999999999641e+00,-1.587129999999999964e-03
2.549930000000000163e+01,3.000599999999999934e-01,3.553849999999999864e-05
2.574980000000000047e+01,-4.853620000000000267e+00,-1.628939999999999945e-03
2.599930000000000163e+01,3.000430000000000041e-01,3.658130000000000160e-05
2.624980000000000047e+01,-4.946830000000000283e+00,-1.669240000000000003e-03
2.649930000000000163e+01,3.000920000000000254e-01,3.636160000000000097e-05
2.674980000000000047e+01,-5.039179999999999993e+00,-1.706810000000000011e-03
2.699930000000000163e+01,2.999700000000000144e-01,3.725049999999999851e-05
2.724980000000000047e+01,-5.132959999999999745e+00,-1.743270000000000106e-03
2.749930000000000163e+01,3.001159999999999939e-01,3.722329999999999986e-05
2.774980000000000047e+01,-5.225170000000000314e+00,-1.784360000000000026e-03
2.799930000000000163e+01,3.001159999999999939e-01,3.766439999999999805e-05
2.824980000000000047e+01,-5.318229999999999791e+00,-1.821860000000000016e-03
2.849930000000000163e+01,3.000030000000000197e-01,3.687659999999999858e-05
2.874980000000000047e+01,-5.412379999999999747e+00,-1.861550000000000010e-03
2.899930000000000163e+01,3.000430000000000041e-01,3.794130000000000213e-05
2.924980000000000047e+01,-5.504290000000000127e+00,-1.899330000000000072e-03
2.949930000000000163e+01,3.001079999999999859e-01,3.711399999999999736e-05
2.974980000000000047e+01,-5.599660000000000082e+00,-1.937909999999999936e-03
2.999930000000000163e+01,3.001489999999999991e-01,3.844150000000000117e-05
3.024980000000000047e+01,-5.693089999999999762e+00,-1.977780000000000163e-03
3.049930000000000163e+01,3.001730000000000231e-01,3.830960000000000333e-05
3.074980000000000047e+01,-5.785940000000000083e+00,-2.017790000000000208e-03
3.099930000000000163e+01,3.000189999999999801e-01,3.939730000000000310e-05
3.124980000000000047e+01,-5.879010000000000069e+00,-2.056230000000000037e-03
3.149930000000000163e+01,3.000510000000000121e-01,3.953419999999999835e-05
3.175029999999999930e+01,-5.969820000000000348e+00,-2.095339999999999789e-03
3.199930000000000163e+01,3.001550000000000051e-01,3.974210000000000020e-05
3.224980000000000047e+01,-6.064689999999999692e+00,-2.134599999999999952e-03
3.249929999999999808e+01,3.000499999999999834e-01,4.023629999999999964e-05
3.274980000000000047e+01,-6.158330000000000304e+00,-2.174510000000000158e-03
3.299929999999999808e+01,3.002199999999999869e-01,3.841350000000000076e-05
3.324980000000000047e+01,-6.251400000000000290e+00,-2.210319999999999993e-03
3.349929999999999808e+01,3.003739999999999744e-01,3.762960000000000306e-05
3.374980000000000047e+01,-6.344829999999999970e+00,-2.252890000000000014e-03
3.399929999999999808e+01,3.001139999999999919e-01,3.944809999999999929e-05
3.424980000000000047e+01,-6.438109999999999999e+00,-2.293620000000000120e-03
3.449929999999999808e+01,3.001869999999999816e-01,3.819170000000000231e-05
3.474980000000000047e+01,-6.532119999999999926e+00,-2.332199999999999985e-03
3.499929999999999808e+01,3.003489999999999771e-01,3.925460000000000190e-05
3.524980000000000047e+01,-6.622950000000000337e+00,-2.372860000000000073e-03
3.549929999999999808e+01,3.001710000000000211e-01,3.894719999999999872e-05
3.574980000000000047e+01,-6.717310000000000336e+00,-2.413090000000000113e-03
3.599949999999999761e+01,3.001710000000000211e-01,2.477350000000000091e-06
3.625030000000000285e+01,-6.809809999999999697e+00,-2.250119999999999985e-03
3.649929999999999808e+01,3.001139999999999919e-01,1.789929999999999988e-05
3.674980000000000047e+01,-6.904889999999999972e+00,-2.294589999999999998e-03
3.699929999999999808e+01,3.002110000000000056e-01,1.904429999999999993e-05
3.724980000000000047e+01,-6.996450000000000280e+00,-2.337689999999999907e-03
3.749929999999999808e+01,3.001949999999999896e-01,1.908500000000000108e-05
3.774980000000000047e+01,-6.904029999999999667e+00,-2.297249999999999813e-03
3.799929999999999808e+01,3.002029999999999976e-01,2.000900000000000104e-05
3.824980000000000047e+01,-6.811460000000000292e+00,-2.259210000000000211e-03
3.849929999999999808e+01,3.001789999999999736e-01,1.983389999999999996e-05
3.874980000000000047e+01,-6.717030000000000278e+00,-2.224509999999999856e-03
3.899929999999999808e+01,3.003170000000000006e-01,2.045609999999999884e-05
3.924980000000000047e+01,-6.625469999999999970e+00,-2.195809999999999863e-03
3.949929999999999808e+01,3.001139999999999919e-01,2.101109999999999946e-05
3.974980000000000047e+01,-6.531320000000000014e+00,-2.157880000000000041e-03
3.999929999999999808e+01,3.002679999999999794e-01,2.092899999999999901e-05
4.024980000000000047e+01,-6.438039999999999985e+00,-2.120379999999999834e-03
4.049929999999999808e+01,3.002279999999999949e-01,2.178009999999999837e-05
4.074980000000000047e+01,-6.343460000000000321e+00,-2.084209999999999969e-03
4.099929999999999808e+01,3.002110000000000056e-01,2.160500000000000067e-05
4.124980000000000047e+01,-6.251689999999999969e+00,-2.043759999999999934e-03
4.149929999999999808e+01,3.002440000000000109e-01,2.115680000000000045e-05
4.174980000000000047e+01,-6.158190000000000275e+00,-2.007339999999999819e-03
4.199929999999999808e+01,3.003649999999999931e-01,2.146069999999999936e-05
4.224980000000000047e+01,-6.065120000000000289e+00,-1.971239999999999971e-03
4.249929999999999808e+01,3.003330000000000166e-01,2.156579999999999942e-05
4.274980000000000047e+01,-5.971549999999999692e+00,-1.933739999999999981e-03
4.299929999999999808e+01,3.002920000000000034e-01,2.167259999999999982e-05
4.324980000000000047e+01,-5.878120000000000012e+00,-1.896239999999999992e-03
4.349929999999999808e+01,3.002759999999999874e-01,2.187349999999999988e-05
4.374980000000000047e+01,-5.784110000000000085e+00,-1.860459999999999978e-03
4.399929999999999808e+01,3.002029999999999976e-01,2.157039999999999934e-05
4.424980000000000047e+01,-5.690830000000000055e+00,-1.824220000000000095e-03
4.449929999999999808e+01,3.001789999999999736e-01,2.208469999999999880e-05
4.474980000000000047e+01,-5.596610000000000085e+00,-1.784489999999999904e-03
4.499929999999999808e+01,3.002279999999999949e-01,2.185189999999999995e-05
4.524980000000000047e+01,-5.503829999999999778e+00,-1.748460000000000075e-03
4.549929999999999808e+01,3.001789999999999736e-01,2.191100000000000079e-05
4.574980000000000047e+01,-5.411190000000000389e+00,-1.714229999999999964e-03
4.599929999999999808e+01,3.001139999999999919e-01,2.163160000000000140e-05
4.624980000000000047e+01,-5.317770000000000330e+00,-1.676160000000000106e-03
4.649929999999999808e+01,3.001059999999999839e-01,2.128629999999999981e-05
4.674980000000000047e+01,-5.224339999999999762e+00,-1.638219999999999911e-03
4.699929999999999808e+01,3.002759999999999874e-01,2.109710000000000169e-05
4.724980000000000047e+01,-5.130840000000000067e+00,-1.603990000000000016e-03
4.749929999999999808e+01,3.002110000000000056e-01,2.140450000000000149e-05
4.775030000000000285e+01,-5.038479999999999848e+00,-1.567550000000000020e-03
4.799929999999999808e+01,3.001329999999999831e-01,2.170390000000000069e-05
4.824980000000000047e+01,-4.945700000000000429e+00,-1.529369999999999948e-03
4.849929999999999808e+01,2.999959999999999849e-01,2.099399999999999923e-05
4.874980000000000047e+01,-4.852630000000000443e+00,-1.492810000000000014e-03
4.899929999999999808e+01,3.002389999999999781e-01,2.079479999999999952e-05
4.924980000000000047e+01,-4.758270000000000444e+00,-1.457890000000000097e-03
4.949929999999999808e+01,3.001090000000000146e-01,2.116620000000000074e-05
4.974980000000000047e+01,-4.665350000000000108e+00,-1.421329999999999946e-03
4.999929999999999808e+01,3.001820000000000044e-01,2.081499999999999976e-05
5.024980000000000047e+01,-4.572210000000000107e+00,-1.386309999999999973e-03
5.049929999999999808e+01,3.001329999999999831e-01,2.098510000000000005e-05
5.074980000000000047e+01,-4.478489999999999860e+00,-1.351470000000000015e-03
5.099929999999999808e+01,3.002059999999999729e-01,2.110999999999999948e-05
5.124980000000000047e+01,-4.384920000000000151e+00,-1.315729999999999981e-03
5.149929999999999808e+01,3.000039999999999929e-01,2.120020000000000075e-05
5.174980000000000047e+01,-4.292290000000000383e+00,-1.276900000000000084e-03
5.199929999999999808e+01,3.000929999999999986e-01,2.091900000000000080e-05
5.224980000000000047e+01,-4.198210000000000441e+00,-1.240949999999999996e-03
5.249929999999999808e+01,3.001329999999999831e-01,2.050190000000000102e-05
5.274980000000000047e+01,-4.106659999999999755e+00,-1.208869999999999910e-03
5.299929999999999808e+01,3.000439999999999774e-01,2.086770000000000012e-05
5.324980000000000047e+01,-4.012080000000000091e+00,-1.173929999999999895e-03
5.349929999999999808e+01,3.001010000000000066e-01,2.085459999999999850e-05
5.374980000000000047e+01,-3.919589999999999907e+00,-1.137149999999999966e-03
5.399929999999999808e+01,3.001659999999999884e-01,2.063709999999999931e-05
5.424980000000000047e+01,-3.824069999999999858e+00,-1.105679999999999944e-03
5.449929999999999808e+01,3.001090000000000146e-01,2.011499999999999969e-05
5.474980000000000047e+01,-3.733460000000000001e+00,-1.070409999999999938e-03
5.499929999999999808e+01,3.001659999999999884e-01,2.014259999999999922e-05
5.524980000000000047e+01,-3.639019999999999921e+00,-1.034779999999999901e-03
5.549929999999999808e+01,3.000769999999999826e-01,2.000069999999999978e-05
5.574929999999999808e+01,-3.547759999999999803e+00,-9.966269999999999296e-04
5.599929999999999808e+01,3.000039999999999929e-01,2.008239999999999936e-05
5.624929999999999808e+01,-3.452170000000000183e+00,-9.611720000000000463e-04
5.649929999999999808e+01,3.000439999999999774e-01,1.987519999999999904e-05
5.674929999999999808e+01,-3.360040000000000138e+00,-9.275660000000000025e-04
5.699929999999999808e+01,3.001090000000000146e-01,1.953170000000000139e-05
5.724929999999999808e+01,-3.266249999999999876e+00,-8.952019999999999986e-04
5.749929999999999808e+01,3.001900000000000124e-01,1.961060000000000160e-05
5.774929999999999808e+01,-3.173189999999999955e+00,-8.595840000000000425e-04
5.799929999999999808e+01,2.999229999999999952e-01,1.955999999999999907e-05
5.824929999999999808e+01,-3.078390000000000182e+00,-8.282460000000000386e-04
5.849929999999999808e+01,3.000519999999999854e-01,1.942630000000000067e-05
5.874929999999999808e+01,-2.986839999999999939e+00,-7.935820000000000330e-04
5.899929999999999808e+01,2.999789999999999957e-01,1.909059999999999981e-05
5.924929999999999808e+01,-2.892259999999999831e+00,-7.613700000000000372e-04
5.949929999999999808e+01,3.002549999999999941e-01,1.952990000000000083e-05
5.974929999999999808e+01,-2.798690000000000122e+00,-7.251789999999999495e-04
5.999929999999999808e+01,3.001249999999999751e-01,1.895510000000000085e-05
6.024929999999999808e+01,-2.705330000000000013e+00,-6.916620000000000060e-04
6.049929999999999808e+01,3.001980000000000204e-01,1.910650000000000079e-05
6.074929999999999808e+01,-2.612340000000000106e+00,-6.618130000000000280e-04
6.099929999999999808e+01,3.000039999999999929e-01,1.900819999999999870e-05
6.124929999999999808e+01,-2.518549999999999844e+00,-6.314219999999999729e-04
6.149929999999999808e+01,3.000280000000000169e-01,1.959290000000000006e-05
6.174929999999999808e+01,-2.426060000000000105e+00,-5.994229999999999697e-04
6.199929999999999808e+01,3.001739999999999964e-01,1.878929999999999983e-05
6.224929999999999808e+01,-2.333569999999999922e+00,-5.677549999999999741e-04
6.249929999999999808e+01,3.001249999999999751e-01,1.913059999999999942e-05
6.274929999999999808e+01,-2.238630000000000120e+00,-5.381329999999999924e-04
6.299929999999999808e+01,3.000360000000000249e-01,1.874010000000000037e-05
6.324929999999999808e+01,-2.146290000000000031e+00,-5.063770000000000207e-04
6.349929999999999808e+01,2.999879999999999769e-01,1.894839999999999971e-05
6.374980000000000047e+01,-2.051890000000000214e+00,-4.763179999999999888e-04
6.399929999999999808e+01,3.001079999999999859e-01,1.851429999999999992e-05
6.424930000000000518e+01,-1.959969999999999990e+00,-4.479010000000000066e-04
6.449930000000000518e+01,3.003109999999999946e-01,1.859810000000000071e-05
6.474930000000000518e+01,-1.866640000000000077e+00,-4.181750000000000137e-04
6.499930000000000518e+01,3.001980000000000204e-01,1.840930000000000008e-05
6.524930000000000518e+01,-1.773600000000000065e+00,-3.875090000000000197e-04
6.549930000000000518e+01,3.002139999999999809e-01,1.786420000000000084e-05
6.574930000000000518e+01,-1.680160000000000098e+00,-3.599370000000000065e-04
6.599930000000000518e+01,3.002540000000000209e-01,1.803110000000000089e-05
6.624930000000000518e+01,-1.586819999999999897e+00,-3.309079999999999834e-04
6.649930000000000518e+01,3.002139999999999809e-01,1.795119999999999848e-05
6.674930000000000518e+01,-1.493330000000000046e+00,-3.038100000000000067e-04
6.699930000000000518e+01,3.003350000000000186e-01,1.797380000000000061e-05
6.724930000000000518e+01,-1.400090000000000057e+00,-2.777699999999999917e-04
6.749930000000000518e+01,2.999870000000000037e-01,1.794620000000000107e-05
6.774930000000000518e+01,-1.306689999999999907e+00,-2.506650000000000132e-04
6.799930000000000518e+01,3.003029999999999866e-01,1.758260000000000001e-05
6.824930000000000518e+01,-1.213330000000000020e+00,-2.254489999999999890e-04
6.849930000000000518e+01,3.000349999999999961e-01,1.771529999999999961e-05
6.874930000000000518e+01,-1.120120000000000005e+00,-1.992320000000000061e-04
6.899930000000000518e+01,3.001570000000000071e-01,1.743340000000000151e-05
6.924930000000000518e+01,-1.026829999999999909e+00,-1.766410000000000050e-04
6.949930000000000518e+01,3.001730000000000231e-01,1.751119999999999931e-05
6.974930000000000518e+01,-9.333580000000000210e-01,-1.533100000000000077e-04
6.999930000000000518e+01,3.001329999999999831e-01,1.705770000000000102e-05
7.024930000000000518e+01,-8.400530000000000497e-01,-1.308240000000000065e-04
7.049930000000000518e+01,3.001809999999999756e-01,1.719640000000000022e-05
7.074930000000000518e+01,-7.466840000000000144e-01,-1.083959999999999969e-04
7.099930000000000518e+01,3.002710000000000101e-01,1.713660000000000123e-05
7.124880000000000280e+01,-6.533139999999999503e-01,-8.769770000000000571e-05
7.149880000000000280e+01,3.002619999999999734e-01,1.689289999999999881e-05
7.174880000000000280e+01,-5.599610000000000420e-01,-6.925870000000000149e-05
7.199880000000000280e+01,3.002139999999999809e-01,1.667709999999999996e-05
7.224880000000000280e+01,-4.667370000000000130e-01,-5.207710000000000323e-05
7.249880000000000280e+01,3.002380000000000049e-01,1.666860000000000165e-05
7.274880000000000280e+01,-3.731559999999999877e-01,-3.601149999999999902e-05
7.299880000000000280e+01,3.001570000000000071e-01,1.628520000000000122e-05
7.324880000000000280e+01,-2.798840000000000217e-01,-2.242979999999999995e-05
7.349880000000000280e+01,3.003759999999999764e-01,1.631600000000000099e-05
7.374880000000000280e+01,-1.866539999999999866e-01,-1.193600000000000058e-05
7.399880000000000280e+01,3.000760000000000094e-01,1.618399999999999955e-05
7.424949999999999761e+01,-9.339089999999999892e-02,-4.261659999999999953e-06
7.449930000000000518e+01,2.999060000000000059e-01,1.614760000000000105e-05
7.479420000000000357e+01,-2.882479999999999887e-05,-1.433369999999999983e-08
7.500060000000000571e+01,3.000110000000000277e-01,1.598419999999999851e-05
7.529420000000000357e+01,-5.223750000000000257e-05,-1.425640000000000052e-08
7.550060000000000571e+01,3.001170000000000226e-01,1.607370000000000164e-05
7.574949999999999761e+01,9.330919999999999492e-02,3.212930000000000170e-06
7.599930000000000518e+01,3.001809999999999756e-01,1.566410000000000136e-05
7.624949999999999761e+01,1.865640000000000076e-01,7.372819999999999656e-06
7.649930000000000518e+01,2.999459999999999904e-01,1.557920000000000154e-05
7.674880000000000280e+01,2.803780000000000161e-01,1.400689999999999967e-05
7.699880000000000280e+01,3.001489999999999991e-01,1.548859999999999940e-05
7.724880000000000280e+01,3.735600000000000032e-01,2.169109999999999973e-05
7.749880000000000280e+01,3.003520000000000079e-01,1.513239999999999932e-05
7.774880000000000280e+01,4.671310000000000184e-01,3.027759999999999959e-05
7.799880000000000280e+01,3.000599999999999934e-01,1.471359999999999919e-05
7.824880000000000280e+01,5.603529999999999900e-01,4.029709999999999743e-05
7.849880000000000280e+01,3.002949999999999786e-01,1.394530000000000013e-05
7.874880000000000280e+01,6.536969999999999725e-01,5.119659999999999700e-05
7.899880000000000280e+01,3.000920000000000254e-01,1.347170000000000012e-05
7.924880000000000280e+01,7.470569999999999711e-01,6.049800000000000251e-05
7.949880000000000280e+01,2.999950000000000117e-01,1.214670000000000010e-05
7.974880000000000280e+01,8.400729999999999587e-01,7.160290000000000524e-05
7.999880000000000280e+01,3.000950000000000006e-01,1.094599999999999989e-05
8.024880000000000280e+01,9.335320000000000285e-01,8.368550000000000370e-05
8.049949999999999761e+01,2.998520000000000074e-01,9.343469999999999160e-06
8.074930000000000518e+01,1.026690000000000103e+00,9.207330000000000494e-05
8.099949999999999761e+01,2.999169999999999892e-01,8.093889999999999852e-06
8.124930000000000518e+01,1.119869999999999921e+00,8.817259999999999670e-05
8.149949999999999761e+01,2.999809999999999977e-01,4.858770000000000408e-06
8.174930000000000518e+01,1.213359999999999994e+00,7.817959999999999938e-05
8.199949999999999761e+01,2.999249999999999972e-01,2.595329999999999934e-06
8.224930000000000518e+01,1.306619999999999893e+00,6.774050000000000644e-05
8.249949999999999761e+01,3.000380000000000269e-01,1.684399999999999916e-06
8.274930000000000518e+01,1.400060000000000082e+00,6.376160000000000291e-05
8.299949999999999761e+01,2.999330000000000052e-01,1.147809999999999900e-06
8.324930000000000518e+01,1.493300000000000072e+00,5.995229999999999857e-05
8.349949999999999761e+01,3.000140000000000029e-01,8.070729999999999637e-07
8.375000000000000000e+01,1.586780000000000079e+00,5.016080000000000262e-05
8.399949999999999761e+01,3.000709999999999766e-01,5.297299999999999663e-07
8.425000000000000000e+01,1.679959999999999898e+00,4.694320000000000144e-05
8.449949999999999761e+01,2.998190000000000022e-01,4.152989999999999920e-07
8.475000000000000000e+01,1.773549999999999960e+00,4.200899999999999708e-05
8.499949999999999761e+01,3.000059999999999949e-01,4.532589999999999958e-07
8.525000000000000000e+01,1.866619999999999946e+00,3.853879999999999768e-05
8.549949999999999761e+01,2.999809999999999977e-01,1.880430000000000117e-07
8.575000000000000000e+01,1.959980000000000055e+00,3.522929999999999828e-05
8.599949999999999761e+01,2.999809999999999977e-01,1.792860000000000081e-07
8.625000000000000000e+01,2.053090000000000082e+00,2.736110000000000134e-05
8.654420000000000357e+01,3.001110000000000166e-01,7.528419999999999858e-08
8.675060000000000571e+01,2.145360000000000156e+00,2.515270000000000060e-05
8.704420000000000357e+01,2.999979999999999869e-01,5.944760000000000221e-08
8.725109999999999388e+01,2.240219999999999878e+00,1.813189999999999897e-04
8.749949999999999761e+01,2.998759999999999759e-01,3.755420000000000206e-06
8.774979999999999336e+01,2.333359999999999879e+00,1.692859999999999916e-04
8.799949999999999761e+01,2.998029999999999862e-01,3.369079999999999937e-06
8.824979999999999336e+01,2.427639999999999798e+00,1.650909999999999953e-04
8.849949999999999761e+01,3.000539999999999874e-01,2.770569999999999801e-06
8.874979999999999336e+01,2.519839999999999858e+00,1.695230000000000098e-04
8.899949999999999761e+01,3.001030000000000086e-01,2.751689999999999992e-06
8.924979999999999336e+01,2.614129999999999843e+00,1.719919999999999891e-04
8.949949999999999761e+01,3.000789999999999846e-01,2.680969999999999846e-06
8.974979999999999336e+01,2.706980000000000164e+00,1.626459999999999874e-04
8.999949999999999761e+01,2.999169999999999892e-01,2.062300000000000143e-06
9.024979999999999336e+01,2.801270000000000149e+00,1.665050000000000059e-04
9.049949999999999761e+01,2.999809999999999977e-01,2.141719999999999884e-06
9.074979999999999336e+01,2.894620000000000193e+00,1.780829999999999956e-04
9.099949999999999761e+01,3.000539999999999874e-01,2.063250000000000109e-06
9.124979999999999336e+01,2.986169999999999991e+00,2.978559999999999888e-04
9.149949999999999761e+01,2.999729999999999897e-01,5.333700000000000280e-06
9.174979999999999336e+01,3.081179999999999808e+00,3.183150000000000042e-04
9.199949999999999761e+01,2.998839999999999839e-01,5.773339999999999683e-06
9.224979999999999336e+01,3.175679999999999836e+00,3.396830000000000205e-04
9.249949999999999761e+01,2.997870000000000257e-01,5.767730000000000257e-06
9.274979999999999336e+01,3.267739999999999867e+00,3.619249999999999746e-04
9.299949999999999761e+01,3.000709999999999766e-01,6.554360000000000042e-06
9.324979999999999336e+01,3.360370000000000079e+00,3.655999999999999962e-04
9.349949999999999761e+01,2.998270000000000102e-01,6.512780000000000010e-06
9.374979999999999336e+01,3.454660000000000064e+00,3.729679999999999974e-04
9.399949999999999761e+01,2.998109999999999942e-01,6.147710000000000301e-06
9.424979999999999336e+01,3.547359999999999847e+00,2.993270000000000024e-04
9.449949999999999761e+01,2.999490000000000212e-01,3.877880000000000046e-06
9.474979999999999336e+01,3.641000000000000014e+00,3.117390000000000048e-04
9.499949999999999761e+01,2.998759999999999759e-01,3.546609999999999913e-06
9.524979999999999336e+01,3.735500000000000043e+00,3.189690000000000017e-04
9.549949999999999761e+01,2.999809999999999977e-01,3.629410000000000204e-06
9.575029999999999575e+01,3.827659999999999840e+00,3.420979999999999898e-04
9.599949999999999761e+01,2.999910000000000077e-01,3.724590000000000028e-06
9.624979999999999336e+01,3.921510000000000051e+00,2.871700000000000034e-04
9.649949999999999761e+01,2.999510000000000232e-01,2.243669999999999814e-06
9.674979999999999336e+01,4.014210000000000278e+00,3.380160000000000109e-04
9.699949999999999761e+01,3.000479999999999814e-01,3.221479999999999860e-06
9.724979999999999336e+01,4.108279999999999710e+00,3.394630000000000260e-04
9.749949999999999761e+01,2.999350000000000072e-01,2.950789999999999915e-06
9.774979999999999336e+01,4.201340000000000074e+00,3.074479999999999878e-04
9.799949999999999761e+01,2.997400000000000064e-01,2.210529999999999823e-06
9.824979999999999336e+01,4.295770000000000088e+00,2.866850000000000106e-04
9.849949999999999761e+01,2.998779999999999779e-01,2.146220000000000010e-06
9.874979999999999336e+01,4.388469999999999871e+00,2.669770000000000021e-04
9.899949999999999761e+01,2.999430000000000152e-01,1.586789999999999930e-06
9.924979999999999336e+01,4.482750000000000234e+00,3.093719999999999782e-04
9.949949999999999761e+01,2.997639999999999749e-01,1.646489999999999969e-06
9.974979999999999336e+01,4.574869999999999770e+00,2.448169999999999838e-04
9.999949999999999761e+01,2.998210000000000042e-01,1.047160000000000067e-06
1.002500000000000000e+02,4.669159999999999755e+00,2.730140000000000258e-04
1.005010000000000048e+02,2.998700000000000254e-01,1.099830000000000022e-06
1.007500000000000000e+02,4.761059999999999626e+00,2.163710000000000058e-04
1.009989999999999952e+02,2.998939999999999939e-01,8.765759999999999740e-07
1.012500000000000000e+02,4.855780000000000207e+00,1.894540000000000059e-04
1.014989999999999952e+02,2.998939999999999939e-01,6.097210000000000107e-07
1.017500000000000000e+02,4.948260000000000325e+00,2.083769999999999871e-04
1.019989999999999952e+02,2.999269999999999992e-01,8.119569999999999960e-07
1.022500000000000000e+02,5.042180000000000106e+00,2.173619999999999968e-04
1.024989999999999952e+02,2.998540000000000094e-01,1.016199999999999901e-06
1.027500000000000000e+02,5.135460000000000136e+00,1.771979999999999931e-04
1.029989999999999952e+02,2.998620000000000174e-01,8.243850000000000065e-07
1.032500000000000000e+02,5.227579999999999671e+00,2.813690000000000093e-04
1.034989999999999952e+02,2.999749999999999917e-01,1.087540000000000009e-06
1.037500000000000000e+02,5.322300000000000253e+00,2.296490000000000098e-04
1.040010000000000048e+02,2.999910000000000077e-01,1.026709999999999907e-06
1.042500000000000000e+02,5.414710000000000356e+00,1.971750000000000087e-04
1.044989999999999952e+02,2.999269999999999992e-01,7.612899999999999566e-07
1.047500000000000000e+02,5.507049999999999557e+00,1.971429999999999927e-04
1.049989999999999952e+02,2.998859999999999859e-01,7.289080000000000310e-07
1.052500000000000000e+02,5.601689999999999614e+00,1.865430000000000061e-04
1.054989999999999952e+02,2.998290000000000122e-01,6.187000000000000013e-07
1.057500000000000000e+02,5.694609999999999950e+00,4.416889999999999922e-04
1.059989999999999952e+02,2.999589999999999756e-01,1.667509999999999981e-06
1.062500000000000000e+02,5.787810000000000343e+00,3.214019999999999833e-04
1.064989999999999952e+02,2.998449999999999727e-01,1.223810000000000104e-06
1.067500000000000000e+02,5.881870000000000154e+00,2.938090000000000189e-04
1.070010000000000048e+02,3.000399999999999734e-01,1.090629999999999966e-06
1.072500000000000000e+02,5.974429999999999907e+00,2.910149999999999911e-04
1.074989999999999952e+02,2.999350000000000072e-01,1.005429999999999918e-06
1.077500000000000000e+02,6.068500000000000227e+00,2.834909999999999730e-04
1.079989999999999952e+02,3.000970000000000026e-01,9.085689999999999614e-07
1.082500000000000000e+02,6.161340000000000039e+00,2.693959999999999801e-04
1.084989999999999952e+02,2.999180000000000179e-01,8.834670000000000322e-07
1.087500000000000000e+02,6.253459999999999575e+00,3.057119999999999760e-04
1.089989999999999952e+02,2.998129999999999962e-01,8.623149999999999762e-07
1.092500000000000000e+02,6.347889999999999588e+00,2.391150000000000035e-04
1.094989999999999952e+02,2.998700000000000254e-01,6.600789999999999909e-07
1.097500000000000000e+02,6.439580000000000304e+00,2.316619999999999921e-04
1.099989999999999952e+02,2.999180000000000179e-01,6.775239999999999992e-07
1.102500000000000000e+02,6.535230000000000317e+00,2.310430000000000036e-04
1.104989999999999952e+02,3.000149999999999761e-01,6.862839999999999797e-07
1.107500000000000000e+02,6.627720000000000056e+00,3.206810000000000151e-04
1.109989999999999952e+02,3.000070000000000237e-01,6.698800000000000136e-07
1.112500000000000000e+02,6.722500000000000142e+00,2.227660000000000013e-04
1.114989999999999952e+02,2.999269999999999992e-01,4.270799999999999835e-07
1.117510000000000048e+02,6.814119999999999955e+00,2.088620000000000071e-04
1.119989999999999952e+02,2.999229999999999952e-01,4.489020000000000051e-07
1.122500000000000000e+02,6.908839999999999648e+00,2.714269999999999747e-04
1.124989999999999952e+02,2.998819999999999819e-01,6.198419999999999728e-07
1.127500000000000000e+02,7.000600000000000378e+00,2.382349999999999984e-04
1.129989999999999952e+02,3.000599999999999934e-01,5.457340000000000082e-07
1.132500000000000000e+02,6.907680000000000042e+00,2.005040000000000034e-04
1.134989999999999952e+02,3.000519999999999854e-01,4.464820000000000139e-07
1.137500000000000000e+02,6.814619999999999678e+00,1.775120000000000040e-04
1.139989999999999952e+02,3.000360000000000249e-01,4.513250000000000262e-07
1.142500000000000000e+02,6.722199999999999953e+00,1.582200000000000132e-04
1.144989999999999952e+02,2.999149999999999872e-01,4.948249999999999592e-07
1.147500000000000000e+02,6.627699999999999925e+00,1.407889999999999966e-04
1.149989999999999952e+02,2.999709999999999877e-01,4.795019999999999747e-07
1.152500000000000000e+02,6.534139999999999837e+00,1.264740000000000092e-04
1.154989999999999952e+02,3.000280000000000169e-01,4.919510000000000355e-07
1.157500000000000000e+02,6.439849999999999852e+00,1.151730000000000033e-04
1.159989999999999952e+02,2.999149999999999872e-01,5.194520000000000115e-07
1.162500000000000000e+02,6.347870000000000346e+00,1.042289999999999943e-04
1.164989999999999952e+02,2.999709999999999877e-01,5.262659999999999559e-07
1.167500000000000000e+02,6.253860000000000419e+00,9.535280000000000632e-05
1.169989999999999952e+02,2.999629999999999797e-01,4.621810000000000012e-07
1.172500000000000000e+02,6.158570000000000100e+00,8.808429999999999960e-05
1.174989999999999952e+02,2.999310000000000032e-01,4.680600000000000236e-07
1.177500000000000000e+02,6.065940000000000332e+00,8.176100000000000544e-05
1.179989999999999952e+02,3.000849999999999906e-01,4.706569999999999773e-07
1.182500000000000000e+02,5.973449999999999704e+00,7.584050000000000004e-05
1.184989999999999952e+02,2.999950000000000117e-01,4.701739999999999855e-07
1.187500000000000000e+02,5.880819999999999936e+00,7.058899999999999788e-05
1.189989999999999952e+02,2.999629999999999797e-01,4.699629999999999844e-07
1.192500000000000000e+02,5.785529999999999617e+00,6.578849999999999531e-05
1.194989999999999952e+02,3.000039999999999929e-01,4.584119999999999891e-07
1.197500000000000000e+02,5.693690000000000140e+00,6.154440000000000659e-05
1.199989999999999952e+02,2.998819999999999819e-01,4.595980000000000104e-07
1.202500000000000000e+02,5.599400000000000155e+00,5.788849999999999980e-05
1.204989999999999952e+02,2.998899999999999899e-01,4.632500000000000222e-07
1.207500000000000000e+02,5.506120000000000125e+00,5.414040000000000090e-05
1.209989999999999952e+02,2.998979999999999979e-01,4.522450000000000107e-07
1.212500000000000000e+02,5.413199999999999790e+00,5.144600000000000177e-05
1.214989999999999952e+02,2.999149999999999872e-01,4.681540000000000243e-07
1.217500000000000000e+02,5.319560000000000066e+00,4.813570000000000061e-05
1.219989999999999952e+02,2.999060000000000059e-01,4.465550000000000173e-07
1.222500000000000000e+02,5.225060000000000038e+00,4.568999999999999792e-05
1.224989999999999952e+02,2.999229999999999952e-01,4.623259999999999803e-07
1.227500000000000000e+02,5.133799999999999919e+00,4.323150000000000105e-05
1.229989999999999952e+02,2.998739999999999739e-01,4.630790000000000136e-07
1.232500000000000000e+02,5.039290000000000269e+00,4.084350000000000290e-05
1.234989999999999952e+02,2.999550000000000272e-01,4.624210000000000086e-07
1.237500000000000000e+02,4.946810000000000151e+00,3.871930000000000044e-05
1.239989999999999952e+02,2.997850000000000237e-01,4.650470000000000217e-07
1.242500000000000000e+02,4.853379999999999583e+00,3.654239999999999762e-05
1.244989999999999952e+02,2.999550000000000272e-01,4.547150000000000056e-07
1.247500000000000000e+02,4.759310000000000151e+00,3.471609999999999784e-05
1.249989999999999952e+02,2.997440000000000104e-01,4.556789999999999870e-07
1.252500000000000000e+02,4.666680000000000383e+00,3.297860000000000304e-05
1.254989999999999952e+02,2.998899999999999899e-01,4.842530000000000416e-07
1.257500000000000000e+02,4.572320000000000384e+00,3.123359999999999857e-05
1.259989999999999952e+02,2.998500000000000054e-01,4.576619999999999856e-07
1.262500000000000000e+02,4.480920000000000236e+00,2.983419999999999974e-05
1.264989999999999952e+02,2.998819999999999819e-01,4.510009999999999765e-07
1.267500000000000000e+02,4.386560000000000237e+00,2.826719999999999933e-05
1.269989999999999952e+02,2.999390000000000112e-01,4.452999999999999971e-07
1.272500000000000000e+02,4.293210000000000193e+00,2.690389999999999833e-05
1.274989999999999952e+02,2.998739999999999739e-01,4.482799999999999881e-07
1.277500000000000000e+02,4.199639999999999596e+00,2.562519999999999989e-05
1.279989999999999952e+02,2.998739999999999739e-01,4.460850000000000137e-07
1.282500000000000000e+02,4.105929999999999858e+00,2.431570000000000167e-05
1.284989999999999952e+02,2.999950000000000117e-01,4.423379999999999736e-07
1.287500000000000000e+02,4.012430000000000163e+00,2.316489999999999907e-05
1.289989999999999952e+02,2.998660000000000214e-01,4.432580000000000110e-07
1.292500000000000000e+02,3.919160000000000199e+00,2.196220000000000125e-05
1.294989999999999952e+02,2.998170000000000002e-01,4.482239999999999775e-07
1.297500000000000000e+02,3.825730000000000075e+00,2.102789999999999903e-05
1.299989999999999952e+02,2.999789999999999957e-01,4.503890000000000237e-07
1.302500000000000000e+02,3.731730000000000214e+00,1.989809999999999843e-05
1.304989999999999952e+02,2.998899999999999899e-01,4.414860000000000134e-07
1.307500000000000000e+02,3.638090000000000046e+00,1.900310000000000107e-05
1.309989999999999952e+02,2.999550000000000272e-01,4.473070000000000230e-07
1.312500000000000000e+02,3.545679999999999943e+00,1.809679999999999926e-05
1.314989999999999952e+02,2.999229999999999952e-01,4.480749999999999938e-07
1.317500000000000000e+02,3.453050000000000175e+00,1.721030000000000021e-05
1.319989999999999952e+02,2.999870000000000037e-01,4.490319999999999937e-07
1.322500000000000000e+02,3.358690000000000175e+00,1.632769999999999954e-05
1.324989999999999952e+02,3.000039999999999929e-01,4.453390000000000149e-07
1.327500000000000000e+02,3.264909999999999979e+00,1.550879999999999964e-05
1.329989999999999952e+02,3.000200000000000089e-01,4.465030000000000113e-07
1.332500000000000000e+02,3.170619999999999994e+00,1.471500000000000057e-05
1.334989999999999952e+02,3.000280000000000169e-01,4.463509999999999977e-07
1.337500000000000000e+02,3.081519999999999815e+00,1.428840000000000028e-05
1.339989999999999952e+02,2.997279999999999944e-01,4.448880000000000064e-07
1.342500000000000000e+02,2.989180000000000170e+00,1.407789999999999950e-05
1.344989999999999952e+02,2.999870000000000037e-01,4.449320000000000033e-07
1.347500000000000000e+02,2.894460000000000033e+00,1.292790000000000035e-05
1.349989999999999952e+02,2.999229999999999952e-01,4.400780000000000050e-07
1.352500000000000000e+02,2.799020000000000064e+00,1.197070000000000043e-05
1.354989999999999952e+02,2.998819999999999819e-01,4.447390000000000227e-07
1.357500000000000000e+02,2.706960000000000033e+00,1.124269999999999995e-05
1.359989999999999952e+02,2.999229999999999952e-01,5.112569999999999570e-07
1.362500000000000000e+02,2.612890000000000157e+00,1.059920000000000010e-05
1.364989999999999952e+02,3.000039999999999929e-01,5.149819999999999722e-07
1.367500000000000000e+02,2.520840000000000192e+00,9.977579999999999430e-06
1.369989999999999952e+02,3.000200000000000089e-01,5.442040000000000204e-07
1.372500000000000000e+02,2.426839999999999886e+00,9.427230000000000540e-06
1.374989999999999952e+02,2.997690000000000077e-01,5.378849999999999755e-07
1.377500000000000000e+02,2.332910000000000039e+00,8.887089999999999305e-06
1.379989999999999952e+02,3.000439999999999774e-01,5.396309999999999965e-07
1.382500000000000000e+02,2.239339999999999886e+00,8.339500000000000369e-06
1.384989999999999952e+02,2.999950000000000117e-01,5.405549999999999855e-07
1.387500000000000000e+02,2.148080000000000211e+00,7.821959999999999560e-06
1.389989999999999952e+02,2.998979999999999979e-01,5.390340000000000343e-07
1.392489999999999952e+02,2.055299999999999905e+00,7.264510000000000349e-06
1.394989999999999952e+02,3.000120000000000009e-01,5.505419999999999544e-07
1.397500000000000000e+02,1.959999999999999964e+00,6.804810000000000329e-06
1.399989999999999952e+02,2.999709999999999877e-01,5.458530000000000108e-07
1.402500000000000000e+02,1.866719999999999935e+00,6.320739999999999727e-06
1.404989999999999952e+02,2.999390000000000112e-01,5.433380000000000442e-07
1.407500000000000000e+02,1.773500000000000076e+00,5.879740000000000053e-06
1.409989999999999952e+02,2.999550000000000272e-01,5.420110000000000483e-07
1.412500000000000000e+02,1.680120000000000058e+00,5.444129999999999662e-06
1.414989999999999952e+02,3.000680000000000014e-01,5.327189999999999939e-07
1.417489999999999952e+02,1.586719999999999908e+00,5.088329999999999612e-06
1.419989999999999952e+02,2.998819999999999819e-01,5.309830000000000372e-07
1.422500000000000000e+02,1.493430000000000035e+00,4.680840000000000402e-06
1.424989999999999952e+02,3.001090000000000146e-01,5.450879999999999639e-07
1.427500000000000000e+02,1.400120000000000031e+00,4.224710000000000248e-06
1.429989999999999952e+02,2.998500000000000054e-01,5.472819999999999636e-07
1.432500000000000000e+02,1.306769999999999987e+00,3.825440000000000088e-06
1.434989999999999952e+02,2.999870000000000037e-01,5.483160000000000244e-07
1.437500000000000000e+02,1.213379999999999903e+00,3.534680000000000097e-06
1.439989999999999952e+02,3.001249999999999751e-01,5.399599999999999726e-07
1.442500000000000000e+02,1.120230000000000059e+00,3.174880000000000170e-06
1.444989999999999952e+02,3.000680000000000014e-01,5.352159999999999931e-07
1.447500000000000000e+02,1.026780000000000026e+00,2.826249999999999834e-06
1.449989999999999952e+02,2.999709999999999877e-01,5.382799999999999734e-07
1.452500000000000000e+02,9.335480000000000445e-01,2.477619999999999921e-06
1.454989999999999952e+02,3.001010000000000066e-01,5.439770000000000012e-07
1.457500000000000000e+02,8.400520000000000209e-01,2.160540000000000155e-06
1.459989999999999952e+02,3.001010000000000066e-01,5.387890000000000476e-07
1.462489999999999952e+02,7.468479999999999563e-01,1.802999999999999932e-06
1.464989999999999952e+02,2.999789999999999957e-01,5.344740000000000517e-07
1.467489999999999952e+02,6.536349999999999660e-01,1.557790000000000081e-06
1.469989999999999952e+02,3.000120000000000009e-01,5.392180000000000312e-07
1.472489999999999952e+02,5.601310000000000455e-01,1.228880000000000083e-06
1.474989999999999952e+02,3.000200000000000089e-01,5.352419999999999696e-07
1.477489999999999952e+02,4.666680000000000272e-01,9.772599999999998980e-07
1.479989999999999952e+02,2.999060000000000059e-01,5.352419999999999696e-07
1.482489999999999952e+02,3.734629999999999894e-01,7.204779999999999483e-07
1.484989999999999952e+02,3.001409999999999911e-01,5.365370000000000351e-07
1.487489999999999952e+02,2.799510000000000054e-01,4.965960000000000350e-07
1.489989999999999952e+02,3.000360000000000249e-01,5.346009999999999575e-07
1.492489999999999952e+02,1.866230000000000111e-01,3.024759999999999882e-07
1.494989999999999952e+02,2.999629999999999797e-01,5.402479999999999815e-07
1.497489999999999952e+02,9.332089999999999830e-02,1.402949999999999999e-07
