# Wed Jun 28 20:08:05 2023
#  Frecuencia [Hz], Z [Ohm], Fase [deg]
2.000000000000000000e+01,2.105190000000000055e+03,3.951559999999999795e-02
2.193299999999999983e+01,2.105929999999999836e+03,4.066739999999999938e-02
2.405000000000000071e+01,2.105550000000000182e+03,3.167949999999999933e-02
2.637590000000000146e+01,2.105929999999999836e+03,2.642299999999999857e-02
2.892119999999999891e+01,2.105409999999999854e+03,2.676519999999999941e-02
3.171249999999999858e+01,2.106449999999999818e+03,2.501880000000000076e-02
3.478260000000000218e+01,2.107239999999999782e+03,2.772109999999999852e-02
3.814370000000000260e+01,2.106559999999999945e+03,2.369599999999999831e-02
4.182350000000000279e+01,2.106820000000000164e+03,1.437450000000000012e-02
4.586449999999999960e+01,2.108079999999999927e+03,5.776230000000000253e-03
5.029339999999999833e+01,2.106920000000000073e+03,1.152560000000000043e-02
5.514710000000000178e+01,2.108579999999999927e+03,8.683859999999999843e-03
6.048389999999999844e+01,2.107219999999999800e+03,3.119980000000000062e-03
6.632769999999999300e+01,2.107860000000000127e+03,-1.048520000000000051e-03
7.272729999999999961e+01,2.108079999999999927e+03,-1.177810000000000055e-03
7.976600000000000534e+01,2.107710000000000036e+03,-1.001810000000000027e-02
8.743810000000000571e+01,2.107219999999999800e+03,-1.165010000000000004e-02
9.587730000000000530e+01,2.108659999999999854e+03,-9.064950000000000438e-03
1.051520000000000010e+02,2.107860000000000127e+03,-2.136530000000000026e-02
1.153400000000000034e+02,2.104840000000000146e+03,-2.752999999999999892e-02
1.265289999999999964e+02,2.103389999999999873e+03,-5.762500000000000261e-02
1.386959999999999980e+02,2.105079999999999927e+03,-1.413720000000000081e-02
1.521299999999999955e+02,2.101059999999999945e+03,-4.470980000000000093e-02
1.667589999999999861e+02,2.103010000000000218e+03,-5.283970000000000333e-02
1.828149999999999977e+02,2.100519999999999982e+03,-5.955499999999999683e-02
2.006690000000000111e+02,2.100389999999999873e+03,-5.891609999999999903e-02
2.199410000000000025e+02,2.098429999999999836e+03,-8.321900000000000130e-02
2.413520000000000039e+02,2.107840000000000146e+03,-5.919220000000000037e-02
2.645500000000000114e+02,2.106559999999999945e+03,-7.074260000000000270e-02
2.901349999999999909e+02,2.105639999999999873e+03,-7.623430000000000484e-02
3.184710000000000036e+02,2.106829999999999927e+03,-8.605089999999999961e-02
3.329630000000000223e+02,2.106960000000000036e+03,-8.948799999999999810e-02
3.488369999999999891e+02,2.106900000000000091e+03,-1.019390000000000018e-01
3.654080000000000155e+02,2.105739999999999782e+03,-1.021480000000000027e-01
3.826530000000000200e+02,2.107369999999999891e+03,-1.069610000000000005e-01
4.005339999999999918e+02,2.106320000000000164e+03,-1.115860000000000046e-01
4.195799999999999841e+02,2.106829999999999927e+03,-1.128880000000000022e-01
4.398829999999999814e+02,2.103809999999999945e+03,-1.133620000000000044e-01
4.608290000000000077e+02,2.104250000000000000e+03,-1.303030000000000022e-01
4.823149999999999977e+02,2.103590000000000146e+03,-1.426959999999999895e-01
5.050509999999999877e+02,2.102880000000000109e+03,-1.481020000000000114e-01
5.281689999999999827e+02,2.103820000000000164e+03,-1.577870000000000106e-01
5.545289999999999964e+02,2.104960000000000036e+03,-1.647089999999999943e-01
5.802709999999999582e+02,2.100960000000000036e+03,-1.754419999999999868e-01
6.072870000000000346e+02,2.102789999999999964e+03,-1.826299999999999868e-01
6.355929999999999609e+02,2.101469999999999800e+03,-1.978179999999999938e-01
6.651879999999999882e+02,2.103639999999999873e+03,-2.077849999999999975e-01
6.976739999999999782e+02,2.101099999999999909e+03,-2.087519999999999931e-01
7.299270000000000209e+02,2.100389999999999873e+03,-2.219359999999999944e-01
7.653060000000000400e+02,2.097570000000000164e+03,-2.358580000000000121e-01
8.000000000000000000e+02,2.098179999999999836e+03,-2.510109999999999841e-01
8.403360000000000127e+02,2.096320000000000164e+03,-2.644219999999999904e-01
8.771929999999999836e+02,2.098900000000000091e+03,-2.615580000000000127e-01
9.202450000000000045e+02,2.096210000000000036e+03,-2.797740000000000227e-01
9.615380000000000109e+02,2.096349999999999909e+03,-2.909289999999999932e-01
1.006710000000000036e+03,2.092469999999999800e+03,-3.010579999999999923e-01
1.060069999999999936e+03,2.092469999999999800e+03,-3.174339999999999939e-01
1.107009999999999991e+03,2.107440000000000055e+03,-3.207510000000000083e-01
1.158299999999999955e+03,2.108210000000000036e+03,-3.400059999999999749e-01
1.214569999999999936e+03,2.107469999999999800e+03,-3.547529999999999850e-01
1.276599999999999909e+03,2.107130000000000109e+03,-3.703659999999999730e-01
1.327430000000000064e+03,2.107849999999999909e+03,-3.876160000000000161e-01
1.401869999999999891e+03,2.107610000000000127e+03,-4.080230000000000246e-01
1.456309999999999945e+03,2.106739999999999782e+03,-4.252989999999999826e-01
1.530609999999999900e+03,2.107239999999999782e+03,-4.457949999999999968e-01
1.595740000000000009e+03,2.107340000000000146e+03,-4.674470000000000014e-01
1.685390000000000100e+03,2.107679999999999836e+03,-4.952139999999999875e-01
1.764710000000000036e+03,2.108820000000000164e+03,-5.155840000000000423e-01
1.840490000000000009e+03,2.108309999999999945e+03,-5.393689999999999873e-01
1.935480000000000018e+03,2.106909999999999854e+03,-5.662549999999999528e-01
2.013420000000000073e+03,2.109510000000000218e+03,-5.941629999999999967e-01
2.127659999999999854e+03,2.107949999999999818e+03,-6.250539999999999985e-01
2.205880000000000109e+03,2.105210000000000036e+03,-6.503940000000000277e-01
2.307690000000000055e+03,2.105119999999999891e+03,-6.782280000000000530e-01
2.419349999999999909e+03,2.105280000000000200e+03,-7.164509999999999490e-01
2.542369999999999891e+03,2.105929999999999836e+03,-7.534849999999999604e-01
2.678570000000000164e+03,2.105230000000000018e+03,-7.905790000000000317e-01
2.803739999999999782e+03,2.106360000000000127e+03,-8.316649999999999876e-01
2.912619999999999891e+03,2.107159999999999854e+03,-8.631379999999999608e-01
3.061219999999999800e+03,2.104880000000000109e+03,-9.010880000000000001e-01
3.260869999999999891e+03,2.105179999999999836e+03,-9.580300000000000482e-01
3.409090000000000146e+03,2.106550000000000182e+03,-1.009460000000000024e+00
3.658539999999999964e+03,2.104030000000000200e+03,-1.079660000000000064e+00
3.846150000000000091e+03,2.105510000000000218e+03,-1.137150000000000105e+00
4.166670000000000073e+03,2.105730000000000018e+03,-1.222760000000000069e+00
4.411760000000000218e+03,2.102550000000000182e+03,-1.292980000000000018e+00
4.761899999999999636e+03,2.102219999999999800e+03,-1.391850000000000032e+00
5.172409999999999854e+03,2.103989999999999782e+03,-1.507230000000000070e+00
5.769229999999999563e+03,2.102849999999999909e+03,-1.674390000000000045e+00
6.250000000000000000e+03,2.102739999999999782e+03,-1.810470000000000024e+00
6.976739999999999782e+03,2.102860000000000127e+03,-2.013609999999999900e+00
7.317069999999999709e+03,2.101570000000000164e+03,-2.123240000000000016e+00
7.317069999999999709e+03,2.102110000000000127e+03,-2.120260000000000034e+00
7.500000000000000000e+03,2.103599999999999909e+03,-2.177709999999999813e+00
7.894739999999999782e+03,2.102530000000000200e+03,-2.286999999999999922e+00
8.108109999999999673e+03,2.103300000000000182e+03,-2.353460000000000107e+00
8.333329999999999927e+03,2.103210000000000036e+03,-2.417289999999999939e+00
8.333329999999999927e+03,2.103559999999999945e+03,-2.417199999999999793e+00
8.823530000000000655e+03,2.103010000000000218e+03,-2.555969999999999853e+00
9.090909999999999854e+03,2.103059999999999945e+03,-2.627089999999999925e+00
9.375000000000000000e+03,2.102650000000000091e+03,-2.717000000000000082e+00
9.375000000000000000e+03,2.103039999999999964e+03,-2.713779999999999859e+00
1.000000000000000000e+04,2.099260000000000218e+03,-2.888250000000000206e+00
1.000000000000000000e+04,2.098539999999999964e+03,-2.889359999999999928e+00
1.034479999999999927e+04,2.098019999999999982e+03,-2.989329999999999821e+00
1.111110000000000036e+04,2.098329999999999927e+03,-3.206069999999999975e+00
1.111110000000000036e+04,2.099079999999999927e+03,-3.208940000000000126e+00
1.200000000000000000e+04,2.097460000000000036e+03,-3.455299999999999816e+00
1.200000000000000000e+04,2.098659999999999854e+03,-3.459220000000000184e+00
1.250000000000000000e+04,2.098889999999999873e+03,-3.600169999999999870e+00
1.363639999999999964e+04,2.094750000000000000e+03,-3.914369999999999905e+00
1.428570000000000073e+04,2.094269999999999982e+03,-4.101810000000000400e+00
1.428570000000000073e+04,2.093619999999999891e+03,-4.094630000000000436e+00
1.500000000000000000e+04,2.091239999999999782e+03,-4.285800000000000054e+00
1.666670000000000073e+04,2.087400000000000091e+03,-4.747790000000000177e+00
1.764709999999999854e+04,2.088929999999999836e+03,-5.029239999999999711e+00
1.875000000000000000e+04,2.085269999999999982e+03,-5.326249999999999929e+00
1.875000000000000000e+04,2.084650000000000091e+03,-5.329110000000000014e+00
2.000000000000000000e+04,2.083719999999999800e+03,-5.682549999999999990e+00
2.307690000000000146e+04,2.080099999999999909e+03,-6.542889999999999873e+00
2.307690000000000146e+04,2.079980000000000018e+03,-6.536139999999999617e+00
2.500000000000000000e+04,2.074610000000000127e+03,-7.062490000000000379e+00
2.727270000000000073e+04,2.071760000000000218e+03,-7.680220000000000269e+00
2.727270000000000073e+04,2.070730000000000018e+03,-7.676040000000000418e+00
2.857140000000000146e+04,2.068980000000000018e+03,-8.034359999999999502e+00
3.000000000000000000e+04,2.066179999999999836e+03,-8.420349999999999113e+00
3.157890000000000146e+04,2.063030000000000200e+03,-8.845819999999999794e+00
3.333330000000000291e+04,2.057429999999999836e+03,-9.303720000000000212e+00
3.529409999999999854e+04,2.052650000000000091e+03,-9.825590000000000046e+00
3.750000000000000000e+04,2.047500000000000000e+03,-1.040740000000000087e+01
4.000000000000000000e+04,2.038000000000000000e+03,-1.103940000000000055e+01
4.285709999999999854e+04,2.030509999999999991e+03,-1.178200000000000003e+01
4.615380000000000291e+04,2.021710000000000036e+03,-1.263199999999999967e+01
5.000000000000000000e+04,2.006670000000000073e+03,-1.357770000000000010e+01
5.217390000000000146e+04,2.000309999999999945e+03,-1.412110000000000021e+01
5.714290000000000146e+04,1.983079999999999927e+03,-1.533440000000000047e+01
6.000000000000000000e+04,1.971630000000000109e+03,-1.600499999999999901e+01
6.000000000000000000e+04,1.971670000000000073e+03,-1.600280000000000058e+01
6.666669999999999709e+04,1.945230000000000018e+03,-1.753460000000000107e+01
7.058819999999999709e+04,1.931150000000000091e+03,-1.844269999999999854e+01
7.058819999999999709e+04,1.931289999999999964e+03,-1.844810000000000016e+01
7.500000000000000000e+04,1.911539999999999964e+03,-1.939450000000000074e+01
8.000000000000000000e+04,1.890140000000000100e+03,-2.045660000000000167e+01
9.230769999999999709e+04,1.835420000000000073e+03,-2.292279999999999873e+01
1.000000000000000000e+05,1.798920000000000073e+03,-2.433589999999999876e+01
1.000000000000000000e+05,1.800119999999999891e+03,-2.436789999999999878e+01
1.090910000000000000e+05,1.756549999999999955e+03,-2.591140000000000043e+01
1.142860000000000000e+05,1.732930000000000064e+03,-2.678409999999999869e+01
1.200000000000000000e+05,1.705079999999999927e+03,-2.765259999999999962e+01
1.200000000000000000e+05,1.705329999999999927e+03,-2.765330000000000155e+01
1.333330000000000000e+05,1.643720000000000027e+03,-2.958539999999999992e+01
1.333330000000000000e+05,1.643380000000000109e+03,-2.957550000000000168e+01
1.411760000000000000e+05,1.608920000000000073e+03,-3.064389999999999858e+01
1.500000000000000000e+05,1.569440000000000055e+03,-3.170970000000000155e+01
1.600000000000000000e+05,1.526309999999999945e+03,-3.282469999999999999e+01
1.846150000000000000e+05,1.425720000000000027e+03,-3.511580000000000013e+01
1.846150000000000000e+05,1.425759999999999991e+03,-3.511229999999999762e+01
2.000000000000000000e+05,1.368180000000000064e+03,-3.631909999999999883e+01
