# Wed Jun 28 16:00:46 2023
#  Frecuencia [Hz], Z [Ohm], Fase [deg]
2.000000000000000000e+01,5.523490000000000000e+06,-1.110479999999999912e+01
2.193299999999999983e+01,5.497390000000000000e+06,-1.147180000000000000e+01
2.405000000000000071e+01,5.595950000000000000e+06,-1.331390000000000029e+01
2.637590000000000146e+01,5.438450000000000000e+06,-1.407850000000000001e+01
2.892119999999999891e+01,5.680610000000000000e+06,-1.634850000000000136e+01
3.171249999999999858e+01,5.585510000000000000e+06,-1.768209999999999837e+01
3.478260000000000218e+01,5.210050000000000000e+06,-1.769259999999999877e+01
3.814370000000000260e+01,5.350980000000000000e+06,-1.964059999999999917e+01
4.182350000000000279e+01,5.313210000000000000e+06,-2.209019999999999939e+01
4.586449999999999960e+01,5.109470000000000000e+06,-2.245579999999999998e+01
5.029339999999999833e+01,4.941080000000000000e+06,-2.394819999999999993e+01
5.514710000000000178e+01,4.933150000000000000e+06,-2.639290000000000092e+01
6.048389999999999844e+01,4.779480000000000000e+06,-2.806319999999999837e+01
6.632769999999999300e+01,4.652960000000000000e+06,-3.081899999999999906e+01
7.272729999999999961e+01,4.636040000000000000e+06,-3.276680000000000348e+01
7.976600000000000534e+01,4.346310000000000000e+06,-3.555129999999999768e+01
8.743810000000000571e+01,4.190170000000000000e+06,-3.688400000000000034e+01
9.587730000000000530e+01,3.937880000000000000e+06,-3.875110000000000099e+01
1.051520000000000010e+02,3.898440000000000000e+06,-4.206640000000000157e+01
1.153400000000000034e+02,3.703020000000000000e+06,-4.347769999999999868e+01
1.265289999999999964e+02,3.591450000000000000e+06,-4.719819999999999993e+01
1.386959999999999980e+02,3.431590000000000000e+06,-5.028649999999999665e+01
1.521299999999999955e+02,3.252650000000000000e+06,-5.290930000000000177e+01
1.667589999999999861e+02,3.046010000000000000e+06,-5.443359999999999843e+01
1.828149999999999977e+02,2.844980000000000000e+06,-5.679429999999999978e+01
2.006690000000000111e+02,2.710890000000000000e+06,-5.931750000000000256e+01
2.199410000000000025e+02,2.538590000000000000e+06,-6.094299999999999784e+01
2.413520000000000039e+02,2.352460000000000000e+06,-6.355199999999999960e+01
2.645500000000000114e+02,2.163190000000000000e+06,-6.532810000000000628e+01
2.901349999999999909e+02,2.020480000000000000e+06,-6.712189999999999657e+01
3.184710000000000036e+02,1.864530000000000000e+06,-6.837529999999999575e+01
3.329630000000000223e+02,1.792270000000000000e+06,-6.924060000000000059e+01
3.488369999999999891e+02,1.712650000000000000e+06,-6.999049999999999727e+01
3.654080000000000155e+02,1.657150000000000000e+06,-7.112810000000000343e+01
3.826530000000000200e+02,1.576520000000000000e+06,-7.198709999999999809e+01
4.005339999999999918e+02,1.524180000000000000e+06,-7.185179999999999723e+01
4.195799999999999841e+02,1.452660000000000000e+06,-7.189180000000000348e+01
4.398829999999999814e+02,1.400050000000000000e+06,-7.293370000000000175e+01
4.608290000000000077e+02,1.338500000000000000e+06,-7.332869999999999777e+01
4.823149999999999977e+02,1.294910000000000000e+06,-7.492329999999999757e+01
5.050509999999999877e+02,1.237220000000000000e+06,-7.564170000000000016e+01
5.281689999999999827e+02,1.182280000000000000e+06,-7.541070000000000562e+01
5.545289999999999964e+02,1.132470000000000000e+06,-7.592940000000000111e+01
5.802709999999999582e+02,1.091740000000000000e+06,-7.589319999999999311e+01
6.072870000000000346e+02,1.039370000000000000e+06,-7.695399999999999352e+01
6.355929999999999609e+02,1.001170000000000000e+06,-7.727349999999999852e+01
6.651879999999999882e+02,9.572060000000000000e+05,-7.748180000000000689e+01
6.976739999999999782e+02,9.129970000000000000e+05,-7.794929999999999382e+01
7.299270000000000209e+02,8.818060000000000000e+05,-7.847830000000000439e+01
7.653060000000000400e+02,8.387010000000000000e+05,-7.920759999999999934e+01
8.000000000000000000e+02,7.985340000000000000e+05,-7.923189999999999600e+01
8.403360000000000127e+02,7.657890000000000000e+05,-7.995029999999999859e+01
8.771929999999999836e+02,7.356500000000000000e+05,-7.997700000000000387e+01
9.202450000000000045e+02,7.016870000000000000e+05,-8.059470000000000312e+01
9.615380000000000109e+02,6.723820000000000000e+05,-8.106130000000000280e+01
1.006710000000000036e+03,6.432880000000000000e+05,-8.149710000000000321e+01
1.060069999999999936e+03,6.123560000000000000e+05,-8.165439999999999543e+01
1.107009999999999991e+03,5.870900000000000000e+05,-8.233329999999999416e+01
1.158299999999999955e+03,5.612190000000000000e+05,-8.213930000000000575e+01
1.214569999999999936e+03,5.365820000000000000e+05,-8.253589999999999804e+01
1.276599999999999909e+03,5.124590000000000000e+05,-8.275809999999999889e+01
1.327430000000000064e+03,4.952720000000000000e+05,-8.271689999999999543e+01
1.401869999999999891e+03,4.683030000000000000e+05,-8.320149999999999579e+01
1.456309999999999945e+03,4.528690000000000000e+05,-8.330079999999999529e+01
1.530609999999999900e+03,4.293790000000000000e+05,-8.359650000000000603e+01
1.595740000000000009e+03,4.131270000000000000e+05,-8.408020000000000493e+01
1.685390000000000100e+03,3.907660000000000000e+05,-8.387699999999999534e+01
1.764710000000000036e+03,3.740140000000000000e+05,-8.404550000000000409e+01
1.840490000000000009e+03,3.588460000000000000e+05,-8.428000000000000114e+01
1.935480000000000018e+03,3.481780000000000000e+05,-8.479670000000000130e+01
2.013420000000000073e+03,3.297400000000000000e+05,-8.436509999999999820e+01
2.127659999999999854e+03,3.114540000000000000e+05,-8.458050000000000068e+01
2.205880000000000109e+03,3.013040000000000000e+05,-8.501300000000000523e+01
2.307690000000000055e+03,2.887600000000000000e+05,-8.473319999999999652e+01
2.419349999999999909e+03,2.749220000000000000e+05,-8.512500000000000000e+01
2.542369999999999891e+03,2.617350000000000000e+05,-8.534929999999999950e+01
2.678570000000000164e+03,2.488320000000000000e+05,-8.542210000000000036e+01
2.803739999999999782e+03,2.392660000000000000e+05,-8.557899999999999352e+01
2.912619999999999891e+03,2.293330000000000000e+05,-8.560099999999999909e+01
3.061219999999999800e+03,2.184340000000000000e+05,-8.579649999999999466e+01
3.260869999999999891e+03,2.054880000000000000e+05,-8.595019999999999527e+01
3.409090000000000146e+03,1.967440000000000000e+05,-8.593710000000000093e+01
3.658539999999999964e+03,1.837620000000000000e+05,-8.626919999999999789e+01
3.846150000000000091e+03,1.746090000000000000e+05,-8.631709999999999638e+01
4.166670000000000073e+03,1.609660000000000000e+05,-8.632909999999999684e+01
4.411760000000000218e+03,1.526960000000000000e+05,-8.642579999999999529e+01
4.761899999999999636e+03,1.416760000000000000e+05,-8.652519999999999811e+01
5.172409999999999854e+03,1.306080000000000000e+05,-8.666500000000000625e+01
5.769229999999999563e+03,1.178770000000000000e+05,-8.668609999999999616e+01
6.250000000000000000e+03,1.084320000000000000e+05,-8.678810000000000002e+01
6.976739999999999782e+03,9.742260000000000582e+04,-8.691790000000000305e+01
7.317069999999999709e+03,9.294210000000000582e+04,-8.696330000000000382e+01
7.317069999999999709e+03,9.292739999999999418e+04,-8.694039999999999679e+01
7.500000000000000000e+03,9.071700000000000000e+04,-8.689979999999999905e+01
7.894739999999999782e+03,8.629600000000000000e+04,-8.700209999999999866e+01
8.108109999999999673e+03,8.409450000000000000e+04,-8.701680000000000348e+01
8.333329999999999927e+03,8.180150000000000000e+04,-8.700509999999999877e+01
8.333329999999999927e+03,8.180489999999999418e+04,-8.707710000000000150e+01
8.823530000000000655e+03,7.735200000000000000e+04,-8.700209999999999866e+01
9.090909999999999854e+03,7.511330000000000291e+04,-8.706699999999999307e+01
9.375000000000000000e+03,7.291639999999999418e+04,-8.713590000000000657e+01
9.375000000000000000e+03,7.288060000000000582e+04,-8.706749999999999545e+01
1.000000000000000000e+04,6.841010000000000582e+04,-8.707460000000000377e+01
1.000000000000000000e+04,6.836180000000000291e+04,-8.708509999999999707e+01
1.034479999999999927e+04,6.615260000000000582e+04,-8.706579999999999586e+01
1.111110000000000036e+04,6.167569999999999709e+04,-8.710890000000000555e+01
1.111110000000000036e+04,6.168919999999999709e+04,-8.708289999999999509e+01
1.200000000000000000e+04,5.718040000000000146e+04,-8.710680000000000689e+01
1.200000000000000000e+04,5.720290000000000146e+04,-8.707880000000000109e+01
1.250000000000000000e+04,5.492409999999999854e+04,-8.710689999999999600e+01
1.363639999999999964e+04,5.040619999999999709e+04,-8.707479999999999620e+01
1.428570000000000073e+04,4.816919999999999709e+04,-8.706040000000000134e+01
1.428570000000000073e+04,4.815169999999999709e+04,-8.706199999999999761e+01
1.500000000000000000e+04,4.591630000000000291e+04,-8.701900000000000546e+01
1.666670000000000073e+04,4.139659999999999854e+04,-8.695950000000000557e+01
1.764709999999999854e+04,3.913250000000000000e+04,-8.691219999999999857e+01
1.875000000000000000e+04,3.686409999999999854e+04,-8.689929999999999666e+01
1.875000000000000000e+04,3.686309999999999854e+04,-8.686820000000000164e+01
2.000000000000000000e+04,3.460450000000000000e+04,-8.682250000000000512e+01
2.307690000000000146e+04,3.005000000000000000e+04,-8.667319999999999425e+01
2.307690000000000146e+04,3.005479999999999927e+04,-8.670390000000000441e+01
2.500000000000000000e+04,2.777270000000000073e+04,-8.660609999999999786e+01
2.727270000000000073e+04,2.547800000000000000e+04,-8.654210000000000491e+01
2.727270000000000073e+04,2.547940000000000146e+04,-8.653069999999999595e+01
2.857140000000000146e+04,2.433870000000000073e+04,-8.643500000000000227e+01
3.000000000000000000e+04,2.320350000000000000e+04,-8.634329999999999927e+01
3.157890000000000146e+04,2.206159999999999854e+04,-8.622960000000000491e+01
3.333330000000000291e+04,2.091920000000000073e+04,-8.614579999999999416e+01
3.529409999999999854e+04,1.977820000000000073e+04,-8.602150000000000318e+01
3.750000000000000000e+04,1.863679999999999927e+04,-8.588490000000000180e+01
4.000000000000000000e+04,1.749029999999999927e+04,-8.575010000000000332e+01
4.285709999999999854e+04,1.634829999999999927e+04,-8.555289999999999395e+01
4.615380000000000291e+04,1.520900000000000000e+04,-8.534489999999999554e+01
5.000000000000000000e+04,1.405260000000000036e+04,-8.517470000000000141e+01
5.217390000000000146e+04,1.346839999999999964e+04,-8.502009999999999934e+01
5.714290000000000146e+04,1.231510000000000036e+04,-8.470040000000000191e+01
6.000000000000000000e+04,1.174270000000000073e+04,-8.449989999999999668e+01
6.000000000000000000e+04,1.174210000000000036e+04,-8.450990000000000180e+01
6.666669999999999709e+04,1.059520000000000073e+04,-8.405870000000000175e+01
7.058819999999999709e+04,1.001729999999999927e+04,-8.380060000000000286e+01
7.058819999999999709e+04,1.001770000000000073e+04,-8.380150000000000432e+01
7.500000000000000000e+04,9.521209999999999127e+03,-8.354550000000000409e+01
8.000000000000000000e+04,8.951180000000000291e+03,-8.323239999999999839e+01
9.230769999999999709e+04,7.808590000000000146e+03,-8.245940000000000225e+01
1.000000000000000000e+05,7.236939999999999600e+03,-8.200610000000000355e+01
1.000000000000000000e+05,7.242239999999999782e+03,-8.200430000000000064e+01
1.090910000000000000e+05,6.669310000000000400e+03,-8.143380000000000507e+01
1.142860000000000000e+05,6.384880000000000109e+03,-8.111719999999999686e+01
1.200000000000000000e+05,6.101420000000000073e+03,-8.078350000000000364e+01
1.200000000000000000e+05,6.101170000000000073e+03,-8.077889999999999304e+01
1.333330000000000000e+05,5.536960000000000036e+03,-7.997580000000000666e+01
1.333330000000000000e+05,5.535789999999999964e+03,-7.997379999999999711e+01
1.411760000000000000e+05,5.255989999999999782e+03,-7.950300000000000011e+01
1.500000000000000000e+05,4.978189999999999600e+03,-7.899530000000000030e+01
1.600000000000000000e+05,4.702300000000000182e+03,-7.845720000000000027e+01
1.846150000000000000e+05,4.152909999999999854e+03,-7.719110000000000582e+01
1.846150000000000000e+05,4.152039999999999964e+03,-7.718330000000000268e+01
2.000000000000000000e+05,3.880019999999999982e+03,-7.646939999999999316e+01
