# Wed Jun 28 19:47:28 2023
#  Frecuencia [Hz], Z [Ohm], Fase [deg]
2.000000000000000000e+01,1.326050000000000000e+06,-5.339940000000000353e+00
2.193299999999999983e+01,1.310100000000000000e+06,-5.656970000000000276e+00
2.405000000000000071e+01,1.267660000000000000e+06,-6.169220000000000148e+00
2.637590000000000146e+01,1.267920000000000000e+06,-6.595519999999999605e+00
2.892119999999999891e+01,1.288430000000000000e+06,-7.318520000000000358e+00
3.171249999999999858e+01,1.297440000000000000e+06,-8.170400000000000773e+00
3.478260000000000218e+01,1.279790000000000000e+06,-8.825530000000000541e+00
3.814370000000000260e+01,1.285060000000000000e+06,-9.539199999999999235e+00
4.182350000000000279e+01,1.284330000000000000e+06,-1.059880000000000067e+01
4.586449999999999960e+01,1.272940000000000000e+06,-1.148879999999999946e+01
5.029339999999999833e+01,1.278730000000000000e+06,-1.241469999999999985e+01
5.514710000000000178e+01,1.281060000000000000e+06,-1.400210000000000043e+01
6.048389999999999844e+01,1.284590000000000000e+06,-1.524770000000000003e+01
6.632769999999999300e+01,1.261290000000000000e+06,-1.625349999999999895e+01
7.272729999999999961e+01,1.222060000000000000e+06,-1.759029999999999916e+01
7.976600000000000534e+01,1.214640000000000000e+06,-1.911319999999999908e+01
8.743810000000000571e+01,1.194830000000000000e+06,-2.060419999999999874e+01
9.587730000000000530e+01,1.174790000000000000e+06,-2.238749999999999929e+01
1.051520000000000010e+02,1.173280000000000000e+06,-2.446509999999999962e+01
1.153400000000000034e+02,1.147220000000000000e+06,-2.638639999999999830e+01
1.265289999999999964e+02,1.117040000000000000e+06,-2.817170000000000130e+01
1.386959999999999980e+02,1.104540000000000000e+06,-3.068720000000000070e+01
1.521299999999999955e+02,1.067900000000000000e+06,-3.292719999999999914e+01
1.667589999999999861e+02,1.049670000000000000e+06,-3.540619999999999834e+01
1.828149999999999977e+02,1.016540000000000000e+06,-3.819039999999999679e+01
2.006690000000000111e+02,9.647120000000000000e+05,-3.990829999999999700e+01
2.199410000000000025e+02,9.363200000000000000e+05,-4.299710000000000321e+01
2.413520000000000039e+02,8.930970000000000000e+05,-4.548660000000000281e+01
2.645500000000000114e+02,8.505490000000000000e+05,-4.792020000000000124e+01
2.901349999999999909e+02,8.028860000000000000e+05,-5.021620000000000061e+01
3.184710000000000036e+02,7.586030000000000000e+05,-5.272169999999999845e+01
3.329630000000000223e+02,7.366270000000000000e+05,-5.379010000000000247e+01
3.488369999999999891e+02,7.103460000000000000e+05,-5.439130000000000109e+01
3.654080000000000155e+02,6.883940000000000000e+05,-5.569330000000000069e+01
3.826530000000000200e+02,6.668600000000000000e+05,-5.683319999999999794e+01
4.005339999999999918e+02,6.502680000000000000e+05,-5.864209999999999923e+01
4.195799999999999841e+02,6.301320000000000000e+05,-6.005919999999999703e+01
4.398829999999999814e+02,6.082550000000000000e+05,-6.115390000000000015e+01
4.608290000000000077e+02,5.867280000000000000e+05,-6.220080000000000098e+01
4.823149999999999977e+02,5.673920000000000000e+05,-6.338550000000000040e+01
5.050509999999999877e+02,5.463400000000000000e+05,-6.428060000000000684e+01
5.281689999999999827e+02,5.276450000000000000e+05,-6.542470000000000141e+01
5.545289999999999964e+02,5.063700000000000000e+05,-6.633450000000000557e+01
5.802709999999999582e+02,4.871060000000000000e+05,-6.701819999999999311e+01
6.072870000000000346e+02,4.685890000000000000e+05,-6.784109999999999729e+01
6.355929999999999609e+02,4.509850000000000000e+05,-6.883209999999999695e+01
6.651879999999999882e+02,4.343330000000000000e+05,-6.983889999999999532e+01
6.976739999999999782e+02,4.163590000000000000e+05,-7.032630000000000337e+01
7.299270000000000209e+02,3.998840000000000000e+05,-7.116299999999999670e+01
7.653060000000000400e+02,3.809610000000000000e+05,-7.108069999999999311e+01
8.000000000000000000e+02,3.666390000000000000e+05,-7.198659999999999570e+01
8.403360000000000127e+02,3.508510000000000000e+05,-7.259499999999999886e+01
8.771929999999999836e+02,3.376300000000000000e+05,-7.335200000000000387e+01
9.202450000000000045e+02,3.231870000000000000e+05,-7.401770000000000493e+01
9.615380000000000109e+02,3.100950000000000000e+05,-7.450480000000000302e+01
1.006710000000000036e+03,2.975500000000000000e+05,-7.536719999999999686e+01
1.060069999999999936e+03,2.832640000000000000e+05,-7.546339999999999293e+01
1.107009999999999991e+03,2.729300000000000000e+05,-7.667919999999999447e+01
1.158299999999999955e+03,2.615810000000000000e+05,-7.722289999999999566e+01
1.214569999999999936e+03,2.500090000000000000e+05,-7.764260000000000161e+01
1.276599999999999909e+03,2.384810000000000000e+05,-7.816200000000000614e+01
1.327430000000000064e+03,2.298750000000000000e+05,-7.859879999999999711e+01
1.401869999999999891e+03,2.181980000000000000e+05,-7.899830000000000041e+01
1.456309999999999945e+03,2.104210000000000000e+05,-7.917619999999999436e+01
1.530609999999999900e+03,2.005700000000000000e+05,-7.970220000000000482e+01
1.595740000000000009e+03,1.928410000000000000e+05,-8.003690000000000282e+01
1.685390000000000100e+03,1.827920000000000000e+05,-8.039679999999999893e+01
1.764710000000000036e+03,1.748910000000000000e+05,-8.072549999999999670e+01
1.840490000000000009e+03,1.679340000000000000e+05,-8.107649999999999579e+01
1.935480000000000018e+03,1.601940000000000000e+05,-8.135219999999999629e+01
2.013420000000000073e+03,1.540230000000000000e+05,-8.166249999999999432e+01
2.127659999999999854e+03,1.459430000000000000e+05,-8.196299999999999386e+01
2.205880000000000109e+03,1.409860000000000000e+05,-8.232869999999999777e+01
2.307690000000000055e+03,1.349530000000000000e+05,-8.255859999999999843e+01
2.419349999999999909e+03,1.289200000000000000e+05,-8.288439999999999941e+01
2.542369999999999891e+03,1.228100000000000000e+05,-8.318019999999999925e+01
2.678570000000000164e+03,1.166450000000000000e+05,-8.325879999999999370e+01
2.803739999999999782e+03,1.116150000000000000e+05,-8.355039999999999623e+01
2.912619999999999891e+03,1.075820000000000000e+05,-8.369079999999999586e+01
3.061219999999999800e+03,1.024620000000000000e+05,-8.392839999999999634e+01
3.260869999999999891e+03,9.629869999999999709e+04,-8.406000000000000227e+01
3.409090000000000146e+03,9.229230000000000291e+04,-8.436419999999999675e+01
3.658539999999999964e+03,8.609050000000000000e+04,-8.455649999999999977e+01
3.846150000000000091e+03,8.197839999999999418e+04,-8.478660000000000707e+01
4.166670000000000073e+03,7.582819999999999709e+04,-8.494129999999999825e+01
4.411760000000000218e+03,7.166319999999999709e+04,-8.512009999999999366e+01
4.761899999999999636e+03,6.650500000000000000e+04,-8.531699999999999307e+01
5.172409999999999854e+03,6.130350000000000000e+04,-8.557370000000000232e+01
5.769229999999999563e+03,5.506880000000000291e+04,-8.573279999999999745e+01
6.250000000000000000e+03,5.091240000000000146e+04,-8.588339999999999463e+01
6.976739999999999782e+03,4.569580000000000291e+04,-8.606000000000000227e+01
7.317069999999999709e+03,4.360459999999999854e+04,-8.612590000000000146e+01
7.317069999999999709e+03,4.360809999999999854e+04,-8.611129999999999995e+01
7.500000000000000000e+03,4.255790000000000146e+04,-8.611790000000000589e+01
7.894739999999999782e+03,4.046859999999999854e+04,-8.622220000000000084e+01
8.108109999999999673e+03,3.941959999999999854e+04,-8.622150000000000603e+01
8.333329999999999927e+03,3.837030000000000291e+04,-8.624710000000000321e+01
8.333329999999999927e+03,3.836759999999999854e+04,-8.628079999999999927e+01
8.823530000000000655e+03,3.627369999999999709e+04,-8.633249999999999602e+01
9.090909999999999854e+03,3.522809999999999854e+04,-8.635410000000000252e+01
9.375000000000000000e+03,3.417100000000000000e+04,-8.634350000000000591e+01
9.375000000000000000e+03,3.417409999999999854e+04,-8.636660000000000537e+01
1.000000000000000000e+04,3.209390000000000146e+04,-8.638450000000000273e+01
1.000000000000000000e+04,3.208140000000000146e+04,-8.638049999999999784e+01
1.034479999999999927e+04,3.102259999999999854e+04,-8.641179999999999950e+01
1.111110000000000036e+04,2.891450000000000000e+04,-8.644400000000000261e+01
1.111110000000000036e+04,2.891220000000000073e+04,-8.643970000000000198e+01
1.200000000000000000e+04,2.680370000000000073e+04,-8.645189999999999486e+01
1.200000000000000000e+04,2.680259999999999854e+04,-8.646269999999999811e+01
1.250000000000000000e+04,2.575690000000000146e+04,-8.645780000000000598e+01
1.363639999999999964e+04,2.363390000000000146e+04,-8.645810000000000173e+01
1.428570000000000073e+04,2.257520000000000073e+04,-8.644719999999999516e+01
1.428570000000000073e+04,2.257509999999999854e+04,-8.645869999999999322e+01
1.500000000000000000e+04,2.151409999999999854e+04,-8.641030000000000655e+01
1.666670000000000073e+04,1.939370000000000073e+04,-8.635179999999999723e+01
1.764709999999999854e+04,1.833370000000000073e+04,-8.632869999999999777e+01
1.875000000000000000e+04,1.726940000000000146e+04,-8.629640000000000555e+01
1.875000000000000000e+04,1.727050000000000000e+04,-8.630039999999999623e+01
2.000000000000000000e+04,1.620560000000000036e+04,-8.625209999999999866e+01
2.307690000000000146e+04,1.407560000000000036e+04,-8.606100000000000705e+01
2.307690000000000146e+04,1.407610000000000036e+04,-8.606250000000000000e+01
2.500000000000000000e+04,1.300860000000000036e+04,-8.592680000000000007e+01
2.727270000000000073e+04,1.193329999999999927e+04,-8.581359999999999388e+01
2.727270000000000073e+04,1.193320000000000073e+04,-8.582290000000000418e+01
2.857140000000000146e+04,1.140079999999999927e+04,-8.571059999999999945e+01
3.000000000000000000e+04,1.086620000000000073e+04,-8.560769999999999413e+01
3.157890000000000146e+04,1.033260000000000036e+04,-8.549819999999999709e+01
3.333330000000000291e+04,9.797559999999999491e+03,-8.537099999999999511e+01
3.529409999999999854e+04,9.277639999999999418e+03,-8.522729999999999961e+01
3.750000000000000000e+04,8.741540000000000873e+03,-8.505809999999999604e+01
4.000000000000000000e+04,8.205659999999999854e+03,-8.486579999999999302e+01
4.285709999999999854e+04,7.669359999999999673e+03,-8.464390000000000214e+01
4.615380000000000291e+04,7.131640000000000327e+03,-8.437860000000000582e+01
5.000000000000000000e+04,6.593939999999999600e+03,-8.405599999999999739e+01
5.217390000000000146e+04,6.325859999999999673e+03,-8.388160000000000593e+01
5.714290000000000146e+04,5.787859999999999673e+03,-8.348560000000000514e+01
6.000000000000000000e+04,5.519109999999999673e+03,-8.325169999999999959e+01
6.000000000000000000e+04,5.519250000000000000e+03,-8.325369999999999493e+01
6.666669999999999709e+04,4.981060000000000400e+03,-8.270369999999999777e+01
7.058819999999999709e+04,4.711560000000000400e+03,-8.238519999999999754e+01
7.058819999999999709e+04,4.711729999999999563e+03,-8.238120000000000687e+01
7.500000000000000000e+04,4.442229999999999563e+03,-8.201860000000000639e+01
8.000000000000000000e+04,4.173239999999999782e+03,-8.160880000000000223e+01
9.230769999999999709e+04,3.635289999999999964e+03,-8.059080000000000155e+01
1.000000000000000000e+05,3.366610000000000127e+03,-7.995709999999999695e+01
1.000000000000000000e+05,3.366460000000000036e+03,-7.995650000000000546e+01
1.090910000000000000e+05,3.097909999999999854e+03,-7.921609999999999729e+01
1.142860000000000000e+05,2.963400000000000091e+03,-7.880450000000000443e+01
1.200000000000000000e+05,2.829409999999999854e+03,-7.834010000000000673e+01
1.200000000000000000e+05,2.829349999999999909e+03,-7.834619999999999607e+01
1.333330000000000000e+05,2.561920000000000073e+03,-7.727609999999999957e+01
1.333330000000000000e+05,2.561900000000000091e+03,-7.727639999999999532e+01
1.411760000000000000e+05,2.428590000000000146e+03,-7.665550000000000352e+01
1.500000000000000000e+05,2.295320000000000164e+03,-7.595659999999999457e+01
1.600000000000000000e+05,2.162630000000000109e+03,-7.517529999999999291e+01
1.846150000000000000e+05,1.898069999999999936e+03,-7.330209999999999582e+01
1.846150000000000000e+05,1.897960000000000036e+03,-7.330010000000000048e+01
2.000000000000000000e+05,1.766329999999999927e+03,-7.216419999999999391e+01
