# Wed Jun 28 17:10:52 2023
#  Frecuencia [Hz], Z [Ohm], Fase [deg]
2.000000000000000000e+01,1.279580000000000000e+07,-8.563160000000000593e+01
2.193299999999999983e+01,1.050120000000000000e+07,-8.849349999999999739e+01
2.405000000000000071e+01,9.821180000000000000e+06,-8.704749999999999943e+01
2.637590000000000146e+01,8.723200000000000000e+06,-8.704850000000000421e+01
2.892119999999999891e+01,7.662710000000000000e+06,-8.539390000000000214e+01
3.171249999999999858e+01,6.938750000000000000e+06,-8.650950000000000273e+01
3.478260000000000218e+01,6.524180000000000000e+06,-8.549779999999999802e+01
3.814370000000000260e+01,6.029140000000000000e+06,-9.093439999999999657e+01
4.182350000000000279e+01,5.152820000000000000e+06,-8.660009999999999764e+01
4.586449999999999960e+01,4.918590000000000000e+06,-8.463259999999999650e+01
5.029339999999999833e+01,4.412390000000000000e+06,-9.099200000000000443e+01
5.514710000000000178e+01,4.262490000000000000e+06,-8.601869999999999550e+01
6.048389999999999844e+01,3.922220000000000000e+06,-8.902949999999999875e+01
6.632769999999999300e+01,3.773930000000000000e+06,-8.947709999999999297e+01
7.272729999999999961e+01,3.238820000000000000e+06,-8.355070000000000618e+01
7.976600000000000534e+01,3.003270000000000000e+06,-8.518240000000000123e+01
8.743810000000000571e+01,2.704040000000000000e+06,-8.504959999999999809e+01
9.587730000000000530e+01,2.632060000000000000e+06,-8.609170000000000300e+01
1.051520000000000010e+02,2.266210000000000000e+06,-8.239050000000000296e+01
1.153400000000000034e+02,2.097290000000000000e+06,-8.197910000000000252e+01
1.265289999999999964e+02,1.915350000000000000e+06,-8.340959999999999752e+01
1.386959999999999980e+02,1.803110000000000000e+06,-8.364860000000000184e+01
1.521299999999999955e+02,1.658920000000000000e+06,-8.242950000000000443e+01
1.667589999999999861e+02,1.485890000000000000e+06,-8.292489999999999384e+01
1.828149999999999977e+02,1.358470000000000000e+06,-8.200199999999999534e+01
2.006690000000000111e+02,1.260710000000000000e+06,-8.207429999999999382e+01
2.199410000000000025e+02,1.151570000000000000e+06,-8.215689999999999316e+01
2.413520000000000039e+02,1.068690000000000000e+06,-8.135169999999999391e+01
2.645500000000000114e+02,9.881960000000000000e+05,-8.186209999999999809e+01
2.901349999999999909e+02,9.064540000000000000e+05,-8.133259999999999934e+01
3.184710000000000036e+02,8.352730000000000000e+05,-8.067659999999999343e+01
3.329630000000000223e+02,8.035430000000000000e+05,-8.064690000000000225e+01
3.488369999999999891e+02,7.688660000000000000e+05,-8.061320000000000618e+01
3.654080000000000155e+02,7.397030000000000000e+05,-8.022780000000000200e+01
3.826530000000000200e+02,7.118850000000000000e+05,-8.002609999999999957e+01
4.005339999999999918e+02,6.862650000000000000e+05,-8.037220000000000653e+01
4.195799999999999841e+02,6.575350000000000000e+05,-8.034569999999999368e+01
4.398829999999999814e+02,6.337250000000000000e+05,-8.021939999999999316e+01
4.608290000000000077e+02,6.071770000000000000e+05,-7.997599999999999909e+01
4.823149999999999977e+02,5.841550000000000000e+05,-8.017199999999999704e+01
5.050509999999999877e+02,5.611100000000000000e+05,-8.010540000000000305e+01
5.281689999999999827e+02,5.398570000000000000e+05,-7.995709999999999695e+01
5.545289999999999964e+02,5.163320000000000000e+05,-8.012659999999999627e+01
5.802709999999999582e+02,4.973060000000000000e+05,-8.011499999999999488e+01
6.072870000000000346e+02,4.764290000000000000e+05,-8.003029999999999688e+01
6.355929999999999609e+02,4.598900000000000000e+05,-8.000260000000000105e+01
6.651879999999999882e+02,4.412830000000000000e+05,-7.983780000000000143e+01
6.976739999999999782e+02,4.246970000000000000e+05,-7.966100000000000136e+01
7.299270000000000209e+02,4.065640000000000000e+05,-7.997750000000000625e+01
7.653060000000000400e+02,3.907320000000000000e+05,-8.019360000000000355e+01
8.000000000000000000e+02,3.756010000000000000e+05,-8.005670000000000641e+01
8.403360000000000127e+02,3.606320000000000000e+05,-8.022419999999999618e+01
8.771929999999999836e+02,3.467560000000000000e+05,-8.014459999999999695e+01
9.202450000000000045e+02,3.311900000000000000e+05,-8.009189999999999543e+01
9.615380000000000109e+02,3.198900000000000000e+05,-8.022239999999999327e+01
1.006710000000000036e+03,3.064060000000000000e+05,-8.012959999999999638e+01
1.060069999999999936e+03,2.928330000000000000e+05,-8.036310000000000286e+01
1.107009999999999991e+03,2.807790000000000000e+05,-8.031839999999999691e+01
1.158299999999999955e+03,2.702670000000000000e+05,-8.038479999999999848e+01
1.214569999999999936e+03,2.591110000000000000e+05,-8.043089999999999407e+01
1.276599999999999909e+03,2.472230000000000000e+05,-8.045780000000000598e+01
1.327430000000000064e+03,2.393560000000000000e+05,-8.049840000000000373e+01
1.401869999999999891e+03,2.277180000000000000e+05,-8.057720000000000482e+01
1.456309999999999945e+03,2.200460000000000000e+05,-8.063870000000000005e+01
1.530609999999999900e+03,2.105440000000000000e+05,-8.067100000000000648e+01
1.595740000000000009e+03,2.026160000000000000e+05,-8.066240000000000521e+01
1.685390000000000100e+03,1.924380000000000000e+05,-8.074320000000000164e+01
1.764710000000000036e+03,1.845340000000000000e+05,-8.063639999999999475e+01
1.840490000000000009e+03,1.776250000000000000e+05,-8.065800000000000125e+01
1.935480000000000018e+03,1.699010000000000000e+05,-8.008769999999999811e+01
2.013420000000000073e+03,1.635350000000000000e+05,-8.070340000000000202e+01
2.127659999999999854e+03,1.554450000000000000e+05,-8.068989999999999441e+01
2.205880000000000109e+03,1.504660000000000000e+05,-8.077339999999999520e+01
2.307690000000000055e+03,1.437220000000000000e+05,-8.049339999999999407e+01
2.419349999999999909e+03,1.379590000000000000e+05,-8.068500000000000227e+01
2.542369999999999891e+03,1.318270000000000000e+05,-8.056109999999999616e+01
2.678570000000000164e+03,1.256330000000000000e+05,-8.054840000000000089e+01
2.803739999999999782e+03,1.203350000000000000e+05,-8.031059999999999377e+01
2.912619999999999891e+03,1.160320000000000000e+05,-8.042109999999999559e+01
3.061219999999999800e+03,1.107190000000000000e+05,-8.029489999999999839e+01
3.260869999999999891e+03,1.044250000000000000e+05,-8.031119999999999948e+01
3.409090000000000146e+03,1.002490000000000000e+05,-8.022329999999999472e+01
3.658539999999999964e+03,9.388250000000000000e+04,-8.006170000000000186e+01
3.846150000000000091e+03,8.966430000000000291e+04,-7.967279999999999518e+01
4.166670000000000073e+03,1.197490000000000000e+05,-4.341980000000000217e+01
4.411760000000000218e+03,8.275380000000000291e+04,-7.106659999999999400e+01
4.761899999999999636e+03,7.463360000000000582e+04,-7.528470000000000084e+01
5.172409999999999854e+03,6.893869999999999709e+04,-7.542210000000000036e+01
5.769229999999999563e+03,6.180230000000000291e+04,-7.653889999999999816e+01
6.250000000000000000e+03,5.731209999999999854e+04,-7.612160000000000082e+01
6.976739999999999782e+03,5.161059999999999854e+04,-7.632410000000000139e+01
7.317069999999999709e+03,4.946359999999999854e+04,-7.574160000000000537e+01
7.317069999999999709e+03,4.948350000000000000e+04,-7.553810000000000002e+01
7.500000000000000000e+03,4.820900000000000000e+04,-7.619079999999999586e+01
7.894739999999999782e+03,4.589050000000000000e+04,-7.608230000000000359e+01
8.108109999999999673e+03,4.477600000000000000e+04,-7.597920000000000584e+01
8.333329999999999927e+03,4.364630000000000291e+04,-7.573560000000000514e+01
8.333329999999999927e+03,4.365169999999999709e+04,-7.575400000000000489e+01
8.823530000000000655e+03,4.145140000000000146e+04,-7.517419999999999902e+01
9.090909999999999854e+03,4.073669999999999709e+04,-7.312760000000000105e+01
9.375000000000000000e+03,3.944709999999999854e+04,-7.374099999999999966e+01
9.375000000000000000e+03,3.927709999999999854e+04,-7.438070000000000448e+01
1.000000000000000000e+04,3.695200000000000000e+04,-7.365200000000000102e+01
1.000000000000000000e+04,3.751150000000000000e+04,-7.230769999999999698e+01
1.034479999999999927e+04,1.218330000000000000e+05,-2.757539999999999836e+01
1.111110000000000036e+04,1.064490000000000000e+05,-2.872749999999999915e+01
1.111110000000000036e+04,1.019650000000000000e+05,-2.846819999999999951e+01
1.200000000000000000e+04,8.958050000000000000e+04,-2.874279999999999902e+01
1.200000000000000000e+04,1.039890000000000000e+05,-2.775359999999999872e+01
1.250000000000000000e+04,1.115880000000000000e+05,-2.737280000000000157e+01
1.363639999999999964e+04,2.838200000000000000e+04,-6.905389999999999873e+01
1.428570000000000073e+04,2.699420000000000073e+04,-6.979649999999999466e+01
1.428570000000000073e+04,2.700520000000000073e+04,-6.974020000000000152e+01
1.500000000000000000e+04,2.594329999999999927e+04,-6.880880000000000507e+01
1.666670000000000073e+04,2.416209999999999854e+04,-6.526519999999999300e+01
1.764709999999999854e+04,1.130240000000000000e+05,-2.935539999999999949e+01
1.875000000000000000e+04,2.220079999999999927e+04,-6.243849999999999767e+01
1.875000000000000000e+04,2.291070000000000073e+04,-5.931560000000000343e+01
2.000000000000000000e+04,6.913860000000000582e+04,-2.711459999999999937e+01
2.307690000000000146e+04,6.125269999999999709e+04,-2.776589999999999847e+01
2.307690000000000146e+04,1.914109999999999854e+04,-5.822630000000000194e+01
2.500000000000000000e+04,6.484809999999999854e+04,-2.766199999999999903e+01
2.727270000000000073e+04,2.228150000000000000e+05,-9.516740000000000066e+01
2.727270000000000073e+04,2.233120000000000000e+05,-9.505610000000000070e+01
2.857140000000000146e+04,2.124740000000000000e+05,-9.528060000000000684e+01
3.000000000000000000e+04,2.023360000000000000e+05,-9.589470000000000027e+01
3.157890000000000146e+04,1.922220000000000000e+05,-9.647190000000000509e+01
3.333330000000000291e+04,1.820910000000000000e+05,-9.661079999999999757e+01
3.529409999999999854e+04,1.722110000000000000e+05,-9.713960000000000150e+01
3.750000000000000000e+04,1.615060000000000000e+05,-9.788939999999999486e+01
4.000000000000000000e+04,1.513000000000000000e+05,-9.858159999999999457e+01
4.285709999999999854e+04,1.407390000000000000e+05,-9.937359999999999616e+01
4.615380000000000291e+04,1.303730000000000000e+05,-1.003340000000000032e+02
5.000000000000000000e+04,1.205530000000000000e+05,-1.011940000000000026e+02
5.217390000000000146e+04,1.147320000000000000e+05,-1.020720000000000027e+02
5.714290000000000146e+04,1.040370000000000000e+05,-1.032770000000000010e+02
6.000000000000000000e+04,9.875789999999999418e+04,-1.039879999999999995e+02
6.000000000000000000e+04,9.862910000000000582e+04,-1.040969999999999942e+02
6.666669999999999709e+04,8.800550000000000000e+04,-1.056470000000000056e+02
7.058819999999999709e+04,8.235110000000000582e+04,-1.066490000000000009e+02
7.058819999999999709e+04,8.237789999999999418e+04,-1.066620000000000061e+02
7.500000000000000000e+04,7.690130000000000291e+04,-1.078059999999999974e+02
8.000000000000000000e+04,7.132710000000000582e+04,-1.089489999999999981e+02
9.230769999999999709e+04,6.009650000000000000e+04,-1.116760000000000019e+02
1.000000000000000000e+05,5.435419999999999709e+04,-1.134489999999999981e+02
1.000000000000000000e+05,5.435740000000000146e+04,-1.134069999999999965e+02
1.090910000000000000e+05,4.871269999999999709e+04,-1.151970000000000027e+02
1.142860000000000000e+05,4.572419999999999709e+04,-1.161119999999999948e+02
1.200000000000000000e+05,4.279480000000000291e+04,-1.171059999999999945e+02
1.200000000000000000e+05,4.279240000000000146e+04,-1.170769999999999982e+02
1.333330000000000000e+05,3.715240000000000146e+04,-1.192090000000000032e+02
1.333330000000000000e+05,3.712850000000000000e+04,-1.192879999999999967e+02
1.411760000000000000e+05,3.432630000000000291e+04,-1.204939999999999998e+02
1.500000000000000000e+05,3.145640000000000146e+04,-1.217120000000000033e+02
1.600000000000000000e+05,2.864279999999999927e+04,-1.233080000000000069e+02
1.846150000000000000e+05,2.295779999999999927e+04,-1.264740000000000038e+02
1.846150000000000000e+05,2.297479999999999927e+04,-1.263629999999999995e+02
2.000000000000000000e+05,2.005270000000000073e+04,-1.281990000000000123e+02
