# Wed Jun 28 17:17:51 2023
#  Frecuencia [Hz], Z [Ohm], Fase [deg]
2.000000000000000000e+01,1.209350000000000000e+07,-8.220080000000000098e+01
2.193299999999999983e+01,1.122190000000000000e+07,-8.026340000000000430e+01
2.405000000000000071e+01,9.526330000000000000e+06,-8.458419999999999561e+01
2.637590000000000146e+01,8.883410000000000000e+06,-8.431499999999999773e+01
2.892119999999999891e+01,8.033710000000000000e+06,-8.291270000000000095e+01
3.171249999999999858e+01,7.452160000000000000e+06,-8.469719999999999516e+01
3.478260000000000218e+01,6.563410000000000000e+06,-8.360349999999999682e+01
3.814370000000000260e+01,6.733160000000000000e+06,-8.122390000000000043e+01
4.182350000000000279e+01,6.143440000000000000e+06,-8.518569999999999709e+01
4.586449999999999960e+01,5.342970000000000000e+06,-8.744559999999999889e+01
5.029339999999999833e+01,5.194480000000000000e+06,-8.570820000000000505e+01
5.514710000000000178e+01,4.272880000000000000e+06,-8.524720000000000653e+01
6.048389999999999844e+01,3.908980000000000000e+06,-8.253900000000000148e+01
6.632769999999999300e+01,3.430480000000000000e+06,-8.099699999999999989e+01
7.272729999999999961e+01,3.253450000000000000e+06,-8.686260000000000048e+01
7.976600000000000534e+01,2.966900000000000000e+06,-8.518489999999999895e+01
8.743810000000000571e+01,2.772020000000000000e+06,-8.485200000000000387e+01
9.587730000000000530e+01,2.398110000000000000e+06,-8.356289999999999907e+01
1.051520000000000010e+02,2.246730000000000000e+06,-8.416509999999999536e+01
1.153400000000000034e+02,2.096920000000000000e+06,-8.415139999999999532e+01
1.265289999999999964e+02,1.885970000000000000e+06,-8.460389999999999588e+01
1.386959999999999980e+02,1.728010000000000000e+06,-8.405610000000000070e+01
1.521299999999999955e+02,1.563850000000000000e+06,-8.332370000000000232e+01
1.667589999999999861e+02,1.452580000000000000e+06,-8.287439999999999429e+01
1.828149999999999977e+02,1.331700000000000000e+06,-8.265999999999999659e+01
2.006690000000000111e+02,1.226240000000000000e+06,-8.334610000000000696e+01
2.199410000000000025e+02,1.124070000000000000e+06,-8.289390000000000214e+01
2.413520000000000039e+02,1.023200000000000000e+06,-8.279579999999999984e+01
2.645500000000000114e+02,9.484940000000000000e+05,-8.256829999999999359e+01
2.901349999999999909e+02,8.702070000000000000e+05,-8.140489999999999782e+01
3.184710000000000036e+02,8.019330000000000000e+05,-8.205459999999999354e+01
3.329630000000000223e+02,7.703200000000000000e+05,-8.129370000000000118e+01
3.488369999999999891e+02,7.396390000000000000e+05,-8.123170000000000357e+01
3.654080000000000155e+02,6.905880000000000000e+05,-8.223810000000000286e+01
3.826530000000000200e+02,6.753730000000000000e+05,-8.078919999999999391e+01
4.005339999999999918e+02,6.488320000000000000e+05,-8.037019999999999698e+01
4.195799999999999841e+02,6.279860000000000000e+05,-8.063750000000000284e+01
4.398829999999999814e+02,6.034890000000000000e+05,-8.072280000000000655e+01
4.608290000000000077e+02,5.765870000000000000e+05,-8.025419999999999732e+01
4.823149999999999977e+02,5.551220000000000000e+05,-8.002970000000000539e+01
5.050509999999999877e+02,5.329760000000000000e+05,-7.998189999999999600e+01
5.281689999999999827e+02,5.143500000000000000e+05,-7.997830000000000439e+01
5.545289999999999964e+02,4.928280000000000000e+05,-7.984550000000000125e+01
5.802709999999999582e+02,4.737700000000000000e+05,-7.978350000000000364e+01
6.072870000000000346e+02,4.559930000000000000e+05,-7.946129999999999427e+01
6.355929999999999609e+02,4.379020000000000000e+05,-7.956560000000000343e+01
6.651879999999999882e+02,4.213010000000000000e+05,-7.938030000000000541e+01
6.976739999999999782e+02,4.051910000000000000e+05,-7.966389999999999816e+01
7.299270000000000209e+02,3.873240000000000000e+05,-7.920399999999999352e+01
7.653060000000000400e+02,3.727140000000000000e+05,-7.924030000000000484e+01
8.000000000000000000e+02,3.582500000000000000e+05,-7.924939999999999429e+01
8.403360000000000127e+02,3.442500000000000000e+05,-7.931879999999999598e+01
8.771929999999999836e+02,3.309750000000000000e+05,-7.910259999999999536e+01
9.202450000000000045e+02,3.183180000000000000e+05,-7.910890000000000555e+01
9.615380000000000109e+02,3.056910000000000000e+05,-7.905039999999999623e+01
1.006710000000000036e+03,2.941820000000000000e+05,-7.906749999999999545e+01
1.060069999999999936e+03,2.816800000000000000e+05,-7.910739999999999839e+01
1.107009999999999991e+03,2.711980000000000000e+05,-7.909650000000000603e+01
1.158299999999999955e+03,2.535130000000000000e+05,-7.857940000000000680e+01
1.214569999999999936e+03,2.436110000000000000e+05,-7.856289999999999907e+01
1.276599999999999909e+03,2.340570000000000000e+05,-7.859269999999999357e+01
1.327430000000000064e+03,2.255550000000000000e+05,-7.850369999999999493e+01
1.401869999999999891e+03,2.154110000000000000e+05,-7.834850000000000136e+01
1.456309999999999945e+03,2.082280000000000000e+05,-7.841639999999999588e+01
1.530609999999999900e+03,1.996210000000000000e+05,-7.849960000000000093e+01
1.595740000000000009e+03,1.927970000000000000e+05,-7.848579999999999757e+01
1.685390000000000100e+03,1.836000000000000000e+05,-7.845900000000000318e+01
1.764710000000000036e+03,1.762890000000000000e+05,-7.843680000000000518e+01
1.840490000000000009e+03,1.700850000000000000e+05,-7.847480000000000189e+01
1.935480000000000018e+03,1.632810000000000000e+05,-7.859229999999999450e+01
2.013420000000000073e+03,1.568770000000000000e+05,-7.838620000000000232e+01
2.127659999999999854e+03,1.501390000000000000e+05,-7.852630000000000621e+01
2.205880000000000109e+03,1.451700000000000000e+05,-7.838089999999999691e+01
2.307690000000000055e+03,1.397350000000000000e+05,-7.854540000000000077e+01
2.419349999999999909e+03,1.340380000000000000e+05,-7.853799999999999670e+01
2.542369999999999891e+03,1.279730000000000000e+05,-7.843000000000000682e+01
2.678570000000000164e+03,1.220570000000000000e+05,-7.837170000000000414e+01
2.803739999999999782e+03,1.175570000000000000e+05,-7.875159999999999627e+01
2.912619999999999891e+03,1.133600000000000000e+05,-7.836830000000000496e+01
3.061219999999999800e+03,1.083700000000000000e+05,-7.835500000000000398e+01
3.260869999999999891e+03,1.021480000000000000e+05,-7.823369999999999891e+01
3.409090000000000146e+03,9.825780000000000291e+04,-7.829930000000000234e+01
3.658539999999999964e+03,9.214089999999999418e+04,-7.814600000000000080e+01
3.846150000000000091e+03,8.804389999999999418e+04,-7.806870000000000687e+01
4.166670000000000073e+03,8.199289999999999418e+04,-7.803209999999999980e+01
4.411760000000000218e+03,7.772360000000000582e+04,-7.780169999999999675e+01
4.761899999999999636e+03,7.254230000000000291e+04,-7.767390000000000327e+01
5.172409999999999854e+03,6.718839999999999418e+04,-7.741750000000000398e+01
5.769229999999999563e+03,6.082409999999999854e+04,-7.697610000000000241e+01
6.250000000000000000e+03,5.650500000000000000e+04,-7.663620000000000232e+01
6.976739999999999782e+03,5.114219999999999709e+04,-7.614660000000000650e+01
7.317069999999999709e+03,4.895659999999999854e+04,-7.583559999999999945e+01
7.317069999999999709e+03,4.890590000000000146e+04,-7.579330000000000211e+01
7.500000000000000000e+03,4.780159999999999854e+04,-7.564780000000000371e+01
7.894739999999999782e+03,4.565419999999999709e+04,-7.537239999999999895e+01
8.108109999999999673e+03,4.454050000000000000e+04,-7.518770000000000664e+01
8.333329999999999927e+03,4.346540000000000146e+04,-7.499410000000000309e+01
8.333329999999999927e+03,4.348409999999999854e+04,-7.501779999999999404e+01
8.823530000000000655e+03,4.124840000000000146e+04,-7.459350000000000591e+01
9.090909999999999854e+03,4.015700000000000000e+04,-7.433610000000000184e+01
9.375000000000000000e+03,3.905359999999999854e+04,-7.410989999999999611e+01
9.375000000000000000e+03,3.905569999999999709e+04,-7.407070000000000221e+01
1.000000000000000000e+04,3.694700000000000000e+04,-7.346959999999999980e+01
1.000000000000000000e+04,3.672100000000000000e+04,-7.352899999999999636e+01
1.034479999999999927e+04,3.575419999999999709e+04,-7.326470000000000482e+01
1.111110000000000036e+04,3.353390000000000146e+04,-7.255570000000000164e+01
1.111110000000000036e+04,3.353059999999999854e+04,-7.262130000000000507e+01
1.200000000000000000e+04,3.131309999999999854e+04,-7.178180000000000405e+01
1.200000000000000000e+04,3.131029999999999927e+04,-7.181730000000000302e+01
1.250000000000000000e+04,3.020350000000000000e+04,-7.138349999999999795e+01
1.363639999999999964e+04,2.800040000000000146e+04,-7.034090000000000487e+01
1.428570000000000073e+04,2.689500000000000000e+04,-6.978539999999999566e+01
1.428570000000000073e+04,2.689379999999999927e+04,-6.975889999999999702e+01
1.500000000000000000e+04,2.579790000000000146e+04,-6.911879999999999313e+01
1.666670000000000073e+04,2.359570000000000073e+04,-6.767799999999999727e+01
1.764709999999999854e+04,2.249879999999999927e+04,-6.684380000000000166e+01
1.875000000000000000e+04,2.141150000000000000e+04,-6.587420000000000186e+01
1.875000000000000000e+04,2.141420000000000073e+04,-6.586599999999999966e+01
2.000000000000000000e+04,2.033090000000000146e+04,-6.483320000000000505e+01
2.307690000000000146e+04,1.819590000000000146e+04,-6.229970000000000141e+01
2.307690000000000146e+04,1.819700000000000000e+04,-6.230879999999999797e+01
2.500000000000000000e+04,1.714459999999999854e+04,-6.082739999999999725e+01
2.727270000000000073e+04,1.610739999999999964e+04,-5.913530000000000086e+01
2.727270000000000073e+04,1.610879999999999927e+04,-5.910909999999999798e+01
2.857140000000000146e+04,1.559610000000000036e+04,-5.818149999999999977e+01
3.000000000000000000e+04,1.508760000000000036e+04,-5.720709999999999695e+01
3.157890000000000146e+04,1.458989999999999964e+04,-5.614959999999999951e+01
3.333330000000000291e+04,1.410489999999999964e+04,-5.500039999999999907e+01
3.529409999999999854e+04,1.361560000000000036e+04,-5.376570000000000249e+01
3.750000000000000000e+04,1.314179999999999927e+04,-5.246329999999999671e+01
4.000000000000000000e+04,1.267820000000000073e+04,-5.106389999999999674e+01
4.285709999999999854e+04,1.222510000000000036e+04,-4.956550000000000011e+01
4.615380000000000291e+04,1.178789999999999964e+04,-4.796860000000000213e+01
5.000000000000000000e+04,1.136210000000000036e+04,-4.630599999999999739e+01
5.217390000000000146e+04,1.115860000000000036e+04,-4.540769999999999840e+01
5.714290000000000146e+04,1.076479999999999927e+04,-4.358259999999999934e+01
6.000000000000000000e+04,1.057300000000000000e+04,-4.263700000000000045e+01
6.000000000000000000e+04,1.057100000000000000e+04,-4.265290000000000248e+01
6.666669999999999709e+04,1.021689999999999964e+04,-4.071900000000000119e+01
7.058819999999999709e+04,1.004410000000000036e+04,-3.975719999999999743e+01
7.058819999999999709e+04,1.004639999999999964e+04,-3.975269999999999726e+01
7.500000000000000000e+04,9.880889999999999418e+03,-3.879270000000000351e+01
8.000000000000000000e+04,9.732540000000000873e+03,-3.784309999999999974e+01
9.230769999999999709e+04,9.587290000000000873e+03,-3.612230000000000274e+01
1.000000000000000000e+05,9.484959999999999127e+03,-3.541009999999999991e+01
1.000000000000000000e+05,9.490209999999999127e+03,-3.539130000000000109e+01
1.090910000000000000e+05,9.410159999999999854e+03,-3.482180000000000319e+01
1.142860000000000000e+05,9.379280000000000655e+03,-3.462960000000000349e+01
1.200000000000000000e+05,9.357909999999999854e+03,-3.445109999999999673e+01
1.200000000000000000e+05,9.357290000000000873e+03,-3.446029999999999660e+01
1.333330000000000000e+05,9.330959999999999127e+03,-3.448259999999999792e+01
1.333330000000000000e+05,9.332030000000000655e+03,-3.445819999999999794e+01
1.411760000000000000e+05,9.341620000000000800e+03,-3.461410000000000053e+01
1.500000000000000000e+05,9.357909999999999854e+03,-3.491470000000000340e+01
1.600000000000000000e+05,9.416469999999999345e+03,-3.544819999999999993e+01
1.846150000000000000e+05,9.553100000000000364e+03,-3.764939999999999998e+01
1.846150000000000000e+05,9.561879999999999200e+03,-3.765160000000000196e+01
2.000000000000000000e+05,9.668790000000000873e+03,-3.951500000000000057e+01
