# Wed Jun 28 17:36:43 2023
#  Frecuencia [Hz], Z [Ohm], Fase [deg]
2.000000000000000000e+01,1.022310000000000000e+08,-9.071129999999999427e+01
2.193299999999999983e+01,1.117990000000000000e+08,-8.580500000000000682e+01
2.405000000000000071e+01,2.108980000000000000e+08,-8.523770000000000380e+01
2.637590000000000146e+01,2.109470000000000000e+08,-8.624209999999999354e+01
2.892119999999999891e+01,3.309020000000000000e+08,-2.495050000000000168e+01
3.171249999999999858e+01,1.170530000000000000e+08,-9.661660000000000537e+01
3.478260000000000218e+01,1.104160000000000000e+08,-2.259600000000000009e+01
3.814370000000000260e+01,8.722610000000000000e+07,-1.030240000000000045e+00
4.182350000000000279e+01,5.276240000000000000e+07,-5.732999999999999829e+01
4.586449999999999960e+01,5.364870000000000000e+07,-6.867839999999999634e+01
5.029339999999999833e+01,3.902110000000000000e+07,-4.460119999999999862e+01
5.514710000000000178e+01,1.019000000000000000e+08,-6.864700000000000557e+01
6.048389999999999844e+01,7.256320000000000000e+07,-8.729359999999999786e+01
6.632769999999999300e+01,4.755920000000000000e+07,-1.515140000000000100e+02
7.272729999999999961e+01,3.386090000000000000e+07,-6.470250000000000057e+01
7.976600000000000534e+01,6.472270000000000000e+07,-8.152719999999999345e+01
8.743810000000000571e+01,7.268840000000000000e+07,-1.045019999999999953e+02
9.587730000000000530e+01,5.034680000000000000e+07,-1.268329999999999984e+02
1.051520000000000010e+02,3.607100000000000000e+07,-6.451109999999999900e+01
1.153400000000000034e+02,5.137710000000000000e+07,-8.065139999999999532e+01
1.265289999999999964e+02,5.957090000000000000e+07,-1.081359999999999957e+02
1.386959999999999980e+02,3.003270000000000000e+07,-9.198550000000000182e+01
1.521299999999999955e+02,4.201790000000000000e+07,-8.450920000000000698e+01
1.667589999999999861e+02,2.951980000000000000e+07,-6.904130000000000678e+01
1.828149999999999977e+02,3.221400000000000000e+07,-1.060160000000000053e+02
2.006690000000000111e+02,2.526490000000000000e+07,-8.866400000000000148e+01
2.199410000000000025e+02,2.486760000000000000e+07,-8.016299999999999670e+01
2.413520000000000039e+02,2.178000000000000000e+07,-9.107869999999999777e+01
2.645500000000000114e+02,2.067000000000000000e+07,-8.301349999999999341e+01
2.901349999999999909e+02,1.866120000000000000e+07,-8.054240000000000066e+01
3.184710000000000036e+02,1.697350000000000000e+07,-8.244849999999999568e+01
3.329630000000000223e+02,1.635290000000000000e+07,-8.481579999999999586e+01
3.488369999999999891e+02,1.480680000000000000e+07,-8.234109999999999729e+01
3.654080000000000155e+02,1.444980000000000000e+07,-9.209489999999999554e+01
3.826530000000000200e+02,1.414610000000000000e+07,-8.765959999999999752e+01
4.005339999999999918e+02,1.500970000000000000e+07,-8.804009999999999536e+01
4.195799999999999841e+02,1.224500000000000000e+07,-8.277100000000000080e+01
4.398829999999999814e+02,1.192430000000000000e+07,-8.728759999999999764e+01
4.608290000000000077e+02,1.182150000000000000e+07,-8.919769999999999754e+01
4.823149999999999977e+02,1.088680000000000000e+07,-8.484170000000000300e+01
5.050509999999999877e+02,1.062460000000000000e+07,-8.826340000000000430e+01
5.281689999999999827e+02,1.037300000000000000e+07,-8.624360000000000070e+01
5.545289999999999964e+02,9.537560000000000000e+06,-8.796880000000000166e+01
5.802709999999999582e+02,9.277370000000000000e+06,-8.753239999999999554e+01
6.072870000000000346e+02,8.635750000000000000e+06,-8.733939999999999770e+01
6.355929999999999609e+02,8.525420000000000000e+06,-8.653459999999999752e+01
6.651879999999999882e+02,8.012100000000000000e+06,-8.427200000000000557e+01
6.976739999999999782e+02,7.303340000000000000e+06,-8.539799999999999613e+01
7.299270000000000209e+02,7.389300000000000000e+06,-8.680589999999999407e+01
7.653060000000000400e+02,6.966120000000000000e+06,-8.679819999999999425e+01
8.000000000000000000e+02,6.902470000000000000e+06,-8.489400000000000546e+01
8.403360000000000127e+02,6.452350000000000000e+06,-8.713169999999999504e+01
8.771929999999999836e+02,6.152060000000000000e+06,-8.562600000000000477e+01
9.202450000000000045e+02,5.910200000000000000e+06,-8.699110000000000298e+01
9.615380000000000109e+02,5.765290000000000000e+06,-8.571020000000000039e+01
1.006710000000000036e+03,5.474030000000000000e+06,-8.637090000000000600e+01
1.060069999999999936e+03,5.229120000000000000e+06,-8.690240000000000009e+01
1.107009999999999991e+03,5.003720000000000000e+06,-8.632659999999999911e+01
1.158299999999999955e+03,4.717200000000000000e+06,-8.785320000000000107e+01
1.214569999999999936e+03,4.486470000000000000e+06,-8.707519999999999527e+01
1.276599999999999909e+03,4.393320000000000000e+06,-8.596790000000000020e+01
1.327430000000000064e+03,4.216090000000000000e+06,-8.717719999999999914e+01
1.401869999999999891e+03,4.039660000000000000e+06,-8.707229999999999848e+01
1.456309999999999945e+03,3.828680000000000000e+06,-8.708100000000000307e+01
1.530609999999999900e+03,3.659940000000000000e+06,-8.678799999999999670e+01
1.595740000000000009e+03,3.539440000000000000e+06,-8.653149999999999409e+01
1.685390000000000100e+03,3.336390000000000000e+06,-8.732970000000000255e+01
1.764710000000000036e+03,3.141910000000000000e+06,-8.724530000000000030e+01
1.840490000000000009e+03,3.067280000000000000e+06,-8.643259999999999366e+01
1.935480000000000018e+03,3.049890000000000000e+06,-8.420010000000000616e+01
2.013420000000000073e+03,2.817360000000000000e+06,-8.720489999999999498e+01
2.127659999999999854e+03,2.665470000000000000e+06,-8.709300000000000352e+01
2.205880000000000109e+03,2.569930000000000000e+06,-8.707410000000000139e+01
2.307690000000000055e+03,2.593810000000000000e+06,-8.315269999999999584e+01
2.419349999999999909e+03,2.334360000000000000e+06,-8.694650000000000034e+01
2.542369999999999891e+03,2.261730000000000000e+06,-8.735080000000000666e+01
2.678570000000000164e+03,2.139060000000000000e+06,-8.696040000000000703e+01
2.803739999999999782e+03,2.038050000000000000e+06,-8.120610000000000639e+01
2.912619999999999891e+03,1.975360000000000000e+06,-8.814339999999999975e+01
3.061219999999999800e+03,1.894840000000000000e+06,-8.789600000000000080e+01
3.260869999999999891e+03,1.758040000000000000e+06,-8.737460000000000093e+01
3.409090000000000146e+03,1.705740000000000000e+06,-8.842220000000000368e+01
3.658539999999999964e+03,1.585390000000000000e+06,-8.766400000000000148e+01
3.846150000000000091e+03,1.513830000000000000e+06,-8.795300000000000296e+01
4.166670000000000073e+03,1.326690000000000000e+06,-8.790229999999999677e+01
4.411760000000000218e+03,1.319230000000000000e+06,-8.734869999999999379e+01
4.761899999999999636e+03,1.225540000000000000e+06,-8.790879999999999939e+01
5.172409999999999854e+03,1.135570000000000000e+06,-8.841230000000000189e+01
5.769229999999999563e+03,1.020000000000000000e+06,-8.840970000000000084e+01
6.250000000000000000e+03,9.448840000000000000e+05,-8.908440000000000225e+01
6.976739999999999782e+03,8.527200000000000000e+05,-8.864849999999999852e+01
7.317069999999999709e+03,8.160610000000000000e+05,-8.871229999999999905e+01
7.317069999999999709e+03,8.115670000000000000e+05,-8.882989999999999498e+01
7.500000000000000000e+03,7.895060000000000000e+05,-8.901130000000000564e+01
7.894739999999999782e+03,7.502550000000000000e+05,-8.932899999999999352e+01
8.108109999999999673e+03,7.346700000000000000e+05,-8.925130000000000052e+01
8.333329999999999927e+03,7.171680000000000000e+05,-8.867709999999999582e+01
8.333329999999999927e+03,7.045570000000000000e+05,-9.028830000000000666e+01
8.823530000000000655e+03,6.812140000000000000e+05,-8.935689999999999600e+01
9.090909999999999854e+03,6.579170000000000000e+05,-8.947129999999999939e+01
9.375000000000000000e+03,6.393190000000000000e+05,-8.966689999999999827e+01
9.375000000000000000e+03,6.405600000000000000e+05,-8.971150000000000091e+01
1.000000000000000000e+04,5.760520000000000000e+05,-8.764180000000000348e+01
1.000000000000000000e+04,5.692480000000000000e+05,-9.012879999999999825e+01
1.034479999999999927e+04,5.803720000000000000e+05,-8.969389999999999930e+01
1.111110000000000036e+04,5.415250000000000000e+05,-9.019249999999999545e+01
1.111110000000000036e+04,5.416600000000000000e+05,-9.019809999999999661e+01
1.200000000000000000e+04,5.016880000000000000e+05,-9.048749999999999716e+01
1.200000000000000000e+04,5.009140000000000000e+05,-9.040019999999999811e+01
1.250000000000000000e+04,4.815330000000000000e+05,-9.069240000000000634e+01
1.363639999999999964e+04,4.420070000000000000e+05,-9.093250000000000455e+01
1.428570000000000073e+04,4.225980000000000000e+05,-9.140959999999999752e+01
1.428570000000000073e+04,4.250210000000000000e+05,-9.103409999999999513e+01
1.500000000000000000e+04,4.049590000000000000e+05,-9.169670000000000698e+01
1.666670000000000073e+04,3.637410000000000000e+05,-9.153480000000000416e+01
1.764709999999999854e+04,3.420160000000000000e+05,-9.236939999999999884e+01
1.875000000000000000e+04,3.228310000000000000e+05,-9.242489999999999384e+01
1.875000000000000000e+04,3.229340000000000000e+05,-9.271189999999999998e+01
2.000000000000000000e+04,3.031340000000000000e+05,-9.298579999999999757e+01
2.307690000000000146e+04,2.622420000000000000e+05,-9.383220000000000027e+01
2.307690000000000146e+04,2.617660000000000000e+05,-9.391620000000000346e+01
2.500000000000000000e+04,2.424890000000000000e+05,-9.434560000000000457e+01
2.727270000000000073e+04,2.254260000000000000e+05,-9.515749999999999886e+01
2.727270000000000073e+04,2.252670000000000000e+05,-9.524559999999999604e+01
2.857140000000000146e+04,2.144240000000000000e+05,-9.553050000000000352e+01
3.000000000000000000e+04,2.043520000000000000e+05,-9.594329999999999359e+01
3.157890000000000146e+04,1.941000000000000000e+05,-9.629630000000000223e+01
3.333330000000000291e+04,1.833010000000000000e+05,-9.693619999999999948e+01
3.529409999999999854e+04,1.730250000000000000e+05,-9.745520000000000493e+01
3.750000000000000000e+04,1.628590000000000000e+05,-9.804410000000000025e+01
4.000000000000000000e+04,1.525150000000000000e+05,-9.877009999999999934e+01
4.285709999999999854e+04,1.420040000000000000e+05,-9.954019999999999868e+01
4.615380000000000291e+04,1.315100000000000000e+05,-1.004200000000000017e+02
5.000000000000000000e+04,1.211590000000000000e+05,-1.013780000000000001e+02
5.217390000000000146e+04,1.158860000000000000e+05,-1.021770000000000067e+02
5.714290000000000146e+04,1.047620000000000000e+05,-1.034219999999999970e+02
6.000000000000000000e+04,9.929480000000000291e+04,-1.041200000000000045e+02
6.000000000000000000e+04,9.931989999999999418e+04,-1.041659999999999968e+02
6.666669999999999709e+04,8.854610000000000582e+04,-1.058509999999999991e+02
7.058819999999999709e+04,8.297480000000000291e+04,-1.066650000000000063e+02
7.058819999999999709e+04,8.314780000000000291e+04,-1.067590000000000003e+02
7.500000000000000000e+04,7.747389999999999418e+04,-1.077680000000000007e+02
8.000000000000000000e+04,7.197539999999999418e+04,-1.090139999999999958e+02
9.230769999999999709e+04,6.064740000000000146e+04,-1.118539999999999992e+02
1.000000000000000000e+05,5.484650000000000000e+04,-1.134159999999999968e+02
1.000000000000000000e+05,5.485219999999999709e+04,-1.134260000000000019e+02
1.090910000000000000e+05,4.902780000000000291e+04,-1.152660000000000053e+02
1.142860000000000000e+05,4.608809999999999854e+04,-1.161820000000000022e+02
1.200000000000000000e+05,4.308219999999999709e+04,-1.172830000000000013e+02
1.200000000000000000e+05,4.315840000000000146e+04,-1.172259999999999991e+02
1.333330000000000000e+05,3.728190000000000146e+04,-1.193059999999999974e+02
1.333330000000000000e+05,3.742059999999999854e+04,-1.193050000000000068e+02
1.411760000000000000e+05,3.452369999999999709e+04,-1.204789999999999992e+02
1.500000000000000000e+05,3.168320000000000073e+04,-1.217860000000000014e+02
1.600000000000000000e+05,2.886829999999999927e+04,-1.233569999999999993e+02
1.846150000000000000e+05,2.309400000000000000e+04,-1.265709999999999980e+02
1.846150000000000000e+05,2.310450000000000000e+04,-1.266050000000000040e+02
2.000000000000000000e+05,2.016179999999999927e+04,-1.282789999999999964e+02
