# Tiempo [s], Voltage [V], Corriente [A]
#  Vpos=0.1, Vneg=0.1, stepPos=0.004, stepNeg=0.004, rev=0, hslV=0.1, hslF=1, cycles=2, T=0.25, pw=0.025, limitI=0.0005, rangeI=1e-08, limitV=0.5, rangeV=20, nlpc=0.01
0.000000000000000000e+00,1.000459999999999960e-01,5.540729999999999539e-10
2.038609999999999867e-01,3.987309999999999986e-03,5.927439999999999954e-10
4.538610000000000144e-01,1.000260000000000038e-01,-6.243819999999999848e-10
7.038609999999999589e-01,7.940340000000000592e-03,6.178259999999999921e-10
9.538609999999999589e-01,1.000650000000000012e-01,-6.638999999999999511e-10
1.203859999999999930e+00,1.201860000000000081e-02,6.454469999999999529e-10
1.453859999999999930e+00,1.000810000000000033e-01,-6.817580000000000150e-10
1.703859999999999930e+00,1.593469999999999956e-02,6.552219999999999528e-10
1.953859999999999930e+00,1.000579999999999942e-01,-6.826040000000000346e-10
2.203860000000000152e+00,1.999760000000000079e-02,6.607410000000000451e-10
2.453860000000000152e+00,1.000560000000000060e-01,-6.596569999999999483e-10
2.703860000000000152e+00,2.399300000000000044e-02,6.220700000000000035e-10
2.953860000000000152e+00,1.000159999999999938e-01,-6.447790000000000127e-10
3.203860000000000152e+00,2.797849999999999990e-02,5.974289999999999643e-10
3.453860000000000152e+00,1.000280000000000058e-01,-6.090759999999999965e-10
3.703860000000000152e+00,3.200809999999999766e-02,5.740520000000000149e-10
3.953860000000000152e+00,1.000250000000000028e-01,-5.801799999999999549e-10
4.203859999999999708e+00,3.600529999999999703e-02,5.438799999999999871e-10
4.453859999999999708e+00,1.000420000000000059e-01,-5.410790000000000503e-10
4.703859999999999708e+00,3.996109999999999940e-02,5.069019999999999935e-10
4.953859999999999708e+00,1.000189999999999968e-01,-4.934790000000000285e-10
5.203859999999999708e+00,4.400330000000000213e-02,4.648330000000000119e-10
5.453859999999999708e+00,1.000729999999999953e-01,-4.684090000000000314e-10
5.703859999999999708e+00,4.805990000000000262e-02,4.129889999999999787e-10
5.953859999999999708e+00,1.000550000000000050e-01,-4.110340000000000098e-10
6.203859999999999708e+00,5.198860000000000287e-02,3.755930000000000181e-10
6.453859999999999708e+00,9.999990000000000268e-02,-3.404859999999999965e-10
6.703859999999999708e+00,5.602179999999999660e-02,3.126979999999999990e-10
6.953859999999999708e+00,9.999629999999999630e-02,-2.712130000000000125e-10
7.203859999999999708e+00,5.997759999999999897e-02,2.336500000000000152e-10
7.453859999999999708e+00,1.000569999999999932e-01,-1.811149999999999996e-10
7.703859999999999708e+00,6.400630000000000208e-02,1.571540000000000035e-10
7.953859999999999708e+00,1.000329999999999969e-01,-9.356740000000000458e-11
8.203860000000000596e+00,6.800259999999999638e-02,4.836320000000000056e-11
8.453860000000000596e+00,1.000469999999999970e-01,7.748599999999999921e-13
8.703860000000000596e+00,7.204299999999999593e-02,-3.449920000000000066e-11
8.953860000000000596e+00,1.000150000000000067e-01,9.043219999999999508e-11
9.203860000000000596e+00,7.599509999999999599e-02,-1.080270000000000008e-10
9.453860000000000596e+00,9.999990000000000268e-02,1.533270000000000021e-10
9.703860000000000596e+00,8.003830000000000666e-02,-1.934409999999999889e-10
9.953860000000000596e+00,1.000049999999999967e-01,2.412920000000000183e-10
1.020390000000000086e+01,8.399850000000000372e-02,-2.648469999999999954e-10
1.045390000000000086e+01,1.000049999999999967e-01,3.254410000000000242e-10
1.070390000000000086e+01,8.798580000000000290e-02,-3.519649999999999835e-10
1.095390000000000086e+01,9.997459999999999680e-02,3.934380000000000221e-10
1.120390000000000086e+01,9.205420000000000269e-02,-4.233600000000000249e-10
1.145390000000000086e+01,9.999080000000000468e-02,4.495380000000000145e-10
1.170390000000000086e+01,9.599370000000000125e-02,-4.620310000000000147e-10
1.195390000000000086e+01,1.000209999999999988e-01,4.856590000000000493e-10
1.220390000000000086e+01,1.000199999999999978e-01,-4.985809999999999557e-10
1.245390000000000086e+01,1.000059999999999977e-01,5.307080000000000041e-10
1.270390000000000086e+01,9.599639999999999562e-02,-5.236629999999999524e-10
1.295390000000000086e+01,9.994939999999999380e-02,5.579000000000000070e-10
1.320390000000000086e+01,9.200460000000000582e-02,-5.648849999999999575e-10
1.345390000000000086e+01,1.000250000000000028e-01,5.974289999999999643e-10
1.370390000000000086e+01,8.805250000000000576e-02,-6.010060000000000440e-10
1.395390000000000086e+01,9.998630000000000018e-02,6.309989999999999838e-10
1.420390000000000086e+01,8.395260000000000222e-02,-6.277799999999999766e-10
1.445390000000000086e+01,1.000589999999999952e-01,7.767679999999999795e-10
1.470390000000000086e+01,8.003109999999999391e-02,-6.299019999999999823e-10
1.495390000000000086e+01,1.000029999999999947e-01,6.849650000000000226e-10
1.520390000000000086e+01,7.602219999999999811e-02,-6.596569999999999483e-10
1.545390000000000086e+01,9.993530000000000468e-02,6.942389999999999639e-10
1.570390000000000086e+01,7.194899999999999907e-02,-6.702069999999999791e-10
1.595390000000000086e+01,9.996679999999999455e-02,7.006169999999999806e-10
1.620390000000000086e+01,6.802360000000000351e-02,-6.774310000000000153e-10
1.645390000000000086e+01,9.997939999999999605e-02,7.069949999999999972e-10
1.670390000000000086e+01,6.398370000000000446e-02,-6.910209999999999653e-10
1.695390000000000086e+01,1.000110000000000027e-01,7.027389999999999863e-10
1.720390000000000086e+01,5.998440000000000022e-02,-6.829500000000000042e-10
1.745390000000000086e+01,1.000039999999999957e-01,6.619450000000000339e-10
1.770390000000000086e+01,5.602109999999999729e-02,-6.515029999999999990e-10
1.795390000000000086e+01,1.000100000000000017e-01,6.717210000000000423e-10
1.820390000000000086e+01,5.203889999999999905e-02,-6.026389999999999907e-10
1.845390000000000086e+01,9.999379999999999380e-02,6.802199999999999527e-10
1.870390000000000086e+01,4.799269999999999925e-02,-6.051899999999999543e-10
1.895390000000000086e+01,9.999289999999999567e-02,6.700279999999999945e-10
1.920390000000000086e+01,4.401320000000000232e-02,-5.745889999999999687e-10
1.945390000000000086e+01,1.000019999999999937e-01,6.385799999999999807e-10
1.970390000000000086e+01,3.999590000000000090e-02,-5.023480000000000110e-10
1.995390000000000086e+01,9.995329999999999493e-02,6.228570000000000340e-10
2.020390000000000086e+01,3.603259999999999796e-02,-5.036229999999999885e-10
2.045390000000000086e+01,9.997040000000000093e-02,5.484939999999999673e-10
2.070390000000000086e+01,3.198460000000000192e-02,-4.883289999999999998e-10
2.095390000000000086e+01,9.995420000000000693e-02,5.871650000000000088e-10
2.120390000000000086e+01,2.802229999999999999e-02,-4.930019999999999691e-10
2.145390000000000086e+01,1.000240000000000018e-01,5.068539999999999953e-10
2.170390000000000086e+01,2.402289999999999981e-02,-4.250170000000000224e-10
2.195390000000000086e+01,9.996140000000000581e-02,4.409910000000000026e-10
2.220390000000000086e+01,2.001999999999999960e-02,-3.859160000000000144e-10
2.245390000000000086e+01,1.000120000000000037e-01,3.772500000000000156e-10
2.270390000000000086e+01,1.602790000000000117e-02,-3.277060000000000159e-10
2.295390000000000086e+01,9.995600000000000318e-02,3.101109999999999851e-10
2.320390000000000086e+01,1.197269999999999932e-02,-2.550359999999999969e-10
2.345390000000000086e+01,9.998750000000000693e-02,2.072809999999999897e-10
2.370390000000000086e+01,7.958099999999999202e-03,-1.823780000000000034e-10
2.395390000000000086e+01,1.000029999999999947e-01,1.384379999999999980e-10
2.420390000000000086e+01,4.039840000000000271e-03,-1.428600000000000113e-10
2.445390000000000086e+01,9.992349999999999843e-02,1.564029999999999910e-11
2.470390000000000086e+01,-1.811980000000000056e-06,9.691720000000000228e-12
2.495390000000000086e+01,9.996589999999999643e-02,-7.784370000000000282e-11
2.520390000000000086e+01,-4.684929999999999883e-05,4.112719999999999706e-11
2.545390000000000086e+01,9.998750000000000693e-02,-1.861930000000000052e-10
2.570390000000000086e+01,-4.071710000000000086e-03,1.269700000000000020e-10
2.595390000000000086e+01,9.991460000000000619e-02,-2.435680000000000010e-10
2.620390000000000086e+01,-7.988520000000000690e-03,2.017500000000000012e-10
2.645390000000000086e+01,1.000169999999999948e-01,-3.094320000000000022e-10
2.670390000000000086e+01,-1.208640000000000062e-02,3.258349999999999920e-10
2.695390000000000086e+01,1.000069999999999987e-01,-3.158090000000000103e-10
2.720390000000000086e+01,-1.606809999999999836e-02,4.405619999999999930e-10
2.745390000000000086e+01,1.000059999999999977e-01,-4.131200000000000168e-10
2.770390000000000086e+01,-1.999930000000000110e-02,4.656309999999999816e-10
2.795390000000000086e+01,9.998479999999999868e-02,-4.581570000000000237e-10
2.820390000000000086e+01,-2.408549999999999927e-02,5.004759999999999786e-10
2.845390000000000086e+01,9.995690000000000131e-02,-5.193470000000000472e-10
2.870390000000000086e+01,-2.802839999999999845e-02,5.353209999999999757e-10
2.895390000000000086e+01,1.000400000000000039e-01,-5.767229999999999739e-10
2.920390000000000086e+01,-3.201369999999999910e-02,5.591149999999999868e-10
2.945390000000000086e+01,9.998210000000000430e-02,-6.145359999999999963e-10
2.970390000000000086e+01,-3.603950000000000209e-02,6.177539999999999949e-10
2.995390000000000086e+01,1.000059999999999977e-01,-6.578800000000000071e-10
3.020390000000000086e+01,-4.002660000000000246e-02,6.389980000000000510e-10
3.045390000000000086e+01,9.997490000000000543e-02,-6.702069999999999791e-10
3.070390000000000086e+01,-4.405239999999999850e-02,6.674770000000000309e-10
3.095390000000000086e+01,1.000250000000000028e-01,-6.731750000000000044e-10
3.120390000000000086e+01,-4.800530000000000075e-02,6.173250000000000370e-10
3.145390000000000086e+01,1.000059999999999977e-01,-6.340859999999999960e-10
3.170390000000000086e+01,-5.209420000000000023e-02,6.160619999999999556e-10
3.195390000000000086e+01,9.995310000000000306e-02,-6.247399999999999540e-10
3.220389999999999731e+01,-5.607419999999999766e-02,5.684730000000000283e-10
3.245389999999999731e+01,9.998289999999999955e-02,-5.737420000000000439e-10
3.270389999999999731e+01,-6.009559999999999902e-02,5.319239999999999925e-10
3.295389999999999731e+01,9.993779999999999331e-02,-5.414490000000000190e-10
3.320389999999999731e+01,-6.408550000000000357e-02,4.805090000000000206e-10
3.345389999999999731e+01,1.000319999999999959e-01,-4.632590000000000026e-10
3.370389999999999731e+01,-6.802139999999999576e-02,3.938199999999999904e-10
3.395389999999999731e+01,1.000299999999999939e-01,-3.816720000000000030e-10
3.420389999999999731e+01,-7.205730000000000468e-02,3.330589999999999766e-10
3.445389999999999731e+01,1.000449999999999950e-01,-3.017779999999999995e-10
3.470389999999999731e+01,-7.607600000000000473e-02,2.145050000000000001e-10
3.495389999999999731e+01,1.000290000000000068e-01,-1.641039999999999898e-10
3.520389999999999731e+01,-8.007319999999999716e-02,8.574720000000000040e-11
3.545389999999999731e+01,1.000110000000000027e-01,-3.874300000000000001e-11
3.570389999999999731e+01,-8.400720000000000409e-02,-5.913969999999999690e-11
3.595389999999999731e+01,9.997649999999999593e-02,1.346109999999999966e-10
3.620389999999999731e+01,-8.803679999999999839e-02,-1.857759999999999952e-10
3.645389999999999731e+01,1.000240000000000018e-01,2.344729999999999926e-10
3.670389999999999731e+01,-9.209520000000000206e-02,-3.064630000000000200e-10
3.695389999999999731e+01,1.000189999999999968e-01,3.666279999999999875e-10
3.720389999999999731e+01,-9.599589999999999512e-02,-4.301190000000000012e-10
3.745389999999999731e+01,1.000270000000000048e-01,4.720089999999999982e-10
3.770389999999999731e+01,-9.998400000000000343e-02,-5.151030000000000358e-10
3.795389999999999731e+01,9.999639999999999918e-02,5.276799999999999811e-10
3.820389999999999731e+01,-9.607970000000000399e-02,-5.835179999999999489e-10
3.845389999999999731e+01,9.998819999999999930e-02,6.135109999999999921e-10
3.870389999999999731e+01,-9.204110000000000069e-02,-6.502390000000000125e-10
3.895389999999999731e+01,9.998369999999999480e-02,6.517529999999999723e-10
3.920389999999999731e+01,-8.800710000000000477e-02,-6.880520000000000348e-10
3.945389999999999731e+01,1.000039999999999957e-01,6.955269999999999495e-10
3.970389999999999731e+01,-8.407839999999999758e-02,-7.241730000000000179e-10
3.995389999999999731e+01,1.001060000000000005e-01,7.035970000000000054e-10
4.020389999999999731e+01,-8.001999999999999391e-02,-7.182239999999999592e-10
4.045389999999999731e+01,1.000579999999999942e-01,6.640790000000000391e-10
4.070389999999999731e+01,-7.599770000000000136e-02,-6.740330000000000236e-10
4.095389999999999731e+01,1.000479999999999980e-01,6.237149999999999498e-10
4.120389999999999731e+01,-7.210769999999999680e-02,-6.268619999999999597e-10
4.145389999999999731e+01,1.000130000000000047e-01,5.718710000000000200e-10
4.170389999999999731e+01,-6.807459999999999900e-02,-5.661010000000000493e-10
4.195389999999999731e+01,1.000219999999999998e-01,5.213019999999999644e-10
4.220389999999999731e+01,-6.406030000000000058e-02,-5.036349999999999881e-10
4.245389999999999731e+01,9.995130000000000681e-02,4.286649999999999874e-10
4.270389999999999731e+01,-6.007040000000000296e-02,-3.969670000000000003e-10
4.295389999999999731e+01,9.999639999999999918e-02,3.262640000000000016e-10
4.320389999999999731e+01,-5.604800000000000060e-02,-2.720359999999999899e-10
4.345389999999999731e+01,9.993150000000000643e-02,1.987809999999999932e-10
4.370389999999999731e+01,-5.206260000000000054e-02,-1.326560000000000018e-10
4.395389999999999731e+01,1.000000000000000056e-01,5.515810000000000182e-11
4.420389999999999731e+01,-4.803759999999999974e-02,-5.173679999999999822e-12
4.445389999999999731e+01,9.994409999999999406e-02,-7.656810000000000208e-11
4.470389999999999731e+01,-4.403499999999999776e-02,1.737120000000000046e-10
4.495389999999999731e+01,9.997929999999999318e-02,-1.670719999999999893e-10
4.520389999999999731e+01,-4.008300000000000057e-02,2.276779999999999917e-10
4.545389999999999731e+01,1.000589999999999952e-01,-2.864840000000000108e-10
4.570389999999999731e+01,-3.605970000000000009e-02,3.831980000000000141e-10
4.595389999999999731e+01,1.000090000000000007e-01,-3.884669999999999780e-10
4.620389999999999731e+01,-3.202830000000000260e-02,4.320620000000000223e-10
4.645389999999999731e+01,9.999639999999999918e-02,-4.118439999999999790e-10
4.670389999999999731e+01,-2.805370000000000086e-02,4.949569999999999897e-10
4.695389999999999731e+01,1.000179999999999958e-01,-5.248790000000000442e-10
4.720389999999999731e+01,-2.410069999999999921e-02,5.145069999999999894e-10
4.745389999999999731e+01,9.996869999999999368e-02,-5.503769999999999907e-10
4.770389999999999731e+01,-1.999269999999999867e-02,6.050229999999999693e-10
4.795389999999999731e+01,9.999750000000000305e-02,-5.223389999999999682e-10
4.820389999999999731e+01,-1.611289999999999945e-02,7.261280000000000386e-10
4.845389999999999731e+01,1.000039999999999957e-01,-6.349440000000000151e-10
4.870389999999999731e+01,-1.207000000000000087e-02,6.934050000000000472e-10
4.895389999999999731e+01,9.998219999999999330e-02,-6.438729999999999954e-10
4.920389999999999731e+01,-8.060480000000000075e-03,7.656449999999999963e-10
4.945389999999999731e+01,9.992180000000000506e-02,-6.604429999999999702e-10
4.970389999999999731e+01,-4.027509999999999771e-03,6.483669999999999801e-10
4.972899999999999920e+01,1.000319999999999959e-01,1.588339999999999915e-10
4.997899999999999920e+01,3.929000000000000201e-03,-1.403089999999999960e-10
5.022899999999999920e+01,1.000019999999999937e-01,2.421259999999999867e-10
5.047899999999999920e+01,7.973269999999999316e-03,-2.172230000000000004e-10
5.072899999999999920e+01,9.992180000000000506e-02,4.052999999999999859e-10
5.097899999999999920e+01,1.193830000000000065e-02,-3.617049999999999933e-10
5.122899999999999920e+01,9.995519999999999405e-02,4.673360000000000290e-10
5.147899999999999920e+01,1.596010000000000137e-02,-4.811169999999999631e-10
5.172899999999999920e+01,9.997680000000000455e-02,6.062980000000000502e-10
5.197899999999999920e+01,1.996289999999999870e-02,-5.163910000000000214e-10
5.222899999999999920e+01,9.994519999999999793e-02,5.315070000000000341e-10
5.247899999999999920e+01,2.396850000000000022e-02,-5.291340000000000465e-10
5.272899999999999920e+01,1.000090000000000007e-01,7.189040000000000023e-10
5.297899999999999920e+01,2.794970000000000093e-02,-5.737540000000000434e-10
5.322899999999999920e+01,9.994250000000000356e-02,7.805230000000000353e-10
5.347899999999999920e+01,3.193000000000000005e-02,-6.651160000000000429e-10
5.372899999999999920e+01,1.000010000000000066e-01,7.138009999999999632e-10
5.397899999999999920e+01,3.604550000000000115e-02,-6.634240000000000036e-10
5.422899999999999920e+01,9.999299999999999855e-02,7.601260000000000074e-10
5.447899999999999920e+01,3.998349999999999821e-02,-6.748910000000000427e-10
5.472899999999999920e+01,9.998400000000000343e-02,6.674890000000000304e-10
5.497899999999999920e+01,4.397190000000000126e-02,-6.519439999999999564e-10
5.522899999999999920e+01,9.994519999999999793e-02,7.171989999999999549e-10
5.547899999999999920e+01,4.794600000000000251e-02,-6.047729999999999960e-10
5.572899999999999920e+01,9.992810000000000581e-02,7.095579999999999603e-10
5.597899999999999920e+01,5.200020000000000336e-02,-5.971309999999999928e-10
5.622899999999999920e+01,9.995880000000000043e-02,5.867480000000000505e-10
5.647899999999999920e+01,5.601649999999999685e-02,-4.547719999999999884e-10
5.672899999999999920e+01,9.997770000000000268e-02,6.326440000000000334e-10
5.697899999999999920e+01,6.002299999999999996e-02,-3.957030000000000138e-10
5.722899999999999920e+01,9.999030000000000418e-02,4.248499999999999856e-10
5.747899999999999920e+01,6.398800000000000321e-02,-3.306869999999999976e-10
5.772899999999999920e+01,9.999750000000000305e-02,2.846239999999999779e-10
5.797899999999999920e+01,6.797649999999999526e-02,-8.761879999999999577e-11
5.822899999999999920e+01,9.999389999999999668e-02,1.839039999999999886e-10
5.847899999999999920e+01,7.202340000000000131e-02,-2.260209999999999878e-11
5.872899999999999920e+01,9.999210000000000043e-02,3.262759999999999882e-11
5.897899999999999920e+01,7.596959999999999824e-02,9.977819999999999827e-11
5.922899999999999920e+01,1.000110000000000027e-01,-6.891489999999999587e-11
5.947899999999999920e+01,7.995349999999999679e-02,1.800890000000000127e-10
5.972899999999999920e+01,1.000359999999999999e-01,-2.801179999999999937e-10
5.997899999999999920e+01,8.390770000000000173e-02,4.486439999999999967e-10
6.022899999999999920e+01,9.998400000000000343e-02,-4.330989999999999744e-10
6.047899999999999920e+01,8.790699999999999903e-02,6.147979999999999691e-10
6.072899999999999920e+01,1.000550000000000050e-01,-5.372050000000000076e-10
6.097899999999999920e+01,9.197650000000000270e-02,5.935430000000000254e-10
6.122899999999999920e+01,9.999030000000000418e-02,-5.287049999999999853e-10
6.147899999999999920e+01,9.601350000000000162e-02,6.708860000000000136e-10
6.172899999999999920e+01,9.994799999999999518e-02,-5.508069999999999571e-10
6.197899999999999920e+01,9.994609999999999606e-02,7.660749999999999628e-10
6.222899999999999920e+01,9.999840000000000118e-02,-6.574750000000000483e-10
6.247899999999999920e+01,9.594149999999999900e-02,7.129550000000000469e-10
6.272899999999999920e+01,9.997949999999999893e-02,-6.553410000000000430e-10
6.297899999999999920e+01,9.200350000000000195e-02,6.394390000000000084e-10
6.322899999999999920e+01,1.000059999999999977e-01,-5.240320000000000160e-10
6.347899999999999920e+01,8.796519999999999340e-02,5.463719999999999616e-10
6.372899999999999920e+01,9.998049999999999993e-02,-4.947070000000000164e-10
6.397899999999999920e+01,8.397150000000000447e-02,4.830599999999999842e-10
6.422899999999999920e+01,1.000029999999999947e-01,-3.918770000000000210e-10
6.447899999999999920e+01,7.999399999999999566e-02,3.296609999999999848e-10
6.472899999999999920e+01,9.998319999999999430e-02,-2.138259999999999914e-10
6.497899999999999920e+01,7.599939999999999474e-02,1.516100000000000069e-10
6.522899999999999920e+01,1.000079999999999997e-01,-1.919270000000000161e-11
6.547899999999999920e+01,7.192460000000000520e-02,-5.872250000000000065e-11
6.572899999999999920e+01,9.999310000000000143e-02,1.494880000000000012e-10
6.597899999999999920e+01,6.797229999999999939e-02,-2.066020000000000068e-10
6.622899999999999920e+01,9.986069999999999669e-02,3.126620000000000004e-10
6.647899999999999920e+01,6.404429999999999845e-02,-3.731729999999999892e-10
6.672899999999999920e+01,9.998229999999999618e-02,4.443879999999999858e-10
6.697899999999999920e+01,5.990650000000000142e-02,-4.709119999999999968e-10
6.722899999999999920e+01,9.995350000000000068e-02,5.170579999999999530e-10
6.747899999999999920e+01,5.600920000000000204e-02,-5.495309999999999710e-10
6.772899999999999920e+01,1.000560000000000060e-01,6.011840000000000200e-10
6.797899999999999920e+01,5.194069999999999937e-02,-6.323930000000000515e-10
6.822899999999999920e+01,9.998949999999999505e-02,6.683350000000000501e-10
6.847899999999999920e+01,4.797309999999999769e-02,-6.753090000000000096e-10
6.872899999999999920e+01,1.000039999999999957e-01,6.980780000000000165e-10
6.897899999999999920e+01,4.396769999999999845e-02,-6.952879999999999672e-10
6.922899999999999920e+01,1.000420000000000059e-01,6.904240000000000138e-10
6.947899999999999920e+01,3.997040000000000315e-02,-6.957050000000000290e-10
6.972899999999999920e+01,9.995529999999999693e-02,6.721500000000000002e-10
6.997899999999999920e+01,3.597220000000000278e-02,-6.502390000000000125e-10
7.022899999999999920e+01,9.993820000000000481e-02,6.275420000000000029e-10
7.047899999999999920e+01,3.194879999999999942e-02,-6.001000000000000267e-10
7.072899999999999920e+01,9.994450000000000556e-02,5.778189999999999668e-10
7.097899999999999920e+01,2.795869999999999952e-02,-5.389090000000000464e-10
7.122899999999999920e+01,9.999220000000000330e-02,5.183340000000000425e-10
7.147899999999999920e+01,2.391450000000000173e-02,-4.806880000000000052e-10
7.172899999999999920e+01,9.996969999999999468e-02,4.456640000000000236e-10
7.197899999999999920e+01,1.996219999999999939e-02,-4.143949999999999943e-10
7.222899999999999920e+01,1.000380000000000019e-01,3.385780000000000172e-10
7.247899999999999920e+01,1.598559999999999912e-02,-3.022070000000000091e-10
7.272899999999999920e+01,9.994630000000000181e-02,2.404209999999999911e-10
7.297899999999999920e+01,1.198650000000000063e-02,-1.823780000000000034e-10
7.322899999999999920e+01,9.995260000000000256e-02,1.205920000000000112e-10
7.347899999999999920e+01,7.969379999999999867e-03,-5.786420000000000218e-11
7.372899999999999920e+01,1.000039999999999957e-01,7.557870000000000793e-12
7.397899999999999920e+01,3.955860000000000279e-03,7.129909999999999939e-11
7.422899999999999920e+01,9.998769999999999880e-02,-8.039470000000000518e-11
7.447899999999999920e+01,-2.703670000000000154e-05,1.439690000000000123e-10
7.472899999999999920e+01,9.999669999999999392e-02,-1.836539999999999895e-10
7.497899999999999920e+01,-6.577970000000000312e-05,2.344729999999999926e-10
7.522899999999999920e+01,1.000430000000000069e-01,-2.762909999999999923e-10
7.547899999999999920e+01,-4.010269999999999807e-03,3.419880000000000085e-10
7.572899999999999920e+01,1.000079999999999997e-01,-3.854990000000000044e-10
7.597899999999999920e+01,-8.010649999999999368e-03,4.184720000000000207e-10
7.622899999999999920e+01,9.999130000000000518e-02,-4.526379999999999831e-10
7.647899999999999920e+01,-1.204080000000000081e-02,4.664900000000000093e-10
7.672899999999999920e+01,9.994809999999999806e-02,-4.985329999999999575e-10
7.697899999999999920e+01,-1.606010000000000076e-02,5.098340000000000201e-10
7.722899999999999920e+01,9.992020000000000068e-02,-5.299809999999999713e-10
7.747899999999999920e+01,-2.008300000000000016e-02,5.501990000000000146e-10
7.772899999999999920e+01,9.994989999999999430e-02,-5.907419999999999852e-10
7.797899999999999920e+01,-2.399149999999999894e-02,6.071449999999999750e-10
7.822899999999999920e+01,1.000309999999999949e-01,-6.353619999999999821e-10
7.847899999999999920e+01,-2.807110000000000161e-02,6.373050000000000032e-10
7.872899999999999920e+01,9.996789999999999843e-02,-6.634120000000000041e-10
7.897899999999999920e+01,-3.209859999999999797e-02,6.555800000000000253e-10
7.922899999999999920e+01,9.999130000000000518e-02,-6.621360000000000180e-10
7.947899999999999920e+01,-3.605180000000000190e-02,6.568550000000000029e-10
7.972899999999999920e+01,9.999159999999999993e-02,-6.663920000000000290e-10
7.997899999999999920e+01,-4.004429999999999795e-02,6.309389999999999861e-10
8.022899999999999920e+01,1.000169999999999948e-01,-6.294250000000000262e-10
8.047899999999999920e+01,-4.402149999999999813e-02,5.850430000000000031e-10
8.072899999999999920e+01,1.000140000000000057e-01,-5.724789999999999625e-10
8.097899999999999920e+01,-4.807349999999999818e-02,5.331989999999999700e-10
8.122899999999999920e+01,1.000120000000000037e-01,-5.176539999999999993e-10
8.147899999999999920e+01,-5.200930000000000136e-02,4.562969999999999909e-10
8.172899999999999920e+01,9.994840000000000668e-02,-4.177929999999999861e-10
8.197899999999999920e+01,-5.605949999999999822e-02,3.623839999999999761e-10
8.222899999999999920e+01,9.998890000000000555e-02,-2.958420000000000006e-10
8.247899999999999920e+01,-6.003220000000000084e-02,1.945379999999999904e-10
8.272899999999999920e+01,9.992760000000000531e-02,-1.118420000000000027e-10
8.297899999999999920e+01,-6.403469999999999995e-02,5.435939999999999958e-12
8.322899999999999920e+01,1.000550000000000050e-01,9.850259999999999752e-11
8.347899999999999920e+01,-6.805329999999999713e-02,-1.789809999999999944e-10
8.372899999999999920e+01,9.996370000000000255e-02,2.459529999999999881e-10
8.397899999999999920e+01,-7.208549999999999680e-02,-3.833769999999999987e-10
8.422899999999999920e+01,1.000019999999999937e-01,4.392980000000000065e-10
8.447899999999999920e+01,-7.604199999999999848e-02,-5.138399999999999544e-10
8.472899999999999920e+01,9.999879999999999880e-02,5.412820000000000340e-10
8.497899999999999920e+01,-8.007960000000000078e-02,-5.992529999999999985e-10
8.522899999999999920e+01,9.997359999999999580e-02,6.330609999999999918e-10
8.547899999999999920e+01,-8.402350000000000096e-02,-6.889099999999999506e-10
8.572899999999999920e+01,1.000039999999999957e-01,6.963849999999999687e-10
8.597899999999999920e+01,-8.805929999999999314e-02,-7.326840000000000312e-10
8.622899999999999920e+01,9.999790000000000068e-02,7.108210000000000417e-10
8.647899999999999920e+01,-9.206259999999999444e-02,-6.753210000000000092e-10
8.672899999999999920e+01,1.000049999999999967e-01,6.857510000000000445e-10
8.697899999999999920e+01,-9.601650000000000462e-02,-6.489630000000000264e-10
8.722899999999999920e+01,1.000960000000000044e-01,5.863189999999999892e-10
8.747899999999999920e+01,-1.000980000000000064e-01,-5.848050000000000294e-10
8.772899999999999920e+01,9.999429999999999430e-02,5.238530000000000314e-10
8.797899999999999920e+01,-9.610470000000000124e-02,-4.628419999999999926e-10
8.822899999999999920e+01,1.000079999999999997e-01,4.061460000000000056e-10
8.847899999999999920e+01,-9.208969999999999656e-02,-3.111359999999999893e-10
8.872899999999999920e+01,1.000159999999999938e-01,2.021790000000000108e-10
8.897899999999999920e+01,-8.808000000000000551e-02,-1.186369999999999906e-10
8.922899999999999920e+01,9.998079999999999468e-02,6.705519999999999401e-11
8.947899999999999920e+01,-8.403159999999999796e-02,1.860379999999999939e-10
8.972899999999999920e+01,1.000309999999999949e-01,-1.781230000000000010e-10
8.997899999999999920e+01,-8.005890000000000228e-02,3.224370000000000002e-10
9.022899999999999920e+01,9.998260000000000480e-02,-4.288440000000000237e-10
9.047899999999999920e+01,-7.601410000000000111e-02,2.036190000000000183e-09
9.072899999999999920e+01,9.992220000000000268e-02,-3.599999999999999976e-10
9.097899999999999920e+01,-7.198549999999999394e-02,6.721619999999999997e-10
9.122899999999999920e+01,1.000039999999999957e-01,-3.621340000000000029e-10
9.147899999999999920e+01,-6.807589999999999475e-02,8.021830000000000411e-10
9.172899999999999920e+01,9.998980000000000368e-02,-6.149769999999999537e-10
9.197899999999999920e+01,-6.407519999999999882e-02,7.656449999999999963e-10
9.222899999999999920e+01,1.000359999999999999e-01,-7.071849999999999728e-10
9.247899999999999920e+01,-6.005649999999999877e-02,7.499220000000000497e-10
9.272899999999999920e+01,9.997090000000000143e-02,-6.425980000000000179e-10
9.297899999999999920e+01,-5.605229999999999935e-02,6.853339999999999828e-10
9.322899999999999920e+01,9.992040000000000644e-02,-5.427359999999999961e-10
9.347899999999999920e+01,-5.203630000000000061e-02,5.867480000000000505e-10
9.372899999999999920e+01,9.995919999999999805e-02,-4.768609999999999521e-10
9.397899999999999920e+01,-4.802130000000000287e-02,4.320740000000000219e-10
9.422899999999999920e+01,1.000309999999999949e-01,-3.311040000000000076e-10
9.447899999999999920e+01,-4.405390000000000000e-02,2.276779999999999917e-10
9.472899999999999920e+01,9.998799999999999355e-02,-1.016380000000000062e-10
9.497899999999999920e+01,-4.015149999999999969e-02,-2.429489999999999900e-11
9.522899999999999920e+01,9.997090000000000143e-02,1.388670000000000076e-10
9.547899999999999920e+01,-3.607780000000000015e-02,-2.422930000000000235e-10
9.572899999999999920e+01,1.000270000000000048e-01,3.079889999999999794e-10
9.597899999999999920e+01,-3.206669999999999660e-02,-4.114270000000000207e-10
9.622899999999999920e+01,9.999470000000000580e-02,4.983539999999999729e-10
9.647899999999999920e+01,-2.805569999999999939e-02,-5.563260000000000494e-10
9.672899999999999920e+01,9.999379999999999380e-02,6.470800000000000030e-10
9.697899999999999920e+01,-2.397530000000000147e-02,-3.608580000000000168e-10
9.722899999999999920e+01,9.997309999999999530e-02,6.997819999999999519e-10
9.747899999999999920e+01,-2.003720000000000154e-02,-5.427359999999999961e-10
9.772899999999999920e+01,9.999379999999999380e-02,7.384420000000000025e-10
9.797899999999999920e+01,-1.600089999999999846e-02,-6.489630000000000264e-10
9.822899999999999920e+01,9.999109999999999943e-02,7.197500000000000219e-10
9.847899999999999920e+01,-1.206370000000000012e-02,-7.016539999999999843e-10
9.872899999999999920e+01,1.000110000000000027e-01,7.282500000000000443e-10
9.897899999999999920e+01,-8.053589999999999360e-03,-7.156849999999999951e-10
9.922899999999999920e+01,9.996049999999999380e-02,7.401470000000000498e-10
9.947899999999999920e+01,-4.020929999999999817e-03,-7.263060000000000146e-10
